digraph Tree {
node [shape=box, style="filled, rounded", color="black", fontname=helvetica] ;
edge [fontname=helvetica] ;
0 [label="3/1/2017 <= 0.04\nentropy = 0.59\nsamples = 10683\nvalue = [15024, 1729, 263]\nclass = 0", fillcolor="#e58139de"] ;
1 [label="5/1/2019 <= -0.01\nentropy = 0.14\nsamples = 9210\nvalue = [14409, 278, 0]\nclass = 0", fillcolor="#e58139fa"] ;
0 -> 1 [labeldistance=2.5, labelangle=45, headlabel="True"] ;
2 [label="7/1/2019 <= -0.02\nentropy = 0.03\nsamples = 8014\nvalue = [12726, 33, 0]\nclass = 0", fillcolor="#e58139fe"] ;
1 -> 2 ;
3 [label="4/1/2017 <= -0.07\nentropy = 0.02\nsamples = 7510\nvalue = [11919, 25, 0]\nclass = 0", fillcolor="#e58139fe"] ;
2 -> 3 ;
4 [label="entropy = 0.0\nsamples = 1870\nvalue = [2908, 0, 0]\nclass = 0", fillcolor="#e58139ff"] ;
3 -> 4 ;
5 [label="29 <= 1.35\nentropy = 0.03\nsamples = 5640\nvalue = [9011, 25, 0]\nclass = 0", fillcolor="#e58139fe"] ;
3 -> 5 ;
6 [label="12 <= 12.3\nentropy = 0.03\nsamples = 5269\nvalue = [8434, 25, 0]\nclass = 0", fillcolor="#e58139fe"] ;
5 -> 6 ;
7 [label="5/1/2017 <= -0.02\nentropy = 0.03\nsamples = 5268\nvalue = [8434, 23, 0]\nclass = 0", fillcolor="#e58139fe"] ;
6 -> 7 ;
8 [label="39 <= 1.31\nentropy = 0.03\nsamples = 5262\nvalue = [8429, 22, 0]\nclass = 0", fillcolor="#e58139fe"] ;
7 -> 8 ;
9 [label="8/1/2019 <= -0.02\nentropy = 0.03\nsamples = 4687\nvalue = [7474, 22, 0]\nclass = 0", fillcolor="#e58139fe"] ;
8 -> 9 ;
10 [label="11 <= 20.61\nentropy = 0.04\nsamples = 2082\nvalue = [3308, 16, 0]\nclass = 0", fillcolor="#e58139fe"] ;
9 -> 10 ;
11 [label="21 <= 6.31\nentropy = 0.04\nsamples = 2080\nvalue = [3308, 13, 0]\nclass = 0", fillcolor="#e58139fe"] ;
10 -> 11 ;
12 [label="6/1/2019 <= -0.06\nentropy = 0.03\nsamples = 2058\nvalue = [3281, 10, 0]\nclass = 0", fillcolor="#e58139fe"] ;
11 -> 12 ;
13 [label="10/1/2017 <= -0.3\nentropy = 0.01\nsamples = 1453\nvalue = [2311, 2, 0]\nclass = 0", fillcolor="#e58139ff"] ;
12 -> 13 ;
14 [label="8/1/2019 <= -0.03\nentropy = 0.03\nsamples = 381\nvalue = [582, 2, 0]\nclass = 0", fillcolor="#e58139fe"] ;
13 -> 14 ;
15 [label="4/1/2019 <= -0.06\nentropy = 0.06\nsamples = 187\nvalue = [277, 2, 0]\nclass = 0", fillcolor="#e58139fd"] ;
14 -> 15 ;
16 [label="entropy = 0.0\nsamples = 186\nvalue = [277, 0, 0]\nclass = 0", fillcolor="#e58139ff"] ;
15 -> 16 ;
17 [label="entropy = 0.0\nsamples = 1\nvalue = [0, 2, 0]\nclass = 1", fillcolor="#39e581ff"] ;
15 -> 17 ;
18 [label="entropy = 0.0\nsamples = 194\nvalue = [305, 0, 0]\nclass = 0", fillcolor="#e58139ff"] ;
14 -> 18 ;
19 [label="entropy = 0.0\nsamples = 1072\nvalue = [1729, 0, 0]\nclass = 0", fillcolor="#e58139ff"] ;
13 -> 19 ;
20 [label="31 <= 1.32\nentropy = 0.07\nsamples = 605\nvalue = [970, 8, 0]\nclass = 0", fillcolor="#e58139fd"] ;
12 -> 20 ;
21 [label="37 <= 1.41\nentropy = 0.08\nsamples = 519\nvalue = [831, 8, 0]\nclass = 0", fillcolor="#e58139fd"] ;
20 -> 21 ;
22 [label="4/1/2017 <= -0.06\nentropy = 0.09\nsamples = 442\nvalue = [717, 8, 0]\nclass = 0", fillcolor="#e58139fc"] ;
21 -> 22 ;
23 [label="35 <= 1.46\nentropy = 0.1\nsamples = 324\nvalue = [517, 7, 0]\nclass = 0", fillcolor="#e58139fc"] ;
22 -> 23 ;
24 [label="2/1/2019 <= -0.06\nentropy = 0.12\nsamples = 264\nvalue = [413, 7, 0]\nclass = 0", fillcolor="#e58139fb"] ;
23 -> 24 ;
25 [label="9/1/2019 <= -0.07\nentropy = 0.08\nsamples = 183\nvalue = [291, 3, 0]\nclass = 0", fillcolor="#e58139fc"] ;
24 -> 25 ;
26 [label="5/1/2017 <= -0.06\nentropy = 0.22\nsamples = 50\nvalue = [80, 3, 0]\nclass = 0", fillcolor="#e58139f5"] ;
25 -> 26 ;
27 [label="entropy = 0.0\nsamples = 1\nvalue = [1, 0, 0]\nclass = 0", fillcolor="#e58139ff"] ;
26 -> 27 ;
28 [label="38 <= 4.07\nentropy = 0.23\nsamples = 49\nvalue = [79, 3, 0]\nclass = 0", fillcolor="#e58139f5"] ;
26 -> 28 ;
29 [label="45 <= 6.19\nentropy = 0.23\nsamples = 48\nvalue = [76, 3, 0]\nclass = 0", fillcolor="#e58139f5"] ;
28 -> 29 ;
30 [label="6/1/2017 <= -0.05\nentropy = 0.24\nsamples = 47\nvalue = [74, 3, 0]\nclass = 0", fillcolor="#e58139f5"] ;
29 -> 30 ;
31 [label="41 <= 1.32\nentropy = 0.24\nsamples = 46\nvalue = [73, 3, 0]\nclass = 0", fillcolor="#e58139f5"] ;
30 -> 31 ;
32 [label="19 <= 8.04\nentropy = 0.25\nsamples = 44\nvalue = [68, 3, 0]\nclass = 0", fillcolor="#e58139f4"] ;
31 -> 32 ;
33 [label="entropy = 0.0\nsamples = 42\nvalue = [68, 0, 0]\nclass = 0", fillcolor="#e58139ff"] ;
32 -> 33 ;
34 [label="entropy = 0.0\nsamples = 2\nvalue = [0, 3, 0]\nclass = 1", fillcolor="#39e581ff"] ;
32 -> 34 ;
35 [label="entropy = 0.0\nsamples = 2\nvalue = [5, 0, 0]\nclass = 0", fillcolor="#e58139ff"] ;
31 -> 35 ;
36 [label="entropy = 0.0\nsamples = 1\nvalue = [1, 0, 0]\nclass = 0", fillcolor="#e58139ff"] ;
30 -> 36 ;
37 [label="entropy = 0.0\nsamples = 1\nvalue = [2, 0, 0]\nclass = 0", fillcolor="#e58139ff"] ;
29 -> 37 ;
38 [label="entropy = 0.0\nsamples = 1\nvalue = [3, 0, 0]\nclass = 0", fillcolor="#e58139ff"] ;
28 -> 38 ;
39 [label="entropy = 0.0\nsamples = 133\nvalue = [211, 0, 0]\nclass = 0", fillcolor="#e58139ff"] ;
25 -> 39 ;
40 [label="9/1/2017 <= -0.05\nentropy = 0.2\nsamples = 81\nvalue = [122, 4, 0]\nclass = 0", fillcolor="#e58139f7"] ;
24 -> 40 ;
41 [label="48 <= 4.05\nentropy = 0.22\nsamples = 75\nvalue = [112, 4, 0]\nclass = 0", fillcolor="#e58139f6"] ;
40 -> 41 ;
42 [label="8/1/2017 <= -0.06\nentropy = 0.22\nsamples = 72\nvalue = [109, 4, 0]\nclass = 0", fillcolor="#e58139f6"] ;
41 -> 42 ;
43 [label="entropy = 0.0\nsamples = 4\nvalue = [6, 0, 0]\nclass = 0", fillcolor="#e58139ff"] ;
42 -> 43 ;
44 [label="34 <= 3.61\nentropy = 0.23\nsamples = 68\nvalue = [103, 4, 0]\nclass = 0", fillcolor="#e58139f5"] ;
42 -> 44 ;
45 [label="9/1/2019 <= -0.05\nentropy = 0.24\nsamples = 65\nvalue = [98, 4, 0]\nclass = 0", fillcolor="#e58139f5"] ;
44 -> 45 ;
46 [label="entropy = 0.0\nsamples = 31\nvalue = [51, 0, 0]\nclass = 0", fillcolor="#e58139ff"] ;
45 -> 46 ;
47 [label="19 <= 8.04\nentropy = 0.4\nsamples = 34\nvalue = [47, 4, 0]\nclass = 0", fillcolor="#e58139e9"] ;
45 -> 47 ;
48 [label="entropy = 0.0\nsamples = 32\nvalue = [47, 0, 0]\nclass = 0", fillcolor="#e58139ff"] ;
47 -> 48 ;
49 [label="entropy = 0.0\nsamples = 2\nvalue = [0, 4, 0]\nclass = 1", fillcolor="#39e581ff"] ;
47 -> 49 ;
50 [label="entropy = 0.0\nsamples = 3\nvalue = [5, 0, 0]\nclass = 0", fillcolor="#e58139ff"] ;
44 -> 50 ;
51 [label="entropy = 0.0\nsamples = 3\nvalue = [3, 0, 0]\nclass = 0", fillcolor="#e58139ff"] ;
41 -> 51 ;
52 [label="entropy = 0.0\nsamples = 6\nvalue = [10, 0, 0]\nclass = 0", fillcolor="#e58139ff"] ;
40 -> 52 ;
53 [label="entropy = 0.0\nsamples = 60\nvalue = [104, 0, 0]\nclass = 0", fillcolor="#e58139ff"] ;
23 -> 53 ;
54 [label="9/1/2019 <= -0.08\nentropy = 0.05\nsamples = 118\nvalue = [200, 1, 0]\nclass = 0", fillcolor="#e58139fe"] ;
22 -> 54 ;
55 [label="6/1/2017 <= -0.05\nentropy = 0.5\nsamples = 8\nvalue = [8, 1, 0]\nclass = 0", fillcolor="#e58139df"] ;
54 -> 55 ;
56 [label="entropy = 0.0\nsamples = 3\nvalue = [4, 0, 0]\nclass = 0", fillcolor="#e58139ff"] ;
55 -> 56 ;
57 [label="11/1/2017 <= -0.3\nentropy = 0.72\nsamples = 5\nvalue = [4, 1, 0]\nclass = 0", fillcolor="#e58139bf"] ;
55 -> 57 ;
58 [label="entropy = 0.0\nsamples = 1\nvalue = [1, 0, 0]\nclass = 0", fillcolor="#e58139ff"] ;
57 -> 58 ;
59 [label="41 <= 1.32\nentropy = 0.81\nsamples = 4\nvalue = [3, 1, 0]\nclass = 0", fillcolor="#e58139aa"] ;
57 -> 59 ;
60 [label="10/1/2017 <= -0.1\nentropy = 0.92\nsamples = 3\nvalue = [2, 1, 0]\nclass = 0", fillcolor="#e581397f"] ;
59 -> 60 ;
61 [label="56 <= 2.42\nentropy = 1.0\nsamples = 2\nvalue = [1, 1, 0]\nclass = 0", fillcolor="#e5813900"] ;
60 -> 61 ;
62 [label="entropy = 0.0\nsamples = 1\nvalue = [1, 0, 0]\nclass = 0", fillcolor="#e58139ff"] ;
61 -> 62 ;
63 [label="entropy = 0.0\nsamples = 1\nvalue = [0, 1, 0]\nclass = 1", fillcolor="#39e581ff"] ;
61 -> 63 ;
64 [label="entropy = 0.0\nsamples = 1\nvalue = [1, 0, 0]\nclass = 0", fillcolor="#e58139ff"] ;
60 -> 64 ;
65 [label="entropy = 0.0\nsamples = 1\nvalue = [1, 0, 0]\nclass = 0", fillcolor="#e58139ff"] ;
59 -> 65 ;
66 [label="entropy = 0.0\nsamples = 110\nvalue = [192, 0, 0]\nclass = 0", fillcolor="#e58139ff"] ;
54 -> 66 ;
67 [label="entropy = 0.0\nsamples = 77\nvalue = [114, 0, 0]\nclass = 0", fillcolor="#e58139ff"] ;
21 -> 67 ;
68 [label="entropy = 0.0\nsamples = 86\nvalue = [139, 0, 0]\nclass = 0", fillcolor="#e58139ff"] ;
20 -> 68 ;
69 [label="8/1/2017 <= -0.06\nentropy = 0.47\nsamples = 22\nvalue = [27, 3, 0]\nclass = 0", fillcolor="#e58139e3"] ;
11 -> 69 ;
70 [label="8/1/2017 <= -0.06\nentropy = 0.22\nsamples = 21\nvalue = [27, 1, 0]\nclass = 0", fillcolor="#e58139f6"] ;
69 -> 70 ;
71 [label="entropy = 0.0\nsamples = 16\nvalue = [22, 0, 0]\nclass = 0", fillcolor="#e58139ff"] ;
70 -> 71 ;
72 [label="9/1/2017 <= -0.06\nentropy = 0.65\nsamples = 5\nvalue = [5, 1, 0]\nclass = 0", fillcolor="#e58139cc"] ;
70 -> 72 ;
73 [label="58 <= 0.69\nentropy = 0.72\nsamples = 4\nvalue = [4, 1, 0]\nclass = 0", fillcolor="#e58139bf"] ;
72 -> 73 ;
74 [label="11/1/2017 <= -0.22\nentropy = 0.81\nsamples = 3\nvalue = [3, 1, 0]\nclass = 0", fillcolor="#e58139aa"] ;
73 -> 74 ;
75 [label="entropy = 0.0\nsamples = 1\nvalue = [0, 1, 0]\nclass = 1", fillcolor="#39e581ff"] ;
74 -> 75 ;
76 [label="entropy = 0.0\nsamples = 2\nvalue = [3, 0, 0]\nclass = 0", fillcolor="#e58139ff"] ;
74 -> 76 ;
77 [label="entropy = 0.0\nsamples = 1\nvalue = [1, 0, 0]\nclass = 0", fillcolor="#e58139ff"] ;
73 -> 77 ;
78 [label="entropy = 0.0\nsamples = 1\nvalue = [1, 0, 0]\nclass = 0", fillcolor="#e58139ff"] ;
72 -> 78 ;
79 [label="entropy = 0.0\nsamples = 1\nvalue = [0, 2, 0]\nclass = 1", fillcolor="#39e581ff"] ;
69 -> 79 ;
80 [label="entropy = 0.0\nsamples = 2\nvalue = [0, 3, 0]\nclass = 1", fillcolor="#39e581ff"] ;
10 -> 80 ;
81 [label="11/1/2017 <= -0.17\nentropy = 0.02\nsamples = 2605\nvalue = [4166, 6, 0]\nclass = 0", fillcolor="#e58139ff"] ;
9 -> 81 ;
82 [label="7/1/2019 <= -0.04\nentropy = 0.02\nsamples = 2074\nvalue = [3296, 6, 0]\nclass = 0", fillcolor="#e58139ff"] ;
81 -> 82 ;
83 [label="18 <= 2.19\nentropy = 0.01\nsamples = 1989\nvalue = [3169, 3, 0]\nclass = 0", fillcolor="#e58139ff"] ;
82 -> 83 ;
84 [label="1/1/2017 <= -0.04\nentropy = 0.01\nsamples = 1633\nvalue = [2607, 3, 0]\nclass = 0", fillcolor="#e58139ff"] ;
83 -> 84 ;
85 [label="9/1/2019 <= -0.07\nentropy = 0.02\nsamples = 1308\nvalue = [2073, 3, 0]\nclass = 0", fillcolor="#e58139ff"] ;
84 -> 85 ;
86 [label="2/1/2019 <= -0.04\nentropy = 0.2\nsamples = 63\nvalue = [95, 3, 0]\nclass = 0", fillcolor="#e58139f7"] ;
85 -> 86 ;
87 [label="4/1/2019 <= -0.05\nentropy = 0.15\nsamples = 61\nvalue = [94, 2, 0]\nclass = 0", fillcolor="#e58139fa"] ;
86 -> 87 ;
88 [label="entropy = 0.0\nsamples = 33\nvalue = [49, 0, 0]\nclass = 0", fillcolor="#e58139ff"] ;
87 -> 88 ;
89 [label="6/1/2017 <= -0.05\nentropy = 0.25\nsamples = 28\nvalue = [45, 2, 0]\nclass = 0", fillcolor="#e58139f4"] ;
87 -> 89 ;
90 [label="35 <= 1.46\nentropy = 0.72\nsamples = 4\nvalue = [4, 1, 0]\nclass = 0", fillcolor="#e58139bf"] ;
89 -> 90 ;
91 [label="31 <= 1.32\nentropy = 1.0\nsamples = 2\nvalue = [1, 1, 0]\nclass = 0", fillcolor="#e5813900"] ;
90 -> 91 ;
92 [label="entropy = 0.0\nsamples = 1\nvalue = [0, 1, 0]\nclass = 1", fillcolor="#39e581ff"] ;
91 -> 92 ;
93 [label="entropy = 0.0\nsamples = 1\nvalue = [1, 0, 0]\nclass = 0", fillcolor="#e58139ff"] ;
91 -> 93 ;
94 [label="entropy = 0.0\nsamples = 2\nvalue = [3, 0, 0]\nclass = 0", fillcolor="#e58139ff"] ;
90 -> 94 ;
95 [label="10/1/2017 <= -0.04\nentropy = 0.16\nsamples = 24\nvalue = [41, 1, 0]\nclass = 0", fillcolor="#e58139f9"] ;
89 -> 95 ;
96 [label="entropy = 0.0\nsamples = 15\nvalue = [24, 0, 0]\nclass = 0", fillcolor="#e58139ff"] ;
95 -> 96 ;
97 [label="4/1/2017 <= -0.04\nentropy = 0.31\nsamples = 9\nvalue = [17, 1, 0]\nclass = 0", fillcolor="#e58139f0"] ;
95 -> 97 ;
98 [label="27 <= 1.33\nentropy = 0.5\nsamples = 5\nvalue = [8, 1, 0]\nclass = 0", fillcolor="#e58139df"] ;
97 -> 98 ;
99 [label="35 <= 1.46\nentropy = 0.65\nsamples = 4\nvalue = [5, 1, 0]\nclass = 0", fillcolor="#e58139cc"] ;
98 -> 99 ;
100 [label="21 <= 6.31\nentropy = 0.72\nsamples = 3\nvalue = [4, 1, 0]\nclass = 0", fillcolor="#e58139bf"] ;
99 -> 100 ;
101 [label="entropy = 0.0\nsamples = 2\nvalue = [4, 0, 0]\nclass = 0", fillcolor="#e58139ff"] ;
100 -> 101 ;
102 [label="entropy = 0.0\nsamples = 1\nvalue = [0, 1, 0]\nclass = 1", fillcolor="#39e581ff"] ;
100 -> 102 ;
103 [label="entropy = 0.0\nsamples = 1\nvalue = [1, 0, 0]\nclass = 0", fillcolor="#e58139ff"] ;
99 -> 103 ;
104 [label="entropy = 0.0\nsamples = 1\nvalue = [3, 0, 0]\nclass = 0", fillcolor="#e58139ff"] ;
98 -> 104 ;
105 [label="entropy = 0.0\nsamples = 4\nvalue = [9, 0, 0]\nclass = 0", fillcolor="#e58139ff"] ;
97 -> 105 ;
106 [label="37 <= 1.41\nentropy = 1.0\nsamples = 2\nvalue = [1, 1, 0]\nclass = 0", fillcolor="#e5813900"] ;
86 -> 106 ;
107 [label="entropy = 0.0\nsamples = 1\nvalue = [0, 1, 0]\nclass = 1", fillcolor="#39e581ff"] ;
106 -> 107 ;
108 [label="entropy = 0.0\nsamples = 1\nvalue = [1, 0, 0]\nclass = 0", fillcolor="#e58139ff"] ;
106 -> 108 ;
109 [label="entropy = 0.0\nsamples = 1245\nvalue = [1978, 0, 0]\nclass = 0", fillcolor="#e58139ff"] ;
85 -> 109 ;
110 [label="entropy = 0.0\nsamples = 325\nvalue = [534, 0, 0]\nclass = 0", fillcolor="#e58139ff"] ;
84 -> 110 ;
111 [label="entropy = 0.0\nsamples = 356\nvalue = [562, 0, 0]\nclass = 0", fillcolor="#e58139ff"] ;
83 -> 111 ;
112 [label="27 <= 1.33\nentropy = 0.16\nsamples = 85\nvalue = [127, 3, 0]\nclass = 0", fillcolor="#e58139f9"] ;
82 -> 112 ;
113 [label="1/1/2019 <= -0.04\nentropy = 0.19\nsamples = 67\nvalue = [99, 3, 0]\nclass = 0", fillcolor="#e58139f7"] ;
112 -> 113 ;
114 [label="2/1/2019 <= -0.04\nentropy = 0.92\nsamples = 2\nvalue = [2, 1, 0]\nclass = 0", fillcolor="#e581397f"] ;
113 -> 114 ;
115 [label="entropy = 0.0\nsamples = 1\nvalue = [2, 0, 0]\nclass = 0", fillcolor="#e58139ff"] ;
114 -> 115 ;
116 [label="entropy = 0.0\nsamples = 1\nvalue = [0, 1, 0]\nclass = 1", fillcolor="#39e581ff"] ;
114 -> 116 ;
117 [label="11/1/2017 <= -0.19\nentropy = 0.14\nsamples = 65\nvalue = [97, 2, 0]\nclass = 0", fillcolor="#e58139fa"] ;
113 -> 117 ;
118 [label="8/1/2017 <= -0.03\nentropy = 0.09\nsamples = 58\nvalue = [89, 1, 0]\nclass = 0", fillcolor="#e58139fc"] ;
117 -> 118 ;
119 [label="entropy = 0.0\nsamples = 31\nvalue = [54, 0, 0]\nclass = 0", fillcolor="#e58139ff"] ;
118 -> 119 ;
120 [label="5/1/2019 <= -0.03\nentropy = 0.18\nsamples = 27\nvalue = [35, 1, 0]\nclass = 0", fillcolor="#e58139f8"] ;
118 -> 120 ;
121 [label="9/1/2019 <= -0.01\nentropy = 0.59\nsamples = 5\nvalue = [6, 1, 0]\nclass = 0", fillcolor="#e58139d4"] ;
120 -> 121 ;
122 [label="21 <= 6.31\nentropy = 1.0\nsamples = 2\nvalue = [1, 1, 0]\nclass = 0", fillcolor="#e5813900"] ;
121 -> 122 ;
123 [label="entropy = 0.0\nsamples = 1\nvalue = [1, 0, 0]\nclass = 0", fillcolor="#e58139ff"] ;
122 -> 123 ;
124 [label="entropy = 0.0\nsamples = 1\nvalue = [0, 1, 0]\nclass = 1", fillcolor="#39e581ff"] ;
122 -> 124 ;
125 [label="entropy = 0.0\nsamples = 3\nvalue = [5, 0, 0]\nclass = 0", fillcolor="#e58139ff"] ;
121 -> 125 ;
126 [label="entropy = 0.0\nsamples = 22\nvalue = [29, 0, 0]\nclass = 0", fillcolor="#e58139ff"] ;
120 -> 126 ;
127 [label="4/1/2019 <= -0.03\nentropy = 0.5\nsamples = 7\nvalue = [8, 1, 0]\nclass = 0", fillcolor="#e58139df"] ;
117 -> 127 ;
128 [label="entropy = 0.0\nsamples = 1\nvalue = [0, 1, 0]\nclass = 1", fillcolor="#39e581ff"] ;
127 -> 128 ;
129 [label="entropy = 0.0\nsamples = 6\nvalue = [8, 0, 0]\nclass = 0", fillcolor="#e58139ff"] ;
127 -> 129 ;
130 [label="entropy = 0.0\nsamples = 18\nvalue = [28, 0, 0]\nclass = 0", fillcolor="#e58139ff"] ;
112 -> 130 ;
131 [label="entropy = 0.0\nsamples = 531\nvalue = [870, 0, 0]\nclass = 0", fillcolor="#e58139ff"] ;
81 -> 131 ;
132 [label="entropy = 0.0\nsamples = 575\nvalue = [955, 0, 0]\nclass = 0", fillcolor="#e58139ff"] ;
8 -> 132 ;
133 [label="20 <= 37.65\nentropy = 0.65\nsamples = 6\nvalue = [5, 1, 0]\nclass = 0", fillcolor="#e58139cc"] ;
7 -> 133 ;
134 [label="entropy = 0.0\nsamples = 5\nvalue = [5, 0, 0]\nclass = 0", fillcolor="#e58139ff"] ;
133 -> 134 ;
135 [label="entropy = 0.0\nsamples = 1\nvalue = [0, 1, 0]\nclass = 1", fillcolor="#39e581ff"] ;
133 -> 135 ;
136 [label="entropy = 0.0\nsamples = 1\nvalue = [0, 2, 0]\nclass = 1", fillcolor="#39e581ff"] ;
6 -> 136 ;
137 [label="entropy = 0.0\nsamples = 371\nvalue = [577, 0, 0]\nclass = 0", fillcolor="#e58139ff"] ;
5 -> 137 ;
138 [label="3/1/2017 <= -0.02\nentropy = 0.08\nsamples = 504\nvalue = [807, 8, 0]\nclass = 0", fillcolor="#e58139fc"] ;
2 -> 138 ;
139 [label="3/1/2019 <= -0.02\nentropy = 0.2\nsamples = 40\nvalue = [62, 2, 0]\nclass = 0", fillcolor="#e58139f7"] ;
138 -> 139 ;
140 [label="entropy = 0.0\nsamples = 9\nvalue = [15, 0, 0]\nclass = 0", fillcolor="#e58139ff"] ;
139 -> 140 ;
141 [label="41 <= 1.32\nentropy = 0.25\nsamples = 31\nvalue = [47, 2, 0]\nclass = 0", fillcolor="#e58139f4"] ;
139 -> 141 ;
142 [label="37 <= 1.41\nentropy = 0.25\nsamples = 30\nvalue = [46, 2, 0]\nclass = 0", fillcolor="#e58139f4"] ;
141 -> 142 ;
143 [label="33 <= 1.35\nentropy = 0.18\nsamples = 23\nvalue = [36, 1, 0]\nclass = 0", fillcolor="#e58139f8"] ;
142 -> 143 ;
144 [label="52 <= -0.41\nentropy = 0.21\nsamples = 19\nvalue = [29, 1, 0]\nclass = 0", fillcolor="#e58139f6"] ;
143 -> 144 ;
145 [label="entropy = 0.0\nsamples = 7\nvalue = [13, 0, 0]\nclass = 0", fillcolor="#e58139ff"] ;
144 -> 145 ;
146 [label="11/1/2017 <= -0.34\nentropy = 0.32\nsamples = 12\nvalue = [16, 1, 0]\nclass = 0", fillcolor="#e58139ef"] ;
144 -> 146 ;
147 [label="entropy = 0.0\nsamples = 1\nvalue = [0, 1, 0]\nclass = 1", fillcolor="#39e581ff"] ;
146 -> 147 ;
148 [label="entropy = 0.0\nsamples = 11\nvalue = [16, 0, 0]\nclass = 0", fillcolor="#e58139ff"] ;
146 -> 148 ;
149 [label="entropy = 0.0\nsamples = 4\nvalue = [7, 0, 0]\nclass = 0", fillcolor="#e58139ff"] ;
143 -> 149 ;
150 [label="11/1/2017 <= -0.29\nentropy = 0.44\nsamples = 7\nvalue = [10, 1, 0]\nclass = 0", fillcolor="#e58139e6"] ;
142 -> 150 ;
151 [label="entropy = 0.0\nsamples = 1\nvalue = [0, 1, 0]\nclass = 1", fillcolor="#39e581ff"] ;
150 -> 151 ;
152 [label="entropy = 0.0\nsamples = 6\nvalue = [10, 0, 0]\nclass = 0", fillcolor="#e58139ff"] ;
150 -> 152 ;
153 [label="entropy = 0.0\nsamples = 1\nvalue = [1, 0, 0]\nclass = 0", fillcolor="#e58139ff"] ;
141 -> 153 ;
154 [label="10/1/2017 <= 0.53\nentropy = 0.07\nsamples = 464\nvalue = [745, 6, 0]\nclass = 0", fillcolor="#e58139fd"] ;
138 -> 154 ;
155 [label="3/1/2019 <= -0.02\nentropy = 0.05\nsamples = 463\nvalue = [745, 4, 0]\nclass = 0", fillcolor="#e58139fe"] ;
154 -> 155 ;
156 [label="9/1/2019 <= -0.01\nentropy = 0.08\nsamples = 254\nvalue = [424, 4, 0]\nclass = 0", fillcolor="#e58139fd"] ;
155 -> 156 ;
157 [label="2/1/2019 <= -0.02\nentropy = 0.11\nsamples = 162\nvalue = [271, 4, 0]\nclass = 0", fillcolor="#e58139fb"] ;
156 -> 157 ;
158 [label="7/1/2017 <= -0.02\nentropy = 0.07\nsamples = 147\nvalue = [245, 2, 0]\nclass = 0", fillcolor="#e58139fd"] ;
157 -> 158 ;
159 [label="9/1/2019 <= -0.01\nentropy = 0.09\nsamples = 109\nvalue = [181, 2, 0]\nclass = 0", fillcolor="#e58139fc"] ;
158 -> 159 ;
160 [label="entropy = 0.0\nsamples = 39\nvalue = [65, 0, 0]\nclass = 0", fillcolor="#e58139ff"] ;
159 -> 160 ;
161 [label="41 <= 1.32\nentropy = 0.12\nsamples = 70\nvalue = [116, 2, 0]\nclass = 0", fillcolor="#e58139fb"] ;
159 -> 161 ;
162 [label="58 <= 0.69\nentropy = 0.15\nsamples = 56\nvalue = [92, 2, 0]\nclass = 0", fillcolor="#e58139f9"] ;
161 -> 162 ;
163 [label="entropy = 0.0\nsamples = 44\nvalue = [74, 0, 0]\nclass = 0", fillcolor="#e58139ff"] ;
162 -> 163 ;
164 [label="19 <= 8.04\nentropy = 0.47\nsamples = 12\nvalue = [18, 2, 0]\nclass = 0", fillcolor="#e58139e3"] ;
162 -> 164 ;
165 [label="entropy = 0.0\nsamples = 11\nvalue = [18, 0, 0]\nclass = 0", fillcolor="#e58139ff"] ;
164 -> 165 ;
166 [label="entropy = 0.0\nsamples = 1\nvalue = [0, 2, 0]\nclass = 1", fillcolor="#39e581ff"] ;
164 -> 166 ;
167 [label="entropy = 0.0\nsamples = 14\nvalue = [24, 0, 0]\nclass = 0", fillcolor="#e58139ff"] ;
161 -> 167 ;
168 [label="entropy = 0.0\nsamples = 38\nvalue = [64, 0, 0]\nclass = 0", fillcolor="#e58139ff"] ;
158 -> 168 ;
169 [label="52 <= -0.41\nentropy = 0.37\nsamples = 15\nvalue = [26, 2, 0]\nclass = 0", fillcolor="#e58139eb"] ;
157 -> 169 ;
170 [label="entropy = 0.0\nsamples = 7\nvalue = [12, 0, 0]\nclass = 0", fillcolor="#e58139ff"] ;
169 -> 170 ;
171 [label="11/1/2017 <= -0.03\nentropy = 0.54\nsamples = 8\nvalue = [14, 2, 0]\nclass = 0", fillcolor="#e58139db"] ;
169 -> 171 ;
172 [label="31 <= 1.32\nentropy = 0.81\nsamples = 4\nvalue = [6, 2, 0]\nclass = 0", fillcolor="#e58139aa"] ;
171 -> 172 ;
173 [label="9/1/2019 <= -0.05\nentropy = 0.86\nsamples = 3\nvalue = [5, 2, 0]\nclass = 0", fillcolor="#e5813999"] ;
172 -> 173 ;
174 [label="entropy = 0.0\nsamples = 1\nvalue = [0, 2, 0]\nclass = 1", fillcolor="#39e581ff"] ;
173 -> 174 ;
175 [label="entropy = 0.0\nsamples = 2\nvalue = [5, 0, 0]\nclass = 0", fillcolor="#e58139ff"] ;
173 -> 175 ;
176 [label="entropy = 0.0\nsamples = 1\nvalue = [1, 0, 0]\nclass = 0", fillcolor="#e58139ff"] ;
172 -> 176 ;
177 [label="entropy = 0.0\nsamples = 4\nvalue = [8, 0, 0]\nclass = 0", fillcolor="#e58139ff"] ;
171 -> 177 ;
178 [label="entropy = 0.0\nsamples = 92\nvalue = [153, 0, 0]\nclass = 0", fillcolor="#e58139ff"] ;
156 -> 178 ;
179 [label="entropy = 0.0\nsamples = 209\nvalue = [321, 0, 0]\nclass = 0", fillcolor="#e58139ff"] ;
155 -> 179 ;
180 [label="entropy = 0.0\nsamples = 1\nvalue = [0, 2, 0]\nclass = 1", fillcolor="#39e581ff"] ;
154 -> 180 ;
181 [label="1 <= 8.04\nentropy = 0.55\nsamples = 1196\nvalue = [1683, 245, 0]\nclass = 0", fillcolor="#e58139da"] ;
1 -> 181 ;
182 [label="5/1/2019 <= 0.01\nentropy = 0.55\nsamples = 1185\nvalue = [1665, 245, 0]\nclass = 0", fillcolor="#e58139d9"] ;
181 -> 182 ;
183 [label="3/1/2019 <= 0.01\nentropy = 0.38\nsamples = 723\nvalue = [1069, 86, 0]\nclass = 0", fillcolor="#e58139ea"] ;
182 -> 183 ;
184 [label="27 <= 1.33\nentropy = 0.33\nsamples = 507\nvalue = [774, 50, 0]\nclass = 0", fillcolor="#e58139ef"] ;
183 -> 184 ;
185 [label="8/1/2017 <= -0.04\nentropy = 0.36\nsamples = 451\nvalue = [687, 50, 0]\nclass = 0", fillcolor="#e58139ec"] ;
184 -> 185 ;
186 [label="entropy = 0.0\nsamples = 3\nvalue = [0, 5, 0]\nclass = 1", fillcolor="#39e581ff"] ;
185 -> 186 ;
187 [label="9/1/2019 <= -0.06\nentropy = 0.33\nsamples = 448\nvalue = [687, 45, 0]\nclass = 0", fillcolor="#e58139ee"] ;
185 -> 187 ;
188 [label="5/1/2019 <= -0.01\nentropy = 0.97\nsamples = 41\nvalue = [28, 41, 0]\nclass = 1", fillcolor="#39e58151"] ;
187 -> 188 ;
189 [label="entropy = 0.0\nsamples = 2\nvalue = [2, 0, 0]\nclass = 0", fillcolor="#e58139ff"] ;
188 -> 189 ;
190 [label="7/1/2019 <= 0.01\nentropy = 0.96\nsamples = 39\nvalue = [26, 41, 0]\nclass = 1", fillcolor="#39e5815d"] ;
188 -> 190 ;
191 [label="2/1/2017 <= 0.0\nentropy = 0.95\nsamples = 38\nvalue = [24, 41, 0]\nclass = 1", fillcolor="#39e5816a"] ;
190 -> 191 ;
192 [label="58 <= 0.69\nentropy = 0.99\nsamples = 30\nvalue = [23, 30, 0]\nclass = 1", fillcolor="#39e5813b"] ;
191 -> 192 ;
193 [label="8/1/2019 <= -0.0\nentropy = 0.95\nsamples = 26\nvalue = [17, 29, 0]\nclass = 1", fillcolor="#39e5816a"] ;
192 -> 193 ;
194 [label="10/1/2017 <= 0.3\nentropy = 0.92\nsamples = 24\nvalue = [14, 28, 0]\nclass = 1", fillcolor="#39e5817f"] ;
193 -> 194 ;
195 [label="2/1/2019 <= -0.01\nentropy = 0.35\nsamples = 9\nvalue = [14, 1, 0]\nclass = 0", fillcolor="#e58139ed"] ;
194 -> 195 ;
196 [label="56 <= 2.42\nentropy = 0.81\nsamples = 3\nvalue = [3, 1, 0]\nclass = 0", fillcolor="#e58139aa"] ;
195 -> 196 ;
197 [label="39 <= 1.31\nentropy = 1.0\nsamples = 2\nvalue = [1, 1, 0]\nclass = 0", fillcolor="#e5813900"] ;
196 -> 197 ;
198 [label="entropy = 0.0\nsamples = 1\nvalue = [1, 0, 0]\nclass = 0", fillcolor="#e58139ff"] ;
197 -> 198 ;
199 [label="entropy = 0.0\nsamples = 1\nvalue = [0, 1, 0]\nclass = 1", fillcolor="#39e581ff"] ;
197 -> 199 ;
200 [label="entropy = 0.0\nsamples = 1\nvalue = [2, 0, 0]\nclass = 0", fillcolor="#e58139ff"] ;
196 -> 200 ;
201 [label="entropy = 0.0\nsamples = 6\nvalue = [11, 0, 0]\nclass = 0", fillcolor="#e58139ff"] ;
195 -> 201 ;
202 [label="entropy = 0.0\nsamples = 15\nvalue = [0, 27, 0]\nclass = 1", fillcolor="#39e581ff"] ;
194 -> 202 ;
203 [label="49 <= 4.09\nentropy = 0.81\nsamples = 2\nvalue = [3, 1, 0]\nclass = 0", fillcolor="#e58139aa"] ;
193 -> 203 ;
204 [label="entropy = 0.0\nsamples = 1\nvalue = [0, 1, 0]\nclass = 1", fillcolor="#39e581ff"] ;
203 -> 204 ;
205 [label="entropy = 0.0\nsamples = 1\nvalue = [3, 0, 0]\nclass = 0", fillcolor="#e58139ff"] ;
203 -> 205 ;
206 [label="33 <= 1.35\nentropy = 0.59\nsamples = 4\nvalue = [6, 1, 0]\nclass = 0", fillcolor="#e58139d4"] ;
192 -> 206 ;
207 [label="11/1/2017 <= 0.15\nentropy = 0.65\nsamples = 3\nvalue = [5, 1, 0]\nclass = 0", fillcolor="#e58139cc"] ;
206 -> 207 ;
208 [label="entropy = 0.0\nsamples = 1\nvalue = [0, 1, 0]\nclass = 1", fillcolor="#39e581ff"] ;
207 -> 208 ;
209 [label="entropy = 0.0\nsamples = 2\nvalue = [5, 0, 0]\nclass = 0", fillcolor="#e58139ff"] ;
207 -> 209 ;
210 [label="entropy = 0.0\nsamples = 1\nvalue = [1, 0, 0]\nclass = 0", fillcolor="#e58139ff"] ;
206 -> 210 ;
211 [label="1/1/2019 <= 0.0\nentropy = 0.41\nsamples = 8\nvalue = [1, 11, 0]\nclass = 1", fillcolor="#39e581e8"] ;
191 -> 211 ;
212 [label="10/1/2017 <= 0.24\nentropy = 0.65\nsamples = 3\nvalue = [1, 5, 0]\nclass = 1", fillcolor="#39e581cc"] ;
211 -> 212 ;
213 [label="entropy = 0.0\nsamples = 1\nvalue = [1, 0, 0]\nclass = 0", fillcolor="#e58139ff"] ;
212 -> 213 ;
214 [label="entropy = 0.0\nsamples = 2\nvalue = [0, 5, 0]\nclass = 1", fillcolor="#39e581ff"] ;
212 -> 214 ;
215 [label="entropy = 0.0\nsamples = 5\nvalue = [0, 6, 0]\nclass = 1", fillcolor="#39e581ff"] ;
211 -> 215 ;
216 [label="entropy = 0.0\nsamples = 1\nvalue = [2, 0, 0]\nclass = 0", fillcolor="#e58139ff"] ;
190 -> 216 ;
217 [label="10/1/2017 <= 0.3\nentropy = 0.05\nsamples = 407\nvalue = [659, 4, 0]\nclass = 0", fillcolor="#e58139fd"] ;
187 -> 217 ;
218 [label="21 <= 6.31\nentropy = 0.02\nsamples = 404\nvalue = [659, 1, 0]\nclass = 0", fillcolor="#e58139ff"] ;
217 -> 218 ;
219 [label="entropy = 0.0\nsamples = 403\nvalue = [659, 0, 0]\nclass = 0", fillcolor="#e58139ff"] ;
218 -> 219 ;
220 [label="entropy = 0.0\nsamples = 1\nvalue = [0, 1, 0]\nclass = 1", fillcolor="#39e581ff"] ;
218 -> 220 ;
221 [label="entropy = 0.0\nsamples = 3\nvalue = [0, 3, 0]\nclass = 1", fillcolor="#39e581ff"] ;
217 -> 221 ;
222 [label="entropy = 0.0\nsamples = 56\nvalue = [87, 0, 0]\nclass = 0", fillcolor="#e58139ff"] ;
184 -> 222 ;
223 [label="8/1/2017 <= 0.01\nentropy = 0.5\nsamples = 216\nvalue = [295, 36, 0]\nclass = 0", fillcolor="#e58139e0"] ;
183 -> 223 ;
224 [label="5/1/2017 <= 0.01\nentropy = 0.58\nsamples = 170\nvalue = [218, 35, 0]\nclass = 0", fillcolor="#e58139d6"] ;
223 -> 224 ;
225 [label="9/1/2019 <= -0.05\nentropy = 0.46\nsamples = 101\nvalue = [132, 14, 0]\nclass = 0", fillcolor="#e58139e4"] ;
224 -> 225 ;
226 [label="1/1/2019 <= 0.01\nentropy = 0.86\nsamples = 10\nvalue = [4, 10, 0]\nclass = 1", fillcolor="#39e58199"] ;
225 -> 226 ;
227 [label="entropy = 0.0\nsamples = 5\nvalue = [0, 8, 0]\nclass = 1", fillcolor="#39e581ff"] ;
226 -> 227 ;
228 [label="37 <= 1.41\nentropy = 0.92\nsamples = 5\nvalue = [4, 2, 0]\nclass = 0", fillcolor="#e581397f"] ;
226 -> 228 ;
229 [label="10/1/2017 <= 0.27\nentropy = 0.97\nsamples = 4\nvalue = [3, 2, 0]\nclass = 0", fillcolor="#e5813955"] ;
228 -> 229 ;
230 [label="entropy = 0.0\nsamples = 2\nvalue = [3, 0, 0]\nclass = 0", fillcolor="#e58139ff"] ;
229 -> 230 ;
231 [label="entropy = 0.0\nsamples = 2\nvalue = [0, 2, 0]\nclass = 1", fillcolor="#39e581ff"] ;
229 -> 231 ;
232 [label="entropy = 0.0\nsamples = 1\nvalue = [1, 0, 0]\nclass = 0", fillcolor="#e58139ff"] ;
228 -> 232 ;
233 [label="5/1/2019 <= 0.01\nentropy = 0.2\nsamples = 91\nvalue = [128, 4, 0]\nclass = 0", fillcolor="#e58139f7"] ;
225 -> 233 ;
234 [label="entropy = 0.0\nsamples = 42\nvalue = [52, 0, 0]\nclass = 0", fillcolor="#e58139ff"] ;
233 -> 234 ;
235 [label="37 <= 1.41\nentropy = 0.29\nsamples = 49\nvalue = [76, 4, 0]\nclass = 0", fillcolor="#e58139f2"] ;
233 -> 235 ;
236 [label="41 <= 1.32\nentropy = 0.32\nsamples = 42\nvalue = [64, 4, 0]\nclass = 0", fillcolor="#e58139ef"] ;
235 -> 236 ;
237 [label="49 <= 4.09\nentropy = 0.38\nsamples = 34\nvalue = [50, 4, 0]\nclass = 0", fillcolor="#e58139eb"] ;
236 -> 237 ;
238 [label="5/1/2017 <= 0.01\nentropy = 0.33\nsamples = 31\nvalue = [46, 3, 0]\nclass = 0", fillcolor="#e58139ee"] ;
237 -> 238 ;
239 [label="entropy = 0.0\nsamples = 7\nvalue = [12, 0, 0]\nclass = 0", fillcolor="#e58139ff"] ;
238 -> 239 ;
240 [label="56 <= 2.42\nentropy = 0.41\nsamples = 24\nvalue = [34, 3, 0]\nclass = 0", fillcolor="#e58139e9"] ;
238 -> 240 ;
241 [label="11/1/2017 <= -0.18\nentropy = 0.42\nsamples = 22\nvalue = [32, 3, 0]\nclass = 0", fillcolor="#e58139e7"] ;
240 -> 241 ;
242 [label="entropy = 0.0\nsamples = 1\nvalue = [0, 2, 0]\nclass = 1", fillcolor="#39e581ff"] ;
241 -> 242 ;
243 [label="9/1/2019 <= -0.04\nentropy = 0.2\nsamples = 21\nvalue = [32, 1, 0]\nclass = 0", fillcolor="#e58139f7"] ;
241 -> 243 ;
244 [label="entropy = 0.0\nsamples = 1\nvalue = [0, 1, 0]\nclass = 1", fillcolor="#39e581ff"] ;
243 -> 244 ;
245 [label="entropy = 0.0\nsamples = 20\nvalue = [32, 0, 0]\nclass = 0", fillcolor="#e58139ff"] ;
243 -> 245 ;
246 [label="entropy = 0.0\nsamples = 2\nvalue = [2, 0, 0]\nclass = 0", fillcolor="#e58139ff"] ;
240 -> 246 ;
247 [label="9/1/2017 <= -0.0\nentropy = 0.72\nsamples = 3\nvalue = [4, 1, 0]\nclass = 0", fillcolor="#e58139bf"] ;
237 -> 247 ;
248 [label="entropy = 0.0\nsamples = 1\nvalue = [0, 1, 0]\nclass = 1", fillcolor="#39e581ff"] ;
247 -> 248 ;
249 [label="entropy = 0.0\nsamples = 2\nvalue = [4, 0, 0]\nclass = 0", fillcolor="#e58139ff"] ;
247 -> 249 ;
250 [label="entropy = 0.0\nsamples = 8\nvalue = [14, 0, 0]\nclass = 0", fillcolor="#e58139ff"] ;
236 -> 250 ;
251 [label="entropy = 0.0\nsamples = 7\nvalue = [12, 0, 0]\nclass = 0", fillcolor="#e58139ff"] ;
235 -> 251 ;
252 [label="34 <= 3.61\nentropy = 0.71\nsamples = 69\nvalue = [86, 21, 0]\nclass = 0", fillcolor="#e58139c1"] ;
224 -> 252 ;
253 [label="37 <= 1.41\nentropy = 0.7\nsamples = 68\nvalue = [86, 20, 0]\nclass = 0", fillcolor="#e58139c4"] ;
252 -> 253 ;
254 [label="10/1/2017 <= 0.31\nentropy = 0.62\nsamples = 64\nvalue = [82, 15, 0]\nclass = 0", fillcolor="#e58139d0"] ;
253 -> 254 ;
255 [label="entropy = 0.0\nsamples = 53\nvalue = [82, 0, 0]\nclass = 0", fillcolor="#e58139ff"] ;
254 -> 255 ;
256 [label="entropy = 0.0\nsamples = 11\nvalue = [0, 15, 0]\nclass = 1", fillcolor="#39e581ff"] ;
254 -> 256 ;
257 [label="10/1/2017 <= 0.33\nentropy = 0.99\nsamples = 4\nvalue = [4, 5, 0]\nclass = 1", fillcolor="#39e58133"] ;
253 -> 257 ;
258 [label="entropy = 0.0\nsamples = 2\nvalue = [4, 0, 0]\nclass = 0", fillcolor="#e58139ff"] ;
257 -> 258 ;
259 [label="entropy = 0.0\nsamples = 2\nvalue = [0, 5, 0]\nclass = 1", fillcolor="#39e581ff"] ;
257 -> 259 ;
260 [label="entropy = 0.0\nsamples = 1\nvalue = [0, 1, 0]\nclass = 1", fillcolor="#39e581ff"] ;
252 -> 260 ;
261 [label="10/1/2017 <= 0.39\nentropy = 0.1\nsamples = 46\nvalue = [77, 1, 0]\nclass = 0", fillcolor="#e58139fc"] ;
223 -> 261 ;
262 [label="entropy = 0.0\nsamples = 45\nvalue = [77, 0, 0]\nclass = 0", fillcolor="#e58139ff"] ;
261 -> 262 ;
263 [label="entropy = 0.0\nsamples = 1\nvalue = [0, 1, 0]\nclass = 1", fillcolor="#39e581ff"] ;
261 -> 263 ;
264 [label="1/1/2017 <= 0.07\nentropy = 0.74\nsamples = 462\nvalue = [596, 159, 0]\nclass = 0", fillcolor="#e58139bb"] ;
182 -> 264 ;
265 [label="5/1/2019 <= 0.03\nentropy = 0.74\nsamples = 461\nvalue = [596, 157, 0]\nclass = 0", fillcolor="#e58139bc"] ;
264 -> 265 ;
266 [label="29 <= 1.35\nentropy = 0.66\nsamples = 208\nvalue = [284, 59, 0]\nclass = 0", fillcolor="#e58139ca"] ;
265 -> 266 ;
267 [label="9/1/2019 <= -0.02\nentropy = 0.69\nsamples = 167\nvalue = [225, 51, 0]\nclass = 0", fillcolor="#e58139c5"] ;
266 -> 267 ;
268 [label="8/1/2017 <= 0.02\nentropy = 0.89\nsamples = 39\nvalue = [20, 45, 0]\nclass = 1", fillcolor="#39e5818e"] ;
267 -> 268 ;
269 [label="entropy = 0.0\nsamples = 3\nvalue = [0, 4, 0]\nclass = 1", fillcolor="#39e581ff"] ;
268 -> 269 ;
270 [label="10/1/2017 <= 0.27\nentropy = 0.91\nsamples = 36\nvalue = [20, 41, 0]\nclass = 1", fillcolor="#39e58183"] ;
268 -> 270 ;
271 [label="9/1/2019 <= -0.05\nentropy = 0.29\nsamples = 12\nvalue = [19, 1, 0]\nclass = 0", fillcolor="#e58139f2"] ;
270 -> 271 ;
272 [label="21 <= 6.31\nentropy = 0.5\nsamples = 6\nvalue = [8, 1, 0]\nclass = 0", fillcolor="#e58139df"] ;
271 -> 272 ;
273 [label="entropy = 0.0\nsamples = 5\nvalue = [8, 0, 0]\nclass = 0", fillcolor="#e58139ff"] ;
272 -> 273 ;
274 [label="entropy = 0.0\nsamples = 1\nvalue = [0, 1, 0]\nclass = 1", fillcolor="#39e581ff"] ;
272 -> 274 ;
275 [label="entropy = 0.0\nsamples = 6\nvalue = [11, 0, 0]\nclass = 0", fillcolor="#e58139ff"] ;
271 -> 275 ;
276 [label="6/1/2019 <= 0.02\nentropy = 0.17\nsamples = 24\nvalue = [1, 40, 0]\nclass = 1", fillcolor="#39e581f9"] ;
270 -> 276 ;
277 [label="9/1/2017 <= 0.02\nentropy = 0.3\nsamples = 12\nvalue = [1, 18, 0]\nclass = 1", fillcolor="#39e581f1"] ;
276 -> 277 ;
278 [label="entropy = 0.0\nsamples = 7\nvalue = [0, 12, 0]\nclass = 1", fillcolor="#39e581ff"] ;
277 -> 278 ;
279 [label="41 <= 1.32\nentropy = 0.59\nsamples = 5\nvalue = [1, 6, 0]\nclass = 1", fillcolor="#39e581d4"] ;
277 -> 279 ;
280 [label="37 <= 1.41\nentropy = 0.65\nsamples = 4\nvalue = [1, 5, 0]\nclass = 1", fillcolor="#39e581cc"] ;
279 -> 280 ;
281 [label="31 <= 1.32\nentropy = 0.92\nsamples = 3\nvalue = [1, 2, 0]\nclass = 1", fillcolor="#39e5817f"] ;
280 -> 281 ;
282 [label="9/1/2019 <= -0.06\nentropy = 1.0\nsamples = 2\nvalue = [1, 1, 0]\nclass = 0", fillcolor="#e5813900"] ;
281 -> 282 ;
283 [label="entropy = 0.0\nsamples = 1\nvalue = [1, 0, 0]\nclass = 0", fillcolor="#e58139ff"] ;
282 -> 283 ;
284 [label="entropy = 0.0\nsamples = 1\nvalue = [0, 1, 0]\nclass = 1", fillcolor="#39e581ff"] ;
282 -> 284 ;
285 [label="entropy = 0.0\nsamples = 1\nvalue = [0, 1, 0]\nclass = 1", fillcolor="#39e581ff"] ;
281 -> 285 ;
286 [label="entropy = 0.0\nsamples = 1\nvalue = [0, 3, 0]\nclass = 1", fillcolor="#39e581ff"] ;
280 -> 286 ;
287 [label="entropy = 0.0\nsamples = 1\nvalue = [0, 1, 0]\nclass = 1", fillcolor="#39e581ff"] ;
279 -> 287 ;
288 [label="entropy = 0.0\nsamples = 12\nvalue = [0, 22, 0]\nclass = 1", fillcolor="#39e581ff"] ;
276 -> 288 ;
289 [label="7/1/2017 <= 0.02\nentropy = 0.19\nsamples = 128\nvalue = [205, 6, 0]\nclass = 0", fillcolor="#e58139f8"] ;
267 -> 289 ;
290 [label="entropy = 0.0\nsamples = 57\nvalue = [92, 0, 0]\nclass = 0", fillcolor="#e58139ff"] ;
289 -> 290 ;
291 [label="2/1/2019 <= 0.02\nentropy = 0.29\nsamples = 71\nvalue = [113, 6, 0]\nclass = 0", fillcolor="#e58139f1"] ;
289 -> 291 ;
292 [label="33 <= 1.35\nentropy = 0.25\nsamples = 60\nvalue = [92, 4, 0]\nclass = 0", fillcolor="#e58139f4"] ;
291 -> 292 ;
293 [label="7/1/2017 <= 0.02\nentropy = 0.23\nsamples = 52\nvalue = [78, 3, 0]\nclass = 0", fillcolor="#e58139f5"] ;
292 -> 293 ;
294 [label="entropy = 0.0\nsamples = 7\nvalue = [11, 0, 0]\nclass = 0", fillcolor="#e58139ff"] ;
293 -> 294 ;
295 [label="49 <= 4.09\nentropy = 0.26\nsamples = 45\nvalue = [67, 3, 0]\nclass = 0", fillcolor="#e58139f4"] ;
293 -> 295 ;
296 [label="10/1/2017 <= 0.32\nentropy = 0.19\nsamples = 44\nvalue = [67, 2, 0]\nclass = 0", fillcolor="#e58139f7"] ;
295 -> 296 ;
297 [label="entropy = 0.0\nsamples = 43\nvalue = [67, 0, 0]\nclass = 0", fillcolor="#e58139ff"] ;
296 -> 297 ;
298 [label="entropy = 0.0\nsamples = 1\nvalue = [0, 2, 0]\nclass = 1", fillcolor="#39e581ff"] ;
296 -> 298 ;
299 [label="entropy = 0.0\nsamples = 1\nvalue = [0, 1, 0]\nclass = 1", fillcolor="#39e581ff"] ;
295 -> 299 ;
300 [label="9/1/2017 <= 0.02\nentropy = 0.35\nsamples = 8\nvalue = [14, 1, 0]\nclass = 0", fillcolor="#e58139ed"] ;
292 -> 300 ;
301 [label="1/1/2017 <= 0.02\nentropy = 0.72\nsamples = 3\nvalue = [4, 1, 0]\nclass = 0", fillcolor="#e58139bf"] ;
300 -> 301 ;
302 [label="entropy = 0.0\nsamples = 1\nvalue = [3, 0, 0]\nclass = 0", fillcolor="#e58139ff"] ;
301 -> 302 ;
303 [label="11/1/2017 <= 0.07\nentropy = 1.0\nsamples = 2\nvalue = [1, 1, 0]\nclass = 0", fillcolor="#e5813900"] ;
301 -> 303 ;
304 [label="entropy = 0.0\nsamples = 1\nvalue = [0, 1, 0]\nclass = 1", fillcolor="#39e581ff"] ;
303 -> 304 ;
305 [label="entropy = 0.0\nsamples = 1\nvalue = [1, 0, 0]\nclass = 0", fillcolor="#e58139ff"] ;
303 -> 305 ;
306 [label="entropy = 0.0\nsamples = 5\nvalue = [10, 0, 0]\nclass = 0", fillcolor="#e58139ff"] ;
300 -> 306 ;
307 [label="7/1/2019 <= 0.04\nentropy = 0.43\nsamples = 11\nvalue = [21, 2, 0]\nclass = 0", fillcolor="#e58139e7"] ;
291 -> 307 ;
308 [label="53 <= 6.78\nentropy = 0.47\nsamples = 10\nvalue = [18, 2, 0]\nclass = 0", fillcolor="#e58139e3"] ;
307 -> 308 ;
309 [label="9/1/2019 <= 0.04\nentropy = 0.52\nsamples = 9\nvalue = [15, 2, 0]\nclass = 0", fillcolor="#e58139dd"] ;
308 -> 309 ;
310 [label="58 <= 0.69\nentropy = 0.92\nsamples = 3\nvalue = [4, 2, 0]\nclass = 0", fillcolor="#e581397f"] ;
309 -> 310 ;
311 [label="31 <= 1.32\nentropy = 0.97\nsamples = 2\nvalue = [3, 2, 0]\nclass = 0", fillcolor="#e5813955"] ;
310 -> 311 ;
312 [label="entropy = 0.0\nsamples = 1\nvalue = [3, 0, 0]\nclass = 0", fillcolor="#e58139ff"] ;
311 -> 312 ;
313 [label="entropy = 0.0\nsamples = 1\nvalue = [0, 2, 0]\nclass = 1", fillcolor="#39e581ff"] ;
311 -> 313 ;
314 [label="entropy = 0.0\nsamples = 1\nvalue = [1, 0, 0]\nclass = 0", fillcolor="#e58139ff"] ;
310 -> 314 ;
315 [label="entropy = 0.0\nsamples = 6\nvalue = [11, 0, 0]\nclass = 0", fillcolor="#e58139ff"] ;
309 -> 315 ;
316 [label="entropy = 0.0\nsamples = 1\nvalue = [3, 0, 0]\nclass = 0", fillcolor="#e58139ff"] ;
308 -> 316 ;
317 [label="entropy = 0.0\nsamples = 1\nvalue = [3, 0, 0]\nclass = 0", fillcolor="#e58139ff"] ;
307 -> 317 ;
318 [label="9/1/2019 <= 0.03\nentropy = 0.53\nsamples = 41\nvalue = [59, 8, 0]\nclass = 0", fillcolor="#e58139dc"] ;
266 -> 318 ;
319 [label="2/1/2019 <= 0.02\nentropy = 0.68\nsamples = 26\nvalue = [37, 8, 0]\nclass = 0", fillcolor="#e58139c8"] ;
318 -> 319 ;
320 [label="entropy = 0.0\nsamples = 4\nvalue = [7, 0, 0]\nclass = 0", fillcolor="#e58139ff"] ;
319 -> 320 ;
321 [label="3/1/2019 <= 0.02\nentropy = 0.74\nsamples = 22\nvalue = [30, 8, 0]\nclass = 0", fillcolor="#e58139bb"] ;
319 -> 321 ;
322 [label="11/1/2017 <= 0.29\nentropy = 0.97\nsamples = 3\nvalue = [2, 3, 0]\nclass = 1", fillcolor="#39e58155"] ;
321 -> 322 ;
323 [label="8/1/2019 <= -0.01\nentropy = 0.81\nsamples = 2\nvalue = [1, 3, 0]\nclass = 1", fillcolor="#39e581aa"] ;
322 -> 323 ;
324 [label="entropy = 0.0\nsamples = 1\nvalue = [0, 3, 0]\nclass = 1", fillcolor="#39e581ff"] ;
323 -> 324 ;
325 [label="entropy = 0.0\nsamples = 1\nvalue = [1, 0, 0]\nclass = 0", fillcolor="#e58139ff"] ;
323 -> 325 ;
326 [label="entropy = 0.0\nsamples = 1\nvalue = [1, 0, 0]\nclass = 0", fillcolor="#e58139ff"] ;
322 -> 326 ;
327 [label="3/1/2017 <= 0.02\nentropy = 0.61\nsamples = 19\nvalue = [28, 5, 0]\nclass = 0", fillcolor="#e58139d1"] ;
321 -> 327 ;
328 [label="4/1/2019 <= 0.02\nentropy = 0.37\nsamples = 8\nvalue = [13, 1, 0]\nclass = 0", fillcolor="#e58139eb"] ;
327 -> 328 ;
329 [label="46 <= 29.16\nentropy = 0.54\nsamples = 5\nvalue = [7, 1, 0]\nclass = 0", fillcolor="#e58139db"] ;
328 -> 329 ;
330 [label="58 <= 0.69\nentropy = 0.65\nsamples = 4\nvalue = [5, 1, 0]\nclass = 0", fillcolor="#e58139cc"] ;
329 -> 330 ;
331 [label="9/1/2017 <= 0.02\nentropy = 0.81\nsamples = 2\nvalue = [3, 1, 0]\nclass = 0", fillcolor="#e58139aa"] ;
330 -> 331 ;
332 [label="entropy = 0.0\nsamples = 1\nvalue = [0, 1, 0]\nclass = 1", fillcolor="#39e581ff"] ;
331 -> 332 ;
333 [label="entropy = 0.0\nsamples = 1\nvalue = [3, 0, 0]\nclass = 0", fillcolor="#e58139ff"] ;
331 -> 333 ;
334 [label="entropy = 0.0\nsamples = 2\nvalue = [2, 0, 0]\nclass = 0", fillcolor="#e58139ff"] ;
330 -> 334 ;
335 [label="entropy = 0.0\nsamples = 1\nvalue = [2, 0, 0]\nclass = 0", fillcolor="#e58139ff"] ;
329 -> 335 ;
336 [label="entropy = 0.0\nsamples = 3\nvalue = [6, 0, 0]\nclass = 0", fillcolor="#e58139ff"] ;
328 -> 336 ;
337 [label="1/1/2017 <= 0.02\nentropy = 0.74\nsamples = 11\nvalue = [15, 4, 0]\nclass = 0", fillcolor="#e58139bb"] ;
327 -> 337 ;
338 [label="6/1/2019 <= 0.02\nentropy = 0.59\nsamples = 8\nvalue = [12, 2, 0]\nclass = 0", fillcolor="#e58139d4"] ;
337 -> 338 ;
339 [label="49 <= 4.09\nentropy = 0.76\nsamples = 5\nvalue = [7, 2, 0]\nclass = 0", fillcolor="#e58139b6"] ;
338 -> 339 ;
340 [label="9/1/2019 <= -0.03\nentropy = 0.86\nsamples = 4\nvalue = [5, 2, 0]\nclass = 0", fillcolor="#e5813999"] ;
339 -> 340 ;
341 [label="entropy = 0.0\nsamples = 1\nvalue = [0, 1, 0]\nclass = 1", fillcolor="#39e581ff"] ;
340 -> 341 ;
342 [label="10/1/2017 <= 0.26\nentropy = 0.65\nsamples = 3\nvalue = [5, 1, 0]\nclass = 0", fillcolor="#e58139cc"] ;
340 -> 342 ;
343 [label="entropy = 0.0\nsamples = 2\nvalue = [5, 0, 0]\nclass = 0", fillcolor="#e58139ff"] ;
342 -> 343 ;
344 [label="entropy = 0.0\nsamples = 1\nvalue = [0, 1, 0]\nclass = 1", fillcolor="#39e581ff"] ;
342 -> 344 ;
345 [label="entropy = 0.0\nsamples = 1\nvalue = [2, 0, 0]\nclass = 0", fillcolor="#e58139ff"] ;
339 -> 345 ;
346 [label="entropy = 0.0\nsamples = 3\nvalue = [5, 0, 0]\nclass = 0", fillcolor="#e58139ff"] ;
338 -> 346 ;
347 [label="9/1/2017 <= 0.04\nentropy = 0.97\nsamples = 3\nvalue = [3, 2, 0]\nclass = 0", fillcolor="#e5813955"] ;
337 -> 347 ;
348 [label="11/1/2017 <= 0.12\nentropy = 1.0\nsamples = 2\nvalue = [2, 2, 0]\nclass = 0", fillcolor="#e5813900"] ;
347 -> 348 ;
349 [label="entropy = 0.0\nsamples = 1\nvalue = [2, 0, 0]\nclass = 0", fillcolor="#e58139ff"] ;
348 -> 349 ;
350 [label="entropy = 0.0\nsamples = 1\nvalue = [0, 2, 0]\nclass = 1", fillcolor="#39e581ff"] ;
348 -> 350 ;
351 [label="entropy = 0.0\nsamples = 1\nvalue = [1, 0, 0]\nclass = 0", fillcolor="#e58139ff"] ;
347 -> 351 ;
352 [label="entropy = 0.0\nsamples = 15\nvalue = [22, 0, 0]\nclass = 0", fillcolor="#e58139ff"] ;
318 -> 352 ;
353 [label="9/1/2017 <= 0.04\nentropy = 0.79\nsamples = 253\nvalue = [312, 98, 0]\nclass = 0", fillcolor="#e58139af"] ;
265 -> 353 ;
354 [label="4/1/2019 <= 0.03\nentropy = 0.81\nsamples = 238\nvalue = [293, 98, 0]\nclass = 0", fillcolor="#e58139aa"] ;
353 -> 354 ;
355 [label="33 <= 1.35\nentropy = 0.97\nsamples = 43\nvalue = [41, 27, 0]\nclass = 0", fillcolor="#e5813957"] ;
354 -> 355 ;
356 [label="58 <= 0.69\nentropy = 0.92\nsamples = 38\nvalue = [41, 21, 0]\nclass = 0", fillcolor="#e581397c"] ;
355 -> 356 ;
357 [label="9/1/2019 <= -0.05\nentropy = 0.86\nsamples = 30\nvalue = [35, 14, 0]\nclass = 0", fillcolor="#e5813999"] ;
356 -> 357 ;
358 [label="entropy = 0.0\nsamples = 6\nvalue = [0, 11, 0]\nclass = 1", fillcolor="#39e581ff"] ;
357 -> 358 ;
359 [label="9/1/2019 <= -0.0\nentropy = 0.4\nsamples = 24\nvalue = [35, 3, 0]\nclass = 0", fillcolor="#e58139e9"] ;
357 -> 359 ;
360 [label="37 <= 1.41\nentropy = 0.88\nsamples = 7\nvalue = [7, 3, 0]\nclass = 0", fillcolor="#e5813992"] ;
359 -> 360 ;
361 [label="9/1/2019 <= -0.03\nentropy = 0.54\nsamples = 6\nvalue = [7, 1, 0]\nclass = 0", fillcolor="#e58139db"] ;
360 -> 361 ;
362 [label="entropy = 0.0\nsamples = 4\nvalue = [5, 0, 0]\nclass = 0", fillcolor="#e58139ff"] ;
361 -> 362 ;
363 [label="11/1/2017 <= 0.26\nentropy = 0.92\nsamples = 2\nvalue = [2, 1, 0]\nclass = 0", fillcolor="#e581397f"] ;
361 -> 363 ;
364 [label="entropy = 0.0\nsamples = 1\nvalue = [0, 1, 0]\nclass = 1", fillcolor="#39e581ff"] ;
363 -> 364 ;
365 [label="entropy = 0.0\nsamples = 1\nvalue = [2, 0, 0]\nclass = 0", fillcolor="#e58139ff"] ;
363 -> 365 ;
366 [label="entropy = 0.0\nsamples = 1\nvalue = [0, 2, 0]\nclass = 1", fillcolor="#39e581ff"] ;
360 -> 366 ;
367 [label="entropy = 0.0\nsamples = 17\nvalue = [28, 0, 0]\nclass = 0", fillcolor="#e58139ff"] ;
359 -> 367 ;
368 [label="9/1/2017 <= 0.03\nentropy = 1.0\nsamples = 8\nvalue = [6, 7, 0]\nclass = 1", fillcolor="#39e58124"] ;
356 -> 368 ;
369 [label="7/1/2017 <= 0.0\nentropy = 0.95\nsamples = 7\nvalue = [4, 7, 0]\nclass = 1", fillcolor="#39e5816d"] ;
368 -> 369 ;
370 [label="entropy = 0.0\nsamples = 1\nvalue = [0, 3, 0]\nclass = 1", fillcolor="#39e581ff"] ;
369 -> 370 ;
371 [label="9/1/2017 <= 0.0\nentropy = 1.0\nsamples = 6\nvalue = [4, 4, 0]\nclass = 0", fillcolor="#e5813900"] ;
369 -> 371 ;
372 [label="entropy = 0.0\nsamples = 1\nvalue = [0, 1, 0]\nclass = 1", fillcolor="#39e581ff"] ;
371 -> 372 ;
373 [label="9/1/2019 <= -0.0\nentropy = 0.99\nsamples = 5\nvalue = [4, 3, 0]\nclass = 0", fillcolor="#e5813940"] ;
371 -> 373 ;
374 [label="entropy = 0.0\nsamples = 2\nvalue = [0, 3, 0]\nclass = 1", fillcolor="#39e581ff"] ;
373 -> 374 ;
375 [label="entropy = 0.0\nsamples = 3\nvalue = [4, 0, 0]\nclass = 0", fillcolor="#e58139ff"] ;
373 -> 375 ;
376 [label="entropy = 0.0\nsamples = 1\nvalue = [2, 0, 0]\nclass = 0", fillcolor="#e58139ff"] ;
368 -> 376 ;
377 [label="entropy = 0.0\nsamples = 5\nvalue = [0, 6, 0]\nclass = 1", fillcolor="#39e581ff"] ;
355 -> 377 ;
378 [label="7/1/2017 <= 0.03\nentropy = 0.76\nsamples = 195\nvalue = [252, 71, 0]\nclass = 0", fillcolor="#e58139b7"] ;
354 -> 378 ;
379 [label="33 <= 1.35\nentropy = 0.57\nsamples = 53\nvalue = [78, 12, 0]\nclass = 0", fillcolor="#e58139d8"] ;
378 -> 379 ;
380 [label="1/1/2017 <= -0.05\nentropy = 0.63\nsamples = 45\nvalue = [63, 12, 0]\nclass = 0", fillcolor="#e58139ce"] ;
379 -> 380 ;
381 [label="entropy = 0.0\nsamples = 1\nvalue = [0, 1, 0]\nclass = 1", fillcolor="#39e581ff"] ;
380 -> 381 ;
382 [label="10/1/2017 <= 0.3\nentropy = 0.61\nsamples = 44\nvalue = [63, 11, 0]\nclass = 0", fillcolor="#e58139d2"] ;
380 -> 382 ;
383 [label="entropy = 0.0\nsamples = 37\nvalue = [63, 0, 0]\nclass = 0", fillcolor="#e58139ff"] ;
382 -> 383 ;
384 [label="entropy = 0.0\nsamples = 7\nvalue = [0, 11, 0]\nclass = 1", fillcolor="#39e581ff"] ;
382 -> 384 ;
385 [label="entropy = 0.0\nsamples = 8\nvalue = [15, 0, 0]\nclass = 0", fillcolor="#e58139ff"] ;
379 -> 385 ;
386 [label="37 <= 1.41\nentropy = 0.82\nsamples = 142\nvalue = [174, 59, 0]\nclass = 0", fillcolor="#e58139a9"] ;
378 -> 386 ;
387 [label="6/1/2017 <= 0.04\nentropy = 0.77\nsamples = 125\nvalue = [164, 47, 0]\nclass = 0", fillcolor="#e58139b6"] ;
386 -> 387 ;
388 [label="2/1/2019 <= 0.04\nentropy = 0.8\nsamples = 102\nvalue = [133, 43, 0]\nclass = 0", fillcolor="#e58139ad"] ;
387 -> 388 ;
389 [label="8/1/2017 <= 0.03\nentropy = 0.77\nsamples = 97\nvalue = [127, 37, 0]\nclass = 0", fillcolor="#e58139b5"] ;
388 -> 389 ;
390 [label="58 <= 0.69\nentropy = 0.83\nsamples = 61\nvalue = [75, 27, 0]\nclass = 0", fillcolor="#e58139a3"] ;
389 -> 390 ;
391 [label="8/1/2019 <= 0.01\nentropy = 0.92\nsamples = 49\nvalue = [52, 26, 0]\nclass = 0", fillcolor="#e581397f"] ;
390 -> 391 ;
392 [label="48 <= 4.05\nentropy = 0.94\nsamples = 46\nvalue = [46, 26, 0]\nclass = 0", fillcolor="#e581396f"] ;
391 -> 392 ;
393 [label="11/1/2017 <= 0.26\nentropy = 0.95\nsamples = 45\nvalue = [45, 26, 0]\nclass = 0", fillcolor="#e581396c"] ;
392 -> 393 ;
394 [label="9/1/2019 <= -0.02\nentropy = 0.99\nsamples = 34\nvalue = [32, 25, 0]\nclass = 0", fillcolor="#e5813938"] ;
393 -> 394 ;
395 [label="entropy = 0.0\nsamples = 7\nvalue = [0, 16, 0]\nclass = 1", fillcolor="#39e581ff"] ;
394 -> 395 ;
396 [label="56 <= 2.42\nentropy = 0.76\nsamples = 27\nvalue = [32, 9, 0]\nclass = 0", fillcolor="#e58139b7"] ;
394 -> 396 ;
397 [label="33 <= 1.35\nentropy = 0.68\nsamples = 26\nvalue = [32, 7, 0]\nclass = 0", fillcolor="#e58139c7"] ;
396 -> 397 ;
398 [label="10/1/2017 <= 0.25\nentropy = 0.77\nsamples = 22\nvalue = [24, 7, 0]\nclass = 0", fillcolor="#e58139b5"] ;
397 -> 398 ;
399 [label="entropy = 0.0\nsamples = 16\nvalue = [23, 0, 0]\nclass = 0", fillcolor="#e58139ff"] ;
398 -> 399 ;
400 [label="8/1/2017 <= 0.03\nentropy = 0.54\nsamples = 6\nvalue = [1, 7, 0]\nclass = 1", fillcolor="#39e581db"] ;
398 -> 400 ;
401 [label="entropy = 0.0\nsamples = 3\nvalue = [0, 5, 0]\nclass = 1", fillcolor="#39e581ff"] ;
400 -> 401 ;
402 [label="7/1/2017 <= 0.04\nentropy = 0.92\nsamples = 3\nvalue = [1, 2, 0]\nclass = 1", fillcolor="#39e5817f"] ;
400 -> 402 ;
403 [label="entropy = 0.0\nsamples = 2\nvalue = [0, 2, 0]\nclass = 1", fillcolor="#39e581ff"] ;
402 -> 403 ;
404 [label="entropy = 0.0\nsamples = 1\nvalue = [1, 0, 0]\nclass = 0", fillcolor="#e58139ff"] ;
402 -> 404 ;
405 [label="entropy = 0.0\nsamples = 4\nvalue = [8, 0, 0]\nclass = 0", fillcolor="#e58139ff"] ;
397 -> 405 ;
406 [label="entropy = 0.0\nsamples = 1\nvalue = [0, 2, 0]\nclass = 1", fillcolor="#39e581ff"] ;
396 -> 406 ;
407 [label="11/1/2017 <= 0.44\nentropy = 0.37\nsamples = 11\nvalue = [13, 1, 0]\nclass = 0", fillcolor="#e58139eb"] ;
393 -> 407 ;
408 [label="entropy = 0.0\nsamples = 8\nvalue = [11, 0, 0]\nclass = 0", fillcolor="#e58139ff"] ;
407 -> 408 ;
409 [label="7/1/2017 <= 0.03\nentropy = 0.92\nsamples = 3\nvalue = [2, 1, 0]\nclass = 0", fillcolor="#e581397f"] ;
407 -> 409 ;
410 [label="entropy = 0.0\nsamples = 1\nvalue = [0, 1, 0]\nclass = 1", fillcolor="#39e581ff"] ;
409 -> 410 ;
411 [label="entropy = 0.0\nsamples = 2\nvalue = [2, 0, 0]\nclass = 0", fillcolor="#e58139ff"] ;
409 -> 411 ;
412 [label="entropy = 0.0\nsamples = 1\nvalue = [1, 0, 0]\nclass = 0", fillcolor="#e58139ff"] ;
392 -> 412 ;
413 [label="entropy = 0.0\nsamples = 3\nvalue = [6, 0, 0]\nclass = 0", fillcolor="#e58139ff"] ;
391 -> 413 ;
414 [label="6/1/2019 <= 0.03\nentropy = 0.25\nsamples = 12\nvalue = [23, 1, 0]\nclass = 0", fillcolor="#e58139f4"] ;
390 -> 414 ;
415 [label="entropy = 0.0\nsamples = 7\nvalue = [17, 0, 0]\nclass = 0", fillcolor="#e58139ff"] ;
414 -> 415 ;
416 [label="10/1/2017 <= 0.3\nentropy = 0.59\nsamples = 5\nvalue = [6, 1, 0]\nclass = 0", fillcolor="#e58139d4"] ;
414 -> 416 ;
417 [label="entropy = 0.0\nsamples = 4\nvalue = [6, 0, 0]\nclass = 0", fillcolor="#e58139ff"] ;
416 -> 417 ;
418 [label="entropy = 0.0\nsamples = 1\nvalue = [0, 1, 0]\nclass = 1", fillcolor="#39e581ff"] ;
416 -> 418 ;
419 [label="35 <= 1.46\nentropy = 0.64\nsamples = 36\nvalue = [52, 10, 0]\nclass = 0", fillcolor="#e58139ce"] ;
389 -> 419 ;
420 [label="8/1/2019 <= 0.01\nentropy = 0.71\nsamples = 32\nvalue = [42, 10, 0]\nclass = 0", fillcolor="#e58139c2"] ;
419 -> 420 ;
421 [label="entropy = 0.0\nsamples = 2\nvalue = [2, 0, 0]\nclass = 0", fillcolor="#e58139ff"] ;
420 -> 421 ;
422 [label="9/1/2019 <= 0.0\nentropy = 0.72\nsamples = 30\nvalue = [40, 10, 0]\nclass = 0", fillcolor="#e58139bf"] ;
420 -> 422 ;
423 [label="entropy = 0.0\nsamples = 4\nvalue = [0, 8, 0]\nclass = 1", fillcolor="#39e581ff"] ;
422 -> 423 ;
424 [label="7/1/2017 <= 0.04\nentropy = 0.28\nsamples = 26\nvalue = [40, 2, 0]\nclass = 0", fillcolor="#e58139f2"] ;
422 -> 424 ;
425 [label="entropy = 0.0\nsamples = 8\nvalue = [12, 0, 0]\nclass = 0", fillcolor="#e58139ff"] ;
424 -> 425 ;
426 [label="9/1/2017 <= 0.0\nentropy = 0.35\nsamples = 18\nvalue = [28, 2, 0]\nclass = 0", fillcolor="#e58139ed"] ;
424 -> 426 ;
427 [label="entropy = 0.0\nsamples = 1\nvalue = [4, 0, 0]\nclass = 0", fillcolor="#e58139ff"] ;
426 -> 427 ;
428 [label="41 <= 1.32\nentropy = 0.39\nsamples = 17\nvalue = [24, 2, 0]\nclass = 0", fillcolor="#e58139ea"] ;
426 -> 428 ;
429 [label="43 <= 5.89\nentropy = 0.44\nsamples = 14\nvalue = [20, 2, 0]\nclass = 0", fillcolor="#e58139e6"] ;
428 -> 429 ;
430 [label="33 <= 1.35\nentropy = 0.45\nsamples = 13\nvalue = [19, 2, 0]\nclass = 0", fillcolor="#e58139e4"] ;
429 -> 430 ;
431 [label="52 <= -0.41\nentropy = 0.72\nsamples = 7\nvalue = [8, 2, 0]\nclass = 0", fillcolor="#e58139bf"] ;
430 -> 431 ;
432 [label="entropy = 0.0\nsamples = 1\nvalue = [1, 0, 0]\nclass = 0", fillcolor="#e58139ff"] ;
431 -> 432 ;
433 [label="5 <= 8.92\nentropy = 0.76\nsamples = 6\nvalue = [7, 2, 0]\nclass = 0", fillcolor="#e58139b6"] ;
431 -> 433 ;
434 [label="31 <= 1.32\nentropy = 0.81\nsamples = 5\nvalue = [6, 2, 0]\nclass = 0", fillcolor="#e58139aa"] ;
433 -> 434 ;
435 [label="11/1/2017 <= 0.09\nentropy = 1.0\nsamples = 2\nvalue = [2, 2, 0]\nclass = 0", fillcolor="#e5813900"] ;
434 -> 435 ;
436 [label="entropy = 0.0\nsamples = 1\nvalue = [0, 2, 0]\nclass = 1", fillcolor="#39e581ff"] ;
435 -> 436 ;
437 [label="entropy = 0.0\nsamples = 1\nvalue = [2, 0, 0]\nclass = 0", fillcolor="#e58139ff"] ;
435 -> 437 ;
438 [label="entropy = 0.0\nsamples = 3\nvalue = [4, 0, 0]\nclass = 0", fillcolor="#e58139ff"] ;
434 -> 438 ;
439 [label="entropy = 0.0\nsamples = 1\nvalue = [1, 0, 0]\nclass = 0", fillcolor="#e58139ff"] ;
433 -> 439 ;
440 [label="entropy = 0.0\nsamples = 6\nvalue = [11, 0, 0]\nclass = 0", fillcolor="#e58139ff"] ;
430 -> 440 ;
441 [label="entropy = 0.0\nsamples = 1\nvalue = [1, 0, 0]\nclass = 0", fillcolor="#e58139ff"] ;
429 -> 441 ;
442 [label="entropy = 0.0\nsamples = 3\nvalue = [4, 0, 0]\nclass = 0", fillcolor="#e58139ff"] ;
428 -> 442 ;
443 [label="entropy = 0.0\nsamples = 4\nvalue = [10, 0, 0]\nclass = 0", fillcolor="#e58139ff"] ;
419 -> 443 ;
444 [label="10/1/2017 <= 0.35\nentropy = 1.0\nsamples = 5\nvalue = [6, 6, 0]\nclass = 0", fillcolor="#e5813900"] ;
388 -> 444 ;
445 [label="entropy = 0.0\nsamples = 3\nvalue = [6, 0, 0]\nclass = 0", fillcolor="#e58139ff"] ;
444 -> 445 ;
446 [label="entropy = 0.0\nsamples = 2\nvalue = [0, 6, 0]\nclass = 1", fillcolor="#39e581ff"] ;
444 -> 446 ;
447 [label="9/1/2019 <= 0.05\nentropy = 0.51\nsamples = 23\nvalue = [31, 4, 0]\nclass = 0", fillcolor="#e58139de"] ;
387 -> 447 ;
448 [label="39 <= 1.31\nentropy = 0.97\nsamples = 9\nvalue = [6, 4, 0]\nclass = 0", fillcolor="#e5813955"] ;
447 -> 448 ;
449 [label="52 <= -0.41\nentropy = 0.99\nsamples = 8\nvalue = [5, 4, 0]\nclass = 0", fillcolor="#e5813933"] ;
448 -> 449 ;
450 [label="entropy = 0.0\nsamples = 2\nvalue = [2, 0, 0]\nclass = 0", fillcolor="#e58139ff"] ;
449 -> 450 ;
451 [label="9/1/2019 <= 0.04\nentropy = 0.99\nsamples = 6\nvalue = [3, 4, 0]\nclass = 1", fillcolor="#39e58140"] ;
449 -> 451 ;
452 [label="7/1/2017 <= 0.04\nentropy = 0.97\nsamples = 4\nvalue = [3, 2, 0]\nclass = 0", fillcolor="#e5813955"] ;
451 -> 452 ;
453 [label="entropy = 0.0\nsamples = 2\nvalue = [2, 0, 0]\nclass = 0", fillcolor="#e58139ff"] ;
452 -> 453 ;
454 [label="29 <= 1.35\nentropy = 0.92\nsamples = 2\nvalue = [1, 2, 0]\nclass = 1", fillcolor="#39e5817f"] ;
452 -> 454 ;
455 [label="entropy = 0.0\nsamples = 1\nvalue = [1, 0, 0]\nclass = 0", fillcolor="#e58139ff"] ;
454 -> 455 ;
456 [label="entropy = 0.0\nsamples = 1\nvalue = [0, 2, 0]\nclass = 1", fillcolor="#39e581ff"] ;
454 -> 456 ;
457 [label="entropy = 0.0\nsamples = 2\nvalue = [0, 2, 0]\nclass = 1", fillcolor="#39e581ff"] ;
451 -> 457 ;
458 [label="entropy = 0.0\nsamples = 1\nvalue = [1, 0, 0]\nclass = 0", fillcolor="#e58139ff"] ;
448 -> 458 ;
459 [label="entropy = 0.0\nsamples = 14\nvalue = [25, 0, 0]\nclass = 0", fillcolor="#e58139ff"] ;
447 -> 459 ;
460 [label="7/1/2019 <= 0.04\nentropy = 0.99\nsamples = 17\nvalue = [10, 12, 0]\nclass = 1", fillcolor="#39e5812a"] ;
386 -> 460 ;
461 [label="9/1/2019 <= 0.03\nentropy = 1.0\nsamples = 16\nvalue = [10, 9, 0]\nclass = 0", fillcolor="#e5813919"] ;
460 -> 461 ;
462 [label="entropy = 0.0\nsamples = 6\nvalue = [0, 6, 0]\nclass = 1", fillcolor="#39e581ff"] ;
461 -> 462 ;
463 [label="52 <= -0.41\nentropy = 0.78\nsamples = 10\nvalue = [10, 3, 0]\nclass = 0", fillcolor="#e58139b3"] ;
461 -> 463 ;
464 [label="3/1/2019 <= 0.03\nentropy = 1.0\nsamples = 5\nvalue = [3, 3, 0]\nclass = 0", fillcolor="#e5813900"] ;
463 -> 464 ;
465 [label="entropy = 0.0\nsamples = 1\nvalue = [1, 0, 0]\nclass = 0", fillcolor="#e58139ff"] ;
464 -> 465 ;
466 [label="4/1/2019 <= 0.03\nentropy = 0.97\nsamples = 4\nvalue = [2, 3, 0]\nclass = 1", fillcolor="#39e58155"] ;
464 -> 466 ;
467 [label="entropy = 0.0\nsamples = 1\nvalue = [0, 2, 0]\nclass = 1", fillcolor="#39e581ff"] ;
466 -> 467 ;
468 [label="2/1/2019 <= 0.04\nentropy = 0.92\nsamples = 3\nvalue = [2, 1, 0]\nclass = 0", fillcolor="#e581397f"] ;
466 -> 468 ;
469 [label="entropy = 0.0\nsamples = 1\nvalue = [1, 0, 0]\nclass = 0", fillcolor="#e58139ff"] ;
468 -> 469 ;
470 [label="10/1/2017 <= 0.42\nentropy = 1.0\nsamples = 2\nvalue = [1, 1, 0]\nclass = 0", fillcolor="#e5813900"] ;
468 -> 470 ;
471 [label="entropy = 0.0\nsamples = 1\nvalue = [1, 0, 0]\nclass = 0", fillcolor="#e58139ff"] ;
470 -> 471 ;
472 [label="entropy = 0.0\nsamples = 1\nvalue = [0, 1, 0]\nclass = 1", fillcolor="#39e581ff"] ;
470 -> 472 ;
473 [label="entropy = 0.0\nsamples = 5\nvalue = [7, 0, 0]\nclass = 0", fillcolor="#e58139ff"] ;
463 -> 473 ;
474 [label="entropy = 0.0\nsamples = 1\nvalue = [0, 3, 0]\nclass = 1", fillcolor="#39e581ff"] ;
460 -> 474 ;
475 [label="entropy = 0.0\nsamples = 15\nvalue = [19, 0, 0]\nclass = 0", fillcolor="#e58139ff"] ;
353 -> 475 ;
476 [label="entropy = 0.0\nsamples = 1\nvalue = [0, 2, 0]\nclass = 1", fillcolor="#39e581ff"] ;
264 -> 476 ;
477 [label="entropy = 0.0\nsamples = 11\nvalue = [18, 0, 0]\nclass = 0", fillcolor="#e58139ff"] ;
181 -> 477 ;
478 [label="4/1/2019 <= 0.3\nentropy = 1.29\nsamples = 1473\nvalue = [615, 1451, 263]\nclass = 1", fillcolor="#39e5817c"] ;
0 -> 478 [labeldistance=2.5, labelangle=-45, headlabel="False"] ;
479 [label="33 <= 1.35\nentropy = 0.99\nsamples = 1179\nvalue = [599, 1246, 22]\nclass = 1", fillcolor="#39e58182"] ;
478 -> 479 ;
480 [label="5/1/2017 <= 0.07\nentropy = 1.02\nsamples = 937\nvalue = [498, 970, 22]\nclass = 1", fillcolor="#39e58179"] ;
479 -> 480 ;
481 [label="41 <= 1.32\nentropy = 0.96\nsamples = 305\nvalue = [296, 168, 1]\nclass = 0", fillcolor="#e581396e"] ;
480 -> 481 ;
482 [label="8/1/2019 <= 0.05\nentropy = 0.93\nsamples = 239\nvalue = [242, 114, 1]\nclass = 0", fillcolor="#e5813986"] ;
481 -> 482 ;
483 [label="31 <= 1.32\nentropy = 0.9\nsamples = 235\nvalue = [242, 111, 0]\nclass = 0", fillcolor="#e581398a"] ;
482 -> 483 ;
484 [label="10/1/2017 <= 0.3\nentropy = 0.93\nsamples = 199\nvalue = [195, 103, 0]\nclass = 0", fillcolor="#e5813978"] ;
483 -> 484 ;
485 [label="8/1/2019 <= 0.01\nentropy = 0.2\nsamples = 133\nvalue = [191, 6, 0]\nclass = 0", fillcolor="#e58139f7"] ;
484 -> 485 ;
486 [label="entropy = 0.0\nsamples = 65\nvalue = [98, 0, 0]\nclass = 0", fillcolor="#e58139ff"] ;
485 -> 486 ;
487 [label="43 <= 5.89\nentropy = 0.33\nsamples = 68\nvalue = [93, 6, 0]\nclass = 0", fillcolor="#e58139ef"] ;
485 -> 487 ;
488 [label="2/1/2017 <= 0.05\nentropy = 0.33\nsamples = 66\nvalue = [91, 6, 0]\nclass = 0", fillcolor="#e58139ee"] ;
487 -> 488 ;
489 [label="11/1/2017 <= 0.77\nentropy = 0.99\nsamples = 5\nvalue = [4, 3, 0]\nclass = 0", fillcolor="#e5813940"] ;
488 -> 489 ;
490 [label="entropy = 0.0\nsamples = 4\nvalue = [4, 0, 0]\nclass = 0", fillcolor="#e58139ff"] ;
489 -> 490 ;
491 [label="entropy = 0.0\nsamples = 1\nvalue = [0, 3, 0]\nclass = 1", fillcolor="#39e581ff"] ;
489 -> 491 ;
492 [label="8/1/2019 <= 0.02\nentropy = 0.21\nsamples = 61\nvalue = [87, 3, 0]\nclass = 0", fillcolor="#e58139f6"] ;
488 -> 492 ;
493 [label="entropy = 0.0\nsamples = 30\nvalue = [48, 0, 0]\nclass = 0", fillcolor="#e58139ff"] ;
492 -> 493 ;
494 [label="9/1/2019 <= 0.07\nentropy = 0.37\nsamples = 31\nvalue = [39, 3, 0]\nclass = 0", fillcolor="#e58139eb"] ;
492 -> 494 ;
495 [label="35 <= 1.46\nentropy = 0.75\nsamples = 11\nvalue = [11, 3, 0]\nclass = 0", fillcolor="#e58139b9"] ;
494 -> 495 ;
496 [label="5/1/2017 <= 0.06\nentropy = 0.81\nsamples = 10\nvalue = [9, 3, 0]\nclass = 0", fillcolor="#e58139aa"] ;
495 -> 496 ;
497 [label="48 <= 4.05\nentropy = 0.99\nsamples = 5\nvalue = [4, 3, 0]\nclass = 0", fillcolor="#e5813940"] ;
496 -> 497 ;
498 [label="10/1/2017 <= 0.2\nentropy = 1.0\nsamples = 4\nvalue = [3, 3, 0]\nclass = 0", fillcolor="#e5813900"] ;
497 -> 498 ;
499 [label="entropy = 0.0\nsamples = 1\nvalue = [0, 2, 0]\nclass = 1", fillcolor="#39e581ff"] ;
498 -> 499 ;
500 [label="9/1/2017 <= 0.06\nentropy = 0.81\nsamples = 3\nvalue = [3, 1, 0]\nclass = 0", fillcolor="#e58139aa"] ;
498 -> 500 ;
501 [label="5/1/2019 <= 0.06\nentropy = 0.92\nsamples = 2\nvalue = [2, 1, 0]\nclass = 0", fillcolor="#e581397f"] ;
500 -> 501 ;
502 [label="entropy = 0.0\nsamples = 1\nvalue = [0, 1, 0]\nclass = 1", fillcolor="#39e581ff"] ;
501 -> 502 ;
503 [label="entropy = 0.0\nsamples = 1\nvalue = [2, 0, 0]\nclass = 0", fillcolor="#e58139ff"] ;
501 -> 503 ;
504 [label="entropy = 0.0\nsamples = 1\nvalue = [1, 0, 0]\nclass = 0", fillcolor="#e58139ff"] ;
500 -> 504 ;
505 [label="entropy = 0.0\nsamples = 1\nvalue = [1, 0, 0]\nclass = 0", fillcolor="#e58139ff"] ;
497 -> 505 ;
506 [label="entropy = 0.0\nsamples = 5\nvalue = [5, 0, 0]\nclass = 0", fillcolor="#e58139ff"] ;
496 -> 506 ;
507 [label="entropy = 0.0\nsamples = 1\nvalue = [2, 0, 0]\nclass = 0", fillcolor="#e58139ff"] ;
495 -> 507 ;
508 [label="entropy = 0.0\nsamples = 20\nvalue = [28, 0, 0]\nclass = 0", fillcolor="#e58139ff"] ;
494 -> 508 ;
509 [label="entropy = 0.0\nsamples = 2\nvalue = [2, 0, 0]\nclass = 0", fillcolor="#e58139ff"] ;
487 -> 509 ;
510 [label="7/1/2019 <= 0.06\nentropy = 0.24\nsamples = 66\nvalue = [4, 97, 0]\nclass = 1", fillcolor="#39e581f4"] ;
484 -> 510 ;
511 [label="5/1/2017 <= 0.05\nentropy = 0.15\nsamples = 58\nvalue = [2, 89, 0]\nclass = 1", fillcolor="#39e581f9"] ;
510 -> 511 ;
512 [label="43 <= 5.89\nentropy = 0.38\nsamples = 18\nvalue = [2, 25, 0]\nclass = 1", fillcolor="#39e581eb"] ;
511 -> 512 ;
513 [label="9/1/2019 <= -0.07\nentropy = 0.24\nsamples = 17\nvalue = [1, 25, 0]\nclass = 1", fillcolor="#39e581f5"] ;
512 -> 513 ;
514 [label="1/1/2017 <= 0.04\nentropy = 0.72\nsamples = 5\nvalue = [1, 4, 0]\nclass = 1", fillcolor="#39e581bf"] ;
513 -> 514 ;
515 [label="entropy = 0.0\nsamples = 1\nvalue = [1, 0, 0]\nclass = 0", fillcolor="#e58139ff"] ;
514 -> 515 ;
516 [label="entropy = 0.0\nsamples = 4\nvalue = [0, 4, 0]\nclass = 1", fillcolor="#39e581ff"] ;
514 -> 516 ;
517 [label="entropy = 0.0\nsamples = 12\nvalue = [0, 21, 0]\nclass = 1", fillcolor="#39e581ff"] ;
513 -> 517 ;
518 [label="entropy = 0.0\nsamples = 1\nvalue = [1, 0, 0]\nclass = 0", fillcolor="#e58139ff"] ;
512 -> 518 ;
519 [label="entropy = 0.0\nsamples = 40\nvalue = [0, 64, 0]\nclass = 1", fillcolor="#39e581ff"] ;
511 -> 519 ;
520 [label="1/1/2017 <= 0.07\nentropy = 0.72\nsamples = 8\nvalue = [2, 8, 0]\nclass = 1", fillcolor="#39e581bf"] ;
510 -> 520 ;
521 [label="45 <= 6.19\nentropy = 0.97\nsamples = 3\nvalue = [2, 3, 0]\nclass = 1", fillcolor="#39e58155"] ;
520 -> 521 ;
522 [label="entropy = 0.0\nsamples = 2\nvalue = [0, 3, 0]\nclass = 1", fillcolor="#39e581ff"] ;
521 -> 522 ;
523 [label="entropy = 0.0\nsamples = 1\nvalue = [2, 0, 0]\nclass = 0", fillcolor="#e58139ff"] ;
521 -> 523 ;
524 [label="entropy = 0.0\nsamples = 5\nvalue = [0, 5, 0]\nclass = 1", fillcolor="#39e581ff"] ;
520 -> 524 ;
525 [label="11/1/2017 <= 0.32\nentropy = 0.6\nsamples = 36\nvalue = [47, 8, 0]\nclass = 0", fillcolor="#e58139d4"] ;
483 -> 525 ;
526 [label="6/1/2019 <= 0.05\nentropy = 0.9\nsamples = 15\nvalue = [15, 7, 0]\nclass = 0", fillcolor="#e5813988"] ;
525 -> 526 ;
527 [label="7/1/2017 <= 0.04\nentropy = 0.54\nsamples = 11\nvalue = [14, 2, 0]\nclass = 0", fillcolor="#e58139db"] ;
526 -> 527 ;
528 [label="entropy = 0.0\nsamples = 6\nvalue = [8, 0, 0]\nclass = 0", fillcolor="#e58139ff"] ;
527 -> 528 ;
529 [label="9/1/2019 <= 0.02\nentropy = 0.81\nsamples = 5\nvalue = [6, 2, 0]\nclass = 0", fillcolor="#e58139aa"] ;
527 -> 529 ;
530 [label="entropy = 0.0\nsamples = 1\nvalue = [0, 2, 0]\nclass = 1", fillcolor="#39e581ff"] ;
529 -> 530 ;
531 [label="entropy = 0.0\nsamples = 4\nvalue = [6, 0, 0]\nclass = 0", fillcolor="#e58139ff"] ;
529 -> 531 ;
532 [label="52 <= -0.41\nentropy = 0.65\nsamples = 4\nvalue = [1, 5, 0]\nclass = 1", fillcolor="#39e581cc"] ;
526 -> 532 ;
533 [label="entropy = 0.0\nsamples = 1\nvalue = [0, 1, 0]\nclass = 1", fillcolor="#39e581ff"] ;
532 -> 533 ;
534 [label="7/1/2019 <= 0.06\nentropy = 0.72\nsamples = 3\nvalue = [1, 4, 0]\nclass = 1", fillcolor="#39e581bf"] ;
532 -> 534 ;
535 [label="entropy = 0.0\nsamples = 2\nvalue = [0, 4, 0]\nclass = 1", fillcolor="#39e581ff"] ;
534 -> 535 ;
536 [label="entropy = 0.0\nsamples = 1\nvalue = [1, 0, 0]\nclass = 0", fillcolor="#e58139ff"] ;
534 -> 536 ;
537 [label="8/1/2017 <= -0.01\nentropy = 0.2\nsamples = 21\nvalue = [32, 1, 0]\nclass = 0", fillcolor="#e58139f7"] ;
525 -> 537 ;
538 [label="entropy = 0.0\nsamples = 1\nvalue = [0, 1, 0]\nclass = 1", fillcolor="#39e581ff"] ;
537 -> 538 ;
539 [label="entropy = 0.0\nsamples = 20\nvalue = [32, 0, 0]\nclass = 0", fillcolor="#e58139ff"] ;
537 -> 539 ;
540 [label="2/1/2017 <= 0.16\nentropy = 0.81\nsamples = 4\nvalue = [0, 3, 1]\nclass = 1", fillcolor="#39e581aa"] ;
482 -> 540 ;
541 [label="entropy = 0.0\nsamples = 3\nvalue = [0, 3, 0]\nclass = 1", fillcolor="#39e581ff"] ;
540 -> 541 ;
542 [label="entropy = 0.0\nsamples = 1\nvalue = [0, 0, 1]\nclass = 2", fillcolor="#8139e5ff"] ;
540 -> 542 ;
543 [label="7/1/2017 <= 0.19\nentropy = 1.0\nsamples = 66\nvalue = [54, 54, 0]\nclass = 0", fillcolor="#e5813900"] ;
481 -> 543 ;
544 [label="9/1/2017 <= 0.03\nentropy = 1.0\nsamples = 65\nvalue = [52, 54, 0]\nclass = 1", fillcolor="#39e58109"] ;
543 -> 544 ;
545 [label="entropy = 0.0\nsamples = 3\nvalue = [0, 4, 0]\nclass = 1", fillcolor="#39e581ff"] ;
544 -> 545 ;
546 [label="7/1/2019 <= 0.09\nentropy = 1.0\nsamples = 62\nvalue = [52, 50, 0]\nclass = 0", fillcolor="#e581390a"] ;
544 -> 546 ;
547 [label="7/1/2017 <= 0.06\nentropy = 1.0\nsamples = 60\nvalue = [46, 50, 0]\nclass = 1", fillcolor="#39e58114"] ;
546 -> 547 ;
548 [label="9/1/2019 <= 0.02\nentropy = 1.0\nsamples = 39\nvalue = [34, 29, 0]\nclass = 0", fillcolor="#e5813925"] ;
547 -> 548 ;
549 [label="11/1/2017 <= 0.66\nentropy = 0.77\nsamples = 19\nvalue = [7, 24, 0]\nclass = 1", fillcolor="#39e581b5"] ;
548 -> 549 ;
550 [label="7/1/2017 <= 0.05\nentropy = 0.24\nsamples = 15\nvalue = [1, 24, 0]\nclass = 1", fillcolor="#39e581f4"] ;
549 -> 550 ;
551 [label="1/1/2019 <= 0.04\nentropy = 0.39\nsamples = 9\nvalue = [1, 12, 0]\nclass = 1", fillcolor="#39e581ea"] ;
550 -> 551 ;
552 [label="entropy = 0.0\nsamples = 4\nvalue = [0, 6, 0]\nclass = 1", fillcolor="#39e581ff"] ;
551 -> 552 ;
553 [label="52 <= -0.41\nentropy = 0.59\nsamples = 5\nvalue = [1, 6, 0]\nclass = 1", fillcolor="#39e581d4"] ;
551 -> 553 ;
554 [label="entropy = 0.0\nsamples = 1\nvalue = [0, 1, 0]\nclass = 1", fillcolor="#39e581ff"] ;
553 -> 554 ;
555 [label="9/1/2019 <= 0.0\nentropy = 0.65\nsamples = 4\nvalue = [1, 5, 0]\nclass = 1", fillcolor="#39e581cc"] ;
553 -> 555 ;
556 [label="entropy = 0.0\nsamples = 3\nvalue = [0, 5, 0]\nclass = 1", fillcolor="#39e581ff"] ;
555 -> 556 ;
557 [label="entropy = 0.0\nsamples = 1\nvalue = [1, 0, 0]\nclass = 0", fillcolor="#e58139ff"] ;
555 -> 557 ;
558 [label="entropy = 0.0\nsamples = 6\nvalue = [0, 12, 0]\nclass = 1", fillcolor="#39e581ff"] ;
550 -> 558 ;
559 [label="entropy = 0.0\nsamples = 4\nvalue = [6, 0, 0]\nclass = 0", fillcolor="#e58139ff"] ;
549 -> 559 ;
560 [label="10/1/2017 <= 0.34\nentropy = 0.63\nsamples = 20\nvalue = [27, 5, 0]\nclass = 0", fillcolor="#e58139d0"] ;
548 -> 560 ;
561 [label="entropy = 0.0\nsamples = 16\nvalue = [27, 0, 0]\nclass = 0", fillcolor="#e58139ff"] ;
560 -> 561 ;
562 [label="entropy = 0.0\nsamples = 4\nvalue = [0, 5, 0]\nclass = 1", fillcolor="#39e581ff"] ;
560 -> 562 ;
563 [label="10/1/2017 <= 0.32\nentropy = 0.95\nsamples = 21\nvalue = [12, 21, 0]\nclass = 1", fillcolor="#39e5816d"] ;
547 -> 563 ;
564 [label="entropy = 0.0\nsamples = 9\nvalue = [12, 0, 0]\nclass = 0", fillcolor="#e58139ff"] ;
563 -> 564 ;
565 [label="entropy = 0.0\nsamples = 12\nvalue = [0, 21, 0]\nclass = 1", fillcolor="#39e581ff"] ;
563 -> 565 ;
566 [label="entropy = 0.0\nsamples = 2\nvalue = [6, 0, 0]\nclass = 0", fillcolor="#e58139ff"] ;
546 -> 566 ;
567 [label="entropy = 0.0\nsamples = 1\nvalue = [2, 0, 0]\nclass = 0", fillcolor="#e58139ff"] ;
543 -> 567 ;
568 [label="4/1/2017 <= 0.18\nentropy = 0.85\nsamples = 632\nvalue = [202, 802, 21]\nclass = 1", fillcolor="#39e581ba"] ;
480 -> 568 ;
569 [label="5/1/2019 <= 0.08\nentropy = 0.79\nsamples = 462\nvalue = [174, 586, 1]\nclass = 1", fillcolor="#39e581b3"] ;
568 -> 569 ;
570 [label="29 <= 1.35\nentropy = 0.93\nsamples = 88\nvalue = [49, 94, 0]\nclass = 1", fillcolor="#39e5817a"] ;
569 -> 570 ;
571 [label="3/1/2017 <= 0.06\nentropy = 0.97\nsamples = 68\nvalue = [45, 70, 0]\nclass = 1", fillcolor="#39e5815b"] ;
570 -> 571 ;
572 [label="entropy = 0.0\nsamples = 1\nvalue = [2, 0, 0]\nclass = 0", fillcolor="#e58139ff"] ;
571 -> 572 ;
573 [label="5 <= 8.92\nentropy = 0.96\nsamples = 67\nvalue = [43, 70, 0]\nclass = 1", fillcolor="#39e58162"] ;
571 -> 573 ;
574 [label="48 <= 4.05\nentropy = 0.97\nsamples = 65\nvalue = [43, 67, 0]\nclass = 1", fillcolor="#39e5815b"] ;
573 -> 574 ;
575 [label="41 <= 1.32\nentropy = 0.97\nsamples = 63\nvalue = [43, 65, 0]\nclass = 1", fillcolor="#39e58156"] ;
574 -> 575 ;
576 [label="5/1/2017 <= 0.07\nentropy = 1.0\nsamples = 44\nvalue = [35, 40, 0]\nclass = 1", fillcolor="#39e58120"] ;
575 -> 576 ;
577 [label="10/1/2017 <= 0.25\nentropy = 0.94\nsamples = 13\nvalue = [9, 16, 0]\nclass = 1", fillcolor="#39e58170"] ;
576 -> 577 ;
578 [label="entropy = 0.0\nsamples = 2\nvalue = [5, 0, 0]\nclass = 0", fillcolor="#e58139ff"] ;
577 -> 578 ;
579 [label="52 <= -0.41\nentropy = 0.72\nsamples = 11\nvalue = [4, 16, 0]\nclass = 1", fillcolor="#39e581bf"] ;
577 -> 579 ;
580 [label="11/1/2017 <= 0.73\nentropy = 0.99\nsamples = 5\nvalue = [4, 3, 0]\nclass = 0", fillcolor="#e5813940"] ;
579 -> 580 ;
581 [label="10/1/2017 <= 0.46\nentropy = 0.81\nsamples = 4\nvalue = [1, 3, 0]\nclass = 1", fillcolor="#39e581aa"] ;
580 -> 581 ;
582 [label="entropy = 0.0\nsamples = 1\nvalue = [1, 0, 0]\nclass = 0", fillcolor="#e58139ff"] ;
581 -> 582 ;
583 [label="entropy = 0.0\nsamples = 3\nvalue = [0, 3, 0]\nclass = 1", fillcolor="#39e581ff"] ;
581 -> 583 ;
584 [label="entropy = 0.0\nsamples = 1\nvalue = [3, 0, 0]\nclass = 0", fillcolor="#e58139ff"] ;
580 -> 584 ;
585 [label="entropy = 0.0\nsamples = 6\nvalue = [0, 13, 0]\nclass = 1", fillcolor="#39e581ff"] ;
579 -> 585 ;
586 [label="9/1/2019 <= 0.08\nentropy = 1.0\nsamples = 31\nvalue = [26, 24, 0]\nclass = 0", fillcolor="#e5813914"] ;
576 -> 586 ;
587 [label="entropy = 0.0\nsamples = 5\nvalue = [0, 8, 0]\nclass = 1", fillcolor="#39e581ff"] ;
586 -> 587 ;
588 [label="7/1/2019 <= 0.07\nentropy = 0.96\nsamples = 26\nvalue = [26, 16, 0]\nclass = 0", fillcolor="#e5813962"] ;
586 -> 588 ;
589 [label="entropy = 0.0\nsamples = 3\nvalue = [4, 0, 0]\nclass = 0", fillcolor="#e58139ff"] ;
588 -> 589 ;
590 [label="37 <= 1.41\nentropy = 0.98\nsamples = 23\nvalue = [22, 16, 0]\nclass = 0", fillcolor="#e5813946"] ;
588 -> 590 ;
591 [label="2/1/2017 <= 0.08\nentropy = 1.0\nsamples = 19\nvalue = [15, 15, 0]\nclass = 0", fillcolor="#e5813900"] ;
590 -> 591 ;
592 [label="11/1/2017 <= 0.47\nentropy = 1.0\nsamples = 18\nvalue = [15, 14, 0]\nclass = 0", fillcolor="#e5813911"] ;
591 -> 592 ;
593 [label="entropy = 0.0\nsamples = 8\nvalue = [0, 12, 0]\nclass = 1", fillcolor="#39e581ff"] ;
592 -> 593 ;
594 [label="1/1/2019 <= 0.08\nentropy = 0.52\nsamples = 10\nvalue = [15, 2, 0]\nclass = 0", fillcolor="#e58139dd"] ;
592 -> 594 ;
595 [label="entropy = 0.0\nsamples = 5\nvalue = [6, 0, 0]\nclass = 0", fillcolor="#e58139ff"] ;
594 -> 595 ;
596 [label="52 <= -0.41\nentropy = 0.68\nsamples = 5\nvalue = [9, 2, 0]\nclass = 0", fillcolor="#e58139c6"] ;
594 -> 596 ;
597 [label="entropy = 0.0\nsamples = 3\nvalue = [5, 0, 0]\nclass = 0", fillcolor="#e58139ff"] ;
596 -> 597 ;
598 [label="9/1/2019 <= 0.13\nentropy = 0.92\nsamples = 2\nvalue = [4, 2, 0]\nclass = 0", fillcolor="#e581397f"] ;
596 -> 598 ;
599 [label="entropy = 0.0\nsamples = 1\nvalue = [0, 2, 0]\nclass = 1", fillcolor="#39e581ff"] ;
598 -> 599 ;
600 [label="entropy = 0.0\nsamples = 1\nvalue = [4, 0, 0]\nclass = 0", fillcolor="#e58139ff"] ;
598 -> 600 ;
601 [label="entropy = 0.0\nsamples = 1\nvalue = [0, 1, 0]\nclass = 1", fillcolor="#39e581ff"] ;
591 -> 601 ;
602 [label="52 <= -0.41\nentropy = 0.54\nsamples = 4\nvalue = [7, 1, 0]\nclass = 0", fillcolor="#e58139db"] ;
590 -> 602 ;
603 [label="7/1/2017 <= 0.08\nentropy = 0.92\nsamples = 2\nvalue = [2, 1, 0]\nclass = 0", fillcolor="#e581397f"] ;
602 -> 603 ;
604 [label="entropy = 0.0\nsamples = 1\nvalue = [2, 0, 0]\nclass = 0", fillcolor="#e58139ff"] ;
603 -> 604 ;
605 [label="entropy = 0.0\nsamples = 1\nvalue = [0, 1, 0]\nclass = 1", fillcolor="#39e581ff"] ;
603 -> 605 ;
606 [label="entropy = 0.0\nsamples = 2\nvalue = [5, 0, 0]\nclass = 0", fillcolor="#e58139ff"] ;
602 -> 606 ;
607 [label="10/1/2017 <= 0.25\nentropy = 0.8\nsamples = 19\nvalue = [8, 25, 0]\nclass = 1", fillcolor="#39e581ad"] ;
575 -> 607 ;
608 [label="entropy = 0.0\nsamples = 6\nvalue = [8, 0, 0]\nclass = 0", fillcolor="#e58139ff"] ;
607 -> 608 ;
609 [label="entropy = 0.0\nsamples = 13\nvalue = [0, 25, 0]\nclass = 1", fillcolor="#39e581ff"] ;
607 -> 609 ;
610 [label="entropy = 0.0\nsamples = 2\nvalue = [0, 2, 0]\nclass = 1", fillcolor="#39e581ff"] ;
574 -> 610 ;
611 [label="entropy = 0.0\nsamples = 2\nvalue = [0, 3, 0]\nclass = 1", fillcolor="#39e581ff"] ;
573 -> 611 ;
612 [label="4/1/2017 <= 0.07\nentropy = 0.59\nsamples = 20\nvalue = [4, 24, 0]\nclass = 1", fillcolor="#39e581d4"] ;
570 -> 612 ;
613 [label="entropy = 0.0\nsamples = 5\nvalue = [0, 7, 0]\nclass = 1", fillcolor="#39e581ff"] ;
612 -> 613 ;
614 [label="2/1/2017 <= 0.08\nentropy = 0.7\nsamples = 15\nvalue = [4, 17, 0]\nclass = 1", fillcolor="#39e581c3"] ;
612 -> 614 ;
615 [label="4/1/2019 <= 0.08\nentropy = 0.76\nsamples = 12\nvalue = [4, 14, 0]\nclass = 1", fillcolor="#39e581b6"] ;
614 -> 615 ;
616 [label="9/1/2019 <= 0.1\nentropy = 0.67\nsamples = 11\nvalue = [3, 14, 0]\nclass = 1", fillcolor="#39e581c8"] ;
615 -> 616 ;
617 [label="4/1/2017 <= 0.07\nentropy = 0.37\nsamples = 8\nvalue = [1, 13, 0]\nclass = 1", fillcolor="#39e581eb"] ;
616 -> 617 ;
618 [label="11/1/2017 <= 0.91\nentropy = 0.72\nsamples = 3\nvalue = [1, 4, 0]\nclass = 1", fillcolor="#39e581bf"] ;
617 -> 618 ;
619 [label="entropy = 0.0\nsamples = 2\nvalue = [0, 4, 0]\nclass = 1", fillcolor="#39e581ff"] ;
618 -> 619 ;
620 [label="entropy = 0.0\nsamples = 1\nvalue = [1, 0, 0]\nclass = 0", fillcolor="#e58139ff"] ;
618 -> 620 ;
621 [label="entropy = 0.0\nsamples = 5\nvalue = [0, 9, 0]\nclass = 1", fillcolor="#39e581ff"] ;
617 -> 621 ;
622 [label="52 <= -0.41\nentropy = 0.92\nsamples = 3\nvalue = [2, 1, 0]\nclass = 0", fillcolor="#e581397f"] ;
616 -> 622 ;
623 [label="entropy = 0.0\nsamples = 1\nvalue = [1, 0, 0]\nclass = 0", fillcolor="#e58139ff"] ;
622 -> 623 ;
624 [label="3/1/2017 <= 0.08\nentropy = 1.0\nsamples = 2\nvalue = [1, 1, 0]\nclass = 0", fillcolor="#e5813900"] ;
622 -> 624 ;
625 [label="entropy = 0.0\nsamples = 1\nvalue = [0, 1, 0]\nclass = 1", fillcolor="#39e581ff"] ;
624 -> 625 ;
626 [label="entropy = 0.0\nsamples = 1\nvalue = [1, 0, 0]\nclass = 0", fillcolor="#e58139ff"] ;
624 -> 626 ;
627 [label="entropy = 0.0\nsamples = 1\nvalue = [1, 0, 0]\nclass = 0", fillcolor="#e58139ff"] ;
615 -> 627 ;
628 [label="entropy = 0.0\nsamples = 3\nvalue = [0, 3, 0]\nclass = 1", fillcolor="#39e581ff"] ;
614 -> 628 ;
629 [label="4/1/2019 <= 0.18\nentropy = 0.74\nsamples = 374\nvalue = [125, 492, 1]\nclass = 1", fillcolor="#39e581be"] ;
569 -> 629 ;
630 [label="45 <= 6.19\nentropy = 0.73\nsamples = 369\nvalue = [118, 490, 1]\nclass = 1", fillcolor="#39e581c1"] ;
629 -> 630 ;
631 [label="8/1/2019 <= 0.02\nentropy = 0.69\nsamples = 359\nvalue = [104, 490, 1]\nclass = 1", fillcolor="#39e581c8"] ;
630 -> 631 ;
632 [label="entropy = 0.0\nsamples = 17\nvalue = [0, 25, 0]\nclass = 1", fillcolor="#39e581ff"] ;
631 -> 632 ;
633 [label="58 <= 0.69\nentropy = 0.7\nsamples = 342\nvalue = [104, 465, 1]\nclass = 1", fillcolor="#39e581c6"] ;
631 -> 633 ;
634 [label="52 <= -0.41\nentropy = 0.72\nsamples = 255\nvalue = [84, 340, 0]\nclass = 1", fillcolor="#39e581c0"] ;
633 -> 634 ;
635 [label="11/1/2017 <= 0.7\nentropy = 0.96\nsamples = 32\nvalue = [23, 38, 0]\nclass = 1", fillcolor="#39e58165"] ;
634 -> 635 ;
636 [label="1/1/2017 <= 0.08\nentropy = 0.27\nsamples = 11\nvalue = [1, 21, 0]\nclass = 1", fillcolor="#39e581f3"] ;
635 -> 636 ;
637 [label="9/1/2017 <= 0.04\nentropy = 0.81\nsamples = 2\nvalue = [1, 3, 0]\nclass = 1", fillcolor="#39e581aa"] ;
636 -> 637 ;
638 [label="entropy = 0.0\nsamples = 1\nvalue = [1, 0, 0]\nclass = 0", fillcolor="#e58139ff"] ;
637 -> 638 ;
639 [label="entropy = 0.0\nsamples = 1\nvalue = [0, 3, 0]\nclass = 1", fillcolor="#39e581ff"] ;
637 -> 639 ;
640 [label="entropy = 0.0\nsamples = 9\nvalue = [0, 18, 0]\nclass = 1", fillcolor="#39e581ff"] ;
636 -> 640 ;
641 [label="3/1/2017 <= 0.1\nentropy = 0.99\nsamples = 21\nvalue = [22, 17, 0]\nclass = 0", fillcolor="#e581393a"] ;
635 -> 641 ;
642 [label="entropy = 0.0\nsamples = 2\nvalue = [0, 3, 0]\nclass = 1", fillcolor="#39e581ff"] ;
641 -> 642 ;
643 [label="9/1/2019 <= 0.19\nentropy = 0.96\nsamples = 19\nvalue = [22, 14, 0]\nclass = 0", fillcolor="#e581395d"] ;
641 -> 643 ;
644 [label="11/1/2017 <= 1.08\nentropy = 1.0\nsamples = 14\nvalue = [12, 14, 0]\nclass = 1", fillcolor="#39e58124"] ;
643 -> 644 ;
645 [label="5/1/2017 <= 0.13\nentropy = 0.72\nsamples = 7\nvalue = [8, 2, 0]\nclass = 0", fillcolor="#e58139bf"] ;
644 -> 645 ;
646 [label="entropy = 0.0\nsamples = 4\nvalue = [6, 0, 0]\nclass = 0", fillcolor="#e58139ff"] ;
645 -> 646 ;
647 [label="7/1/2017 <= 0.15\nentropy = 1.0\nsamples = 3\nvalue = [2, 2, 0]\nclass = 0", fillcolor="#e5813900"] ;
645 -> 647 ;
648 [label="entropy = 0.0\nsamples = 2\nvalue = [0, 2, 0]\nclass = 1", fillcolor="#39e581ff"] ;
647 -> 648 ;
649 [label="entropy = 0.0\nsamples = 1\nvalue = [2, 0, 0]\nclass = 0", fillcolor="#e58139ff"] ;
647 -> 649 ;
650 [label="56 <= 2.42\nentropy = 0.81\nsamples = 7\nvalue = [4, 12, 0]\nclass = 1", fillcolor="#39e581aa"] ;
644 -> 650 ;
651 [label="5/1/2017 <= 0.12\nentropy = 0.89\nsamples = 5\nvalue = [4, 9, 0]\nclass = 1", fillcolor="#39e5818e"] ;
650 -> 651 ;
652 [label="entropy = 0.0\nsamples = 1\nvalue = [3, 0, 0]\nclass = 0", fillcolor="#e58139ff"] ;
651 -> 652 ;
653 [label="6/1/2017 <= 0.17\nentropy = 0.47\nsamples = 4\nvalue = [1, 9, 0]\nclass = 1", fillcolor="#39e581e3"] ;
651 -> 653 ;
654 [label="entropy = 0.0\nsamples = 2\nvalue = [0, 6, 0]\nclass = 1", fillcolor="#39e581ff"] ;
653 -> 654 ;
655 [label="10/1/2017 <= 1.03\nentropy = 0.81\nsamples = 2\nvalue = [1, 3, 0]\nclass = 1", fillcolor="#39e581aa"] ;
653 -> 655 ;
656 [label="entropy = 0.0\nsamples = 1\nvalue = [0, 3, 0]\nclass = 1", fillcolor="#39e581ff"] ;
655 -> 656 ;
657 [label="entropy = 0.0\nsamples = 1\nvalue = [1, 0, 0]\nclass = 0", fillcolor="#e58139ff"] ;
655 -> 657 ;
658 [label="entropy = 0.0\nsamples = 2\nvalue = [0, 3, 0]\nclass = 1", fillcolor="#39e581ff"] ;
650 -> 658 ;
659 [label="entropy = 0.0\nsamples = 5\nvalue = [10, 0, 0]\nclass = 0", fillcolor="#e58139ff"] ;
643 -> 659 ;
660 [label="4/1/2017 <= 0.15\nentropy = 0.65\nsamples = 223\nvalue = [61, 302, 0]\nclass = 1", fillcolor="#39e581cb"] ;
634 -> 660 ;
661 [label="3/1/2017 <= 0.15\nentropy = 0.7\nsamples = 184\nvalue = [57, 246, 0]\nclass = 1", fillcolor="#39e581c4"] ;
660 -> 661 ;
662 [label="3/1/2019 <= 0.09\nentropy = 0.65\nsamples = 176\nvalue = [49, 242, 0]\nclass = 1", fillcolor="#39e581cb"] ;
661 -> 662 ;
663 [label="39 <= 1.31\nentropy = 0.83\nsamples = 36\nvalue = [15, 42, 0]\nclass = 1", fillcolor="#39e581a4"] ;
662 -> 663 ;
664 [label="9/1/2019 <= 0.12\nentropy = 0.8\nsamples = 33\nvalue = [13, 41, 0]\nclass = 1", fillcolor="#39e581ae"] ;
663 -> 664 ;
665 [label="11/1/2017 <= 0.67\nentropy = 0.31\nsamples = 25\nvalue = [2, 34, 0]\nclass = 1", fillcolor="#39e581f0"] ;
664 -> 665 ;
666 [label="entropy = 0.0\nsamples = 21\nvalue = [0, 30, 0]\nclass = 1", fillcolor="#39e581ff"] ;
665 -> 666 ;
667 [label="1/1/2017 <= 0.09\nentropy = 0.92\nsamples = 4\nvalue = [2, 4, 0]\nclass = 1", fillcolor="#39e5817f"] ;
665 -> 667 ;
668 [label="8/1/2019 <= 0.02\nentropy = 0.72\nsamples = 3\nvalue = [1, 4, 0]\nclass = 1", fillcolor="#39e581bf"] ;
667 -> 668 ;
669 [label="7/1/2019 <= 0.08\nentropy = 1.0\nsamples = 2\nvalue = [1, 1, 0]\nclass = 0", fillcolor="#e5813900"] ;
668 -> 669 ;
670 [label="entropy = 0.0\nsamples = 1\nvalue = [0, 1, 0]\nclass = 1", fillcolor="#39e581ff"] ;
669 -> 670 ;
671 [label="entropy = 0.0\nsamples = 1\nvalue = [1, 0, 0]\nclass = 0", fillcolor="#e58139ff"] ;
669 -> 671 ;
672 [label="entropy = 0.0\nsamples = 1\nvalue = [0, 3, 0]\nclass = 1", fillcolor="#39e581ff"] ;
668 -> 672 ;
673 [label="entropy = 0.0\nsamples = 1\nvalue = [1, 0, 0]\nclass = 0", fillcolor="#e58139ff"] ;
667 -> 673 ;
674 [label="8/1/2017 <= 0.08\nentropy = 0.96\nsamples = 8\nvalue = [11, 7, 0]\nclass = 0", fillcolor="#e581395d"] ;
664 -> 674 ;
675 [label="entropy = 0.0\nsamples = 2\nvalue = [6, 0, 0]\nclass = 0", fillcolor="#e58139ff"] ;
674 -> 675 ;
676 [label="7/1/2017 <= 0.08\nentropy = 0.98\nsamples = 6\nvalue = [5, 7, 0]\nclass = 1", fillcolor="#39e58149"] ;
674 -> 676 ;
677 [label="entropy = 0.0\nsamples = 1\nvalue = [0, 2, 0]\nclass = 1", fillcolor="#39e581ff"] ;
676 -> 677 ;
678 [label="4/1/2019 <= 0.09\nentropy = 1.0\nsamples = 5\nvalue = [5, 5, 0]\nclass = 0", fillcolor="#e5813900"] ;
676 -> 678 ;
679 [label="entropy = 0.0\nsamples = 1\nvalue = [2, 0, 0]\nclass = 0", fillcolor="#e58139ff"] ;
678 -> 679 ;
680 [label="3/1/2019 <= 0.09\nentropy = 0.95\nsamples = 4\nvalue = [3, 5, 0]\nclass = 1", fillcolor="#39e58166"] ;
678 -> 680 ;
681 [label="entropy = 0.0\nsamples = 3\nvalue = [0, 5, 0]\nclass = 1", fillcolor="#39e581ff"] ;
680 -> 681 ;
682 [label="entropy = 0.0\nsamples = 1\nvalue = [3, 0, 0]\nclass = 0", fillcolor="#e58139ff"] ;
680 -> 682 ;
683 [label="3/1/2019 <= 0.09\nentropy = 0.92\nsamples = 3\nvalue = [2, 1, 0]\nclass = 0", fillcolor="#e581397f"] ;
663 -> 683 ;
684 [label="entropy = 0.0\nsamples = 1\nvalue = [0, 1, 0]\nclass = 1", fillcolor="#39e581ff"] ;
683 -> 684 ;
685 [label="entropy = 0.0\nsamples = 2\nvalue = [2, 0, 0]\nclass = 0", fillcolor="#e58139ff"] ;
683 -> 685 ;
686 [label="9/1/2019 <= 0.12\nentropy = 0.6\nsamples = 140\nvalue = [34, 200, 0]\nclass = 1", fillcolor="#39e581d4"] ;
662 -> 686 ;
687 [label="11/1/2017 <= 1.43\nentropy = 0.19\nsamples = 77\nvalue = [4, 131, 0]\nclass = 1", fillcolor="#39e581f7"] ;
686 -> 687 ;
688 [label="2/1/2019 <= 0.11\nentropy = 0.07\nsamples = 67\nvalue = [1, 115, 0]\nclass = 1", fillcolor="#39e581fd"] ;
687 -> 688 ;
689 [label="2/1/2017 <= 0.11\nentropy = 0.12\nsamples = 37\nvalue = [1, 63, 0]\nclass = 1", fillcolor="#39e581fb"] ;
688 -> 689 ;
690 [label="entropy = 0.0\nsamples = 28\nvalue = [0, 49, 0]\nclass = 1", fillcolor="#39e581ff"] ;
689 -> 690 ;
691 [label="9/1/2019 <= 0.08\nentropy = 0.35\nsamples = 9\nvalue = [1, 14, 0]\nclass = 1", fillcolor="#39e581ed"] ;
689 -> 691 ;
692 [label="entropy = 0.0\nsamples = 3\nvalue = [0, 6, 0]\nclass = 1", fillcolor="#39e581ff"] ;
691 -> 692 ;
693 [label="43 <= 5.89\nentropy = 0.5\nsamples = 6\nvalue = [1, 8, 0]\nclass = 1", fillcolor="#39e581df"] ;
691 -> 693 ;
694 [label="entropy = 0.0\nsamples = 5\nvalue = [0, 8, 0]\nclass = 1", fillcolor="#39e581ff"] ;
693 -> 694 ;
695 [label="entropy = 0.0\nsamples = 1\nvalue = [1, 0, 0]\nclass = 0", fillcolor="#e58139ff"] ;
693 -> 695 ;
696 [label="entropy = 0.0\nsamples = 30\nvalue = [0, 52, 0]\nclass = 1", fillcolor="#39e581ff"] ;
688 -> 696 ;
697 [label="5/1/2019 <= 0.1\nentropy = 0.63\nsamples = 10\nvalue = [3, 16, 0]\nclass = 1", fillcolor="#39e581cf"] ;
687 -> 697 ;
698 [label="entropy = 0.0\nsamples = 1\nvalue = [3, 0, 0]\nclass = 0", fillcolor="#e58139ff"] ;
697 -> 698 ;
699 [label="entropy = 0.0\nsamples = 9\nvalue = [0, 16, 0]\nclass = 1", fillcolor="#39e581ff"] ;
697 -> 699 ;
700 [label="5/1/2019 <= 0.15\nentropy = 0.88\nsamples = 63\nvalue = [30, 69, 0]\nclass = 1", fillcolor="#39e58190"] ;
686 -> 700 ;
701 [label="31 <= 1.32\nentropy = 0.9\nsamples = 60\nvalue = [30, 65, 0]\nclass = 1", fillcolor="#39e58189"] ;
700 -> 701 ;
702 [label="9/1/2019 <= 0.29\nentropy = 0.86\nsamples = 57\nvalue = [25, 63, 0]\nclass = 1", fillcolor="#39e5819a"] ;
701 -> 702 ;
703 [label="10/1/2017 <= 0.3\nentropy = 0.74\nsamples = 49\nvalue = [16, 60, 0]\nclass = 1", fillcolor="#39e581bb"] ;
702 -> 703 ;
704 [label="entropy = 0.0\nsamples = 10\nvalue = [14, 0, 0]\nclass = 0", fillcolor="#e58139ff"] ;
703 -> 704 ;
705 [label="6/1/2017 <= 0.1\nentropy = 0.21\nsamples = 39\nvalue = [2, 60, 0]\nclass = 1", fillcolor="#39e581f6"] ;
703 -> 705 ;
706 [label="9/1/2017 <= 0.12\nentropy = 1.0\nsamples = 2\nvalue = [1, 1, 0]\nclass = 0", fillcolor="#e5813900"] ;
705 -> 706 ;
707 [label="entropy = 0.0\nsamples = 1\nvalue = [0, 1, 0]\nclass = 1", fillcolor="#39e581ff"] ;
706 -> 707 ;
708 [label="entropy = 0.0\nsamples = 1\nvalue = [1, 0, 0]\nclass = 0", fillcolor="#e58139ff"] ;
706 -> 708 ;
709 [label="11/1/2017 <= 0.93\nentropy = 0.12\nsamples = 37\nvalue = [1, 59, 0]\nclass = 1", fillcolor="#39e581fb"] ;
705 -> 709 ;
710 [label="entropy = 0.0\nsamples = 34\nvalue = [0, 57, 0]\nclass = 1", fillcolor="#39e581ff"] ;
709 -> 710 ;
711 [label="3/1/2017 <= 0.14\nentropy = 0.92\nsamples = 3\nvalue = [1, 2, 0]\nclass = 1", fillcolor="#39e5817f"] ;
709 -> 711 ;
712 [label="entropy = 0.0\nsamples = 1\nvalue = [0, 1, 0]\nclass = 1", fillcolor="#39e581ff"] ;
711 -> 712 ;
713 [label="4/1/2019 <= 0.15\nentropy = 1.0\nsamples = 2\nvalue = [1, 1, 0]\nclass = 0", fillcolor="#e5813900"] ;
711 -> 713 ;
714 [label="entropy = 0.0\nsamples = 1\nvalue = [1, 0, 0]\nclass = 0", fillcolor="#e58139ff"] ;
713 -> 714 ;
715 [label="entropy = 0.0\nsamples = 1\nvalue = [0, 1, 0]\nclass = 1", fillcolor="#39e581ff"] ;
713 -> 715 ;
716 [label="37 <= 1.41\nentropy = 0.81\nsamples = 8\nvalue = [9, 3, 0]\nclass = 0", fillcolor="#e58139aa"] ;
702 -> 716 ;
717 [label="9/1/2019 <= 0.31\nentropy = 0.68\nsamples = 7\nvalue = [9, 2, 0]\nclass = 0", fillcolor="#e58139c6"] ;
716 -> 717 ;
718 [label="entropy = 0.0\nsamples = 3\nvalue = [7, 0, 0]\nclass = 0", fillcolor="#e58139ff"] ;
717 -> 718 ;
719 [label="6/1/2019 <= 0.12\nentropy = 1.0\nsamples = 4\nvalue = [2, 2, 0]\nclass = 0", fillcolor="#e5813900"] ;
717 -> 719 ;
720 [label="entropy = 0.0\nsamples = 1\nvalue = [1, 0, 0]\nclass = 0", fillcolor="#e58139ff"] ;
719 -> 720 ;
721 [label="7/1/2017 <= 0.12\nentropy = 0.92\nsamples = 3\nvalue = [1, 2, 0]\nclass = 1", fillcolor="#39e5817f"] ;
719 -> 721 ;
722 [label="entropy = 0.0\nsamples = 1\nvalue = [0, 1, 0]\nclass = 1", fillcolor="#39e581ff"] ;
721 -> 722 ;
723 [label="3/1/2017 <= 0.13\nentropy = 1.0\nsamples = 2\nvalue = [1, 1, 0]\nclass = 0", fillcolor="#e5813900"] ;
721 -> 723 ;
724 [label="entropy = 0.0\nsamples = 1\nvalue = [1, 0, 0]\nclass = 0", fillcolor="#e58139ff"] ;
723 -> 724 ;
725 [label="entropy = 0.0\nsamples = 1\nvalue = [0, 1, 0]\nclass = 1", fillcolor="#39e581ff"] ;
723 -> 725 ;
726 [label="entropy = 0.0\nsamples = 1\nvalue = [0, 1, 0]\nclass = 1", fillcolor="#39e581ff"] ;
716 -> 726 ;
727 [label="4/1/2017 <= 0.14\nentropy = 0.86\nsamples = 3\nvalue = [5, 2, 0]\nclass = 0", fillcolor="#e5813999"] ;
701 -> 727 ;
728 [label="entropy = 0.0\nsamples = 2\nvalue = [5, 0, 0]\nclass = 0", fillcolor="#e58139ff"] ;
727 -> 728 ;
729 [label="entropy = 0.0\nsamples = 1\nvalue = [0, 2, 0]\nclass = 1", fillcolor="#39e581ff"] ;
727 -> 729 ;
730 [label="entropy = 0.0\nsamples = 3\nvalue = [0, 4, 0]\nclass = 1", fillcolor="#39e581ff"] ;
700 -> 730 ;
731 [label="5/1/2017 <= 0.11\nentropy = 0.92\nsamples = 8\nvalue = [8, 4, 0]\nclass = 0", fillcolor="#e581397f"] ;
661 -> 731 ;
732 [label="entropy = 0.0\nsamples = 1\nvalue = [0, 2, 0]\nclass = 1", fillcolor="#39e581ff"] ;
731 -> 732 ;
733 [label="3/1/2017 <= 0.15\nentropy = 0.72\nsamples = 7\nvalue = [8, 2, 0]\nclass = 0", fillcolor="#e58139bf"] ;
731 -> 733 ;
734 [label="2/1/2019 <= 0.15\nentropy = 0.92\nsamples = 4\nvalue = [4, 2, 0]\nclass = 0", fillcolor="#e581397f"] ;
733 -> 734 ;
735 [label="entropy = 0.0\nsamples = 1\nvalue = [1, 0, 0]\nclass = 0", fillcolor="#e58139ff"] ;
734 -> 735 ;
736 [label="10/1/2017 <= 0.37\nentropy = 0.97\nsamples = 3\nvalue = [3, 2, 0]\nclass = 0", fillcolor="#e5813955"] ;
734 -> 736 ;
737 [label="entropy = 0.0\nsamples = 1\nvalue = [3, 0, 0]\nclass = 0", fillcolor="#e58139ff"] ;
736 -> 737 ;
738 [label="entropy = 0.0\nsamples = 2\nvalue = [0, 2, 0]\nclass = 1", fillcolor="#39e581ff"] ;
736 -> 738 ;
739 [label="entropy = 0.0\nsamples = 3\nvalue = [4, 0, 0]\nclass = 0", fillcolor="#e58139ff"] ;
733 -> 739 ;
740 [label="4/1/2017 <= 0.17\nentropy = 0.35\nsamples = 39\nvalue = [4, 56, 0]\nclass = 1", fillcolor="#39e581ed"] ;
660 -> 740 ;
741 [label="entropy = 0.0\nsamples = 20\nvalue = [0, 30, 0]\nclass = 1", fillcolor="#39e581ff"] ;
740 -> 741 ;
742 [label="1/1/2019 <= 0.17\nentropy = 0.57\nsamples = 19\nvalue = [4, 26, 0]\nclass = 1", fillcolor="#39e581d8"] ;
740 -> 742 ;
743 [label="29 <= 1.35\nentropy = 0.92\nsamples = 3\nvalue = [2, 1, 0]\nclass = 0", fillcolor="#e581397f"] ;
742 -> 743 ;
744 [label="entropy = 0.0\nsamples = 1\nvalue = [1, 0, 0]\nclass = 0", fillcolor="#e58139ff"] ;
743 -> 744 ;
745 [label="7/1/2017 <= 0.25\nentropy = 1.0\nsamples = 2\nvalue = [1, 1, 0]\nclass = 0", fillcolor="#e5813900"] ;
743 -> 745 ;
746 [label="entropy = 0.0\nsamples = 1\nvalue = [0, 1, 0]\nclass = 1", fillcolor="#39e581ff"] ;
745 -> 746 ;
747 [label="entropy = 0.0\nsamples = 1\nvalue = [1, 0, 0]\nclass = 0", fillcolor="#e58139ff"] ;
745 -> 747 ;
748 [label="9/1/2019 <= 0.27\nentropy = 0.38\nsamples = 16\nvalue = [2, 25, 0]\nclass = 1", fillcolor="#39e581eb"] ;
742 -> 748 ;
749 [label="entropy = 0.0\nsamples = 13\nvalue = [0, 23, 0]\nclass = 1", fillcolor="#39e581ff"] ;
748 -> 749 ;
750 [label="5/1/2019 <= 0.17\nentropy = 1.0\nsamples = 3\nvalue = [2, 2, 0]\nclass = 0", fillcolor="#e5813900"] ;
748 -> 750 ;
751 [label="entropy = 0.0\nsamples = 1\nvalue = [2, 0, 0]\nclass = 0", fillcolor="#e58139ff"] ;
750 -> 751 ;
752 [label="entropy = 0.0\nsamples = 2\nvalue = [0, 2, 0]\nclass = 1", fillcolor="#39e581ff"] ;
750 -> 752 ;
753 [label="35 <= 1.46\nentropy = 0.63\nsamples = 87\nvalue = [20, 125, 1]\nclass = 1", fillcolor="#39e581d4"] ;
633 -> 753 ;
754 [label="8/1/2017 <= 0.03\nentropy = 0.62\nsamples = 86\nvalue = [19, 125, 1]\nclass = 1", fillcolor="#39e581d7"] ;
753 -> 754 ;
755 [label="entropy = 0.0\nsamples = 1\nvalue = [0, 0, 1]\nclass = 2", fillcolor="#8139e5ff"] ;
754 -> 755 ;
756 [label="10/1/2017 <= 0.3\nentropy = 0.56\nsamples = 85\nvalue = [19, 125, 0]\nclass = 1", fillcolor="#39e581d8"] ;
754 -> 756 ;
757 [label="entropy = 0.0\nsamples = 13\nvalue = [18, 0, 0]\nclass = 0", fillcolor="#e58139ff"] ;
756 -> 757 ;
758 [label="8/1/2017 <= 0.1\nentropy = 0.07\nsamples = 72\nvalue = [1, 125, 0]\nclass = 1", fillcolor="#39e581fd"] ;
756 -> 758 ;
759 [label="9/1/2017 <= 0.1\nentropy = 0.15\nsamples = 27\nvalue = [1, 47, 0]\nclass = 1", fillcolor="#39e581fa"] ;
758 -> 759 ;
760 [label="entropy = 0.0\nsamples = 25\nvalue = [0, 46, 0]\nclass = 1", fillcolor="#39e581ff"] ;
759 -> 760 ;
761 [label="6/1/2019 <= 0.1\nentropy = 1.0\nsamples = 2\nvalue = [1, 1, 0]\nclass = 0", fillcolor="#e5813900"] ;
759 -> 761 ;
762 [label="entropy = 0.0\nsamples = 1\nvalue = [0, 1, 0]\nclass = 1", fillcolor="#39e581ff"] ;
761 -> 762 ;
763 [label="entropy = 0.0\nsamples = 1\nvalue = [1, 0, 0]\nclass = 0", fillcolor="#e58139ff"] ;
761 -> 763 ;
764 [label="entropy = 0.0\nsamples = 45\nvalue = [0, 78, 0]\nclass = 1", fillcolor="#39e581ff"] ;
758 -> 764 ;
765 [label="entropy = 0.0\nsamples = 1\nvalue = [1, 0, 0]\nclass = 0", fillcolor="#e58139ff"] ;
753 -> 765 ;
766 [label="entropy = 0.0\nsamples = 10\nvalue = [14, 0, 0]\nclass = 0", fillcolor="#e58139ff"] ;
630 -> 766 ;
767 [label="7/1/2017 <= 0.18\nentropy = 0.76\nsamples = 5\nvalue = [7, 2, 0]\nclass = 0", fillcolor="#e58139b6"] ;
629 -> 767 ;
768 [label="entropy = 0.0\nsamples = 2\nvalue = [5, 0, 0]\nclass = 0", fillcolor="#e58139ff"] ;
767 -> 768 ;
769 [label="31 <= 1.32\nentropy = 1.0\nsamples = 3\nvalue = [2, 2, 0]\nclass = 0", fillcolor="#e5813900"] ;
767 -> 769 ;
770 [label="entropy = 0.0\nsamples = 2\nvalue = [0, 2, 0]\nclass = 1", fillcolor="#39e581ff"] ;
769 -> 770 ;
771 [label="entropy = 0.0\nsamples = 1\nvalue = [2, 0, 0]\nclass = 0", fillcolor="#e58139ff"] ;
769 -> 771 ;
772 [label="8/1/2019 <= 0.06\nentropy = 0.86\nsamples = 170\nvalue = [28, 216, 20]\nclass = 1", fillcolor="#39e581cb"] ;
568 -> 772 ;
773 [label="9/1/2019 <= 0.42\nentropy = 1.34\nsamples = 14\nvalue = [8, 11, 2]\nclass = 1", fillcolor="#39e5813b"] ;
772 -> 773 ;
774 [label="5 <= 8.92\nentropy = 0.96\nsamples = 12\nvalue = [7, 11, 0]\nclass = 1", fillcolor="#39e5815d"] ;
773 -> 774 ;
775 [label="10/1/2017 <= 0.78\nentropy = 1.0\nsamples = 11\nvalue = [7, 8, 0]\nclass = 1", fillcolor="#39e58120"] ;
774 -> 775 ;
776 [label="2/1/2017 <= 0.22\nentropy = 0.81\nsamples = 5\nvalue = [6, 2, 0]\nclass = 0", fillcolor="#e58139aa"] ;
775 -> 776 ;
777 [label="11/1/2017 <= 1.45\nentropy = 0.92\nsamples = 3\nvalue = [4, 2, 0]\nclass = 0", fillcolor="#e581397f"] ;
776 -> 777 ;
778 [label="56 <= 2.42\nentropy = 0.72\nsamples = 2\nvalue = [4, 1, 0]\nclass = 0", fillcolor="#e58139bf"] ;
777 -> 778 ;
779 [label="entropy = 0.0\nsamples = 1\nvalue = [4, 0, 0]\nclass = 0", fillcolor="#e58139ff"] ;
778 -> 779 ;
780 [label="entropy = 0.0\nsamples = 1\nvalue = [0, 1, 0]\nclass = 1", fillcolor="#39e581ff"] ;
778 -> 780 ;
781 [label="entropy = 0.0\nsamples = 1\nvalue = [0, 1, 0]\nclass = 1", fillcolor="#39e581ff"] ;
777 -> 781 ;
782 [label="entropy = 0.0\nsamples = 2\nvalue = [2, 0, 0]\nclass = 0", fillcolor="#e58139ff"] ;
776 -> 782 ;
783 [label="9/1/2019 <= 0.2\nentropy = 0.59\nsamples = 6\nvalue = [1, 6, 0]\nclass = 1", fillcolor="#39e581d4"] ;
775 -> 783 ;
784 [label="43 <= 5.89\nentropy = 0.92\nsamples = 2\nvalue = [1, 2, 0]\nclass = 1", fillcolor="#39e5817f"] ;
783 -> 784 ;
785 [label="entropy = 0.0\nsamples = 1\nvalue = [0, 2, 0]\nclass = 1", fillcolor="#39e581ff"] ;
784 -> 785 ;
786 [label="entropy = 0.0\nsamples = 1\nvalue = [1, 0, 0]\nclass = 0", fillcolor="#e58139ff"] ;
784 -> 786 ;
787 [label="entropy = 0.0\nsamples = 4\nvalue = [0, 4, 0]\nclass = 1", fillcolor="#39e581ff"] ;
783 -> 787 ;
788 [label="entropy = 0.0\nsamples = 1\nvalue = [0, 3, 0]\nclass = 1", fillcolor="#39e581ff"] ;
774 -> 788 ;
789 [label="9/1/2019 <= 0.46\nentropy = 0.92\nsamples = 2\nvalue = [1, 0, 2]\nclass = 2", fillcolor="#8139e57f"] ;
773 -> 789 ;
790 [label="entropy = 0.0\nsamples = 1\nvalue = [0, 0, 2]\nclass = 2", fillcolor="#8139e5ff"] ;
789 -> 790 ;
791 [label="entropy = 0.0\nsamples = 1\nvalue = [1, 0, 0]\nclass = 0", fillcolor="#e58139ff"] ;
789 -> 791 ;
792 [label="43 <= 5.89\nentropy = 0.78\nsamples = 156\nvalue = [20, 205, 18]\nclass = 1", fillcolor="#39e581d4"] ;
772 -> 792 ;
793 [label="9/1/2017 <= 0.21\nentropy = 0.73\nsamples = 150\nvalue = [15, 200, 18]\nclass = 1", fillcolor="#39e581d8"] ;
792 -> 793 ;
794 [label="6/1/2017 <= 0.26\nentropy = 0.31\nsamples = 43\nvalue = [2, 62, 1]\nclass = 1", fillcolor="#39e581f3"] ;
793 -> 794 ;
795 [label="8/1/2019 <= 0.06\nentropy = 0.23\nsamples = 42\nvalue = [1, 62, 1]\nclass = 1", fillcolor="#39e581f7"] ;
794 -> 795 ;
796 [label="6/1/2019 <= 0.19\nentropy = 0.32\nsamples = 11\nvalue = [1, 16, 0]\nclass = 1", fillcolor="#39e581ef"] ;
795 -> 796 ;
797 [label="entropy = 0.0\nsamples = 6\nvalue = [0, 11, 0]\nclass = 1", fillcolor="#39e581ff"] ;
796 -> 797 ;
798 [label="29 <= 1.35\nentropy = 0.65\nsamples = 5\nvalue = [1, 5, 0]\nclass = 1", fillcolor="#39e581cc"] ;
796 -> 798 ;
799 [label="11/1/2017 <= 0.62\nentropy = 0.72\nsamples = 4\nvalue = [1, 4, 0]\nclass = 1", fillcolor="#39e581bf"] ;
798 -> 799 ;
800 [label="entropy = 0.0\nsamples = 1\nvalue = [0, 1, 0]\nclass = 1", fillcolor="#39e581ff"] ;
799 -> 800 ;
801 [label="41 <= 1.32\nentropy = 0.81\nsamples = 3\nvalue = [1, 3, 0]\nclass = 1", fillcolor="#39e581aa"] ;
799 -> 801 ;
802 [label="entropy = 0.0\nsamples = 1\nvalue = [1, 0, 0]\nclass = 0", fillcolor="#e58139ff"] ;
801 -> 802 ;
803 [label="entropy = 0.0\nsamples = 2\nvalue = [0, 3, 0]\nclass = 1", fillcolor="#39e581ff"] ;
801 -> 803 ;
804 [label="entropy = 0.0\nsamples = 1\nvalue = [0, 1, 0]\nclass = 1", fillcolor="#39e581ff"] ;
798 -> 804 ;
805 [label="6/1/2017 <= 0.2\nentropy = 0.15\nsamples = 31\nvalue = [0, 46, 1]\nclass = 1", fillcolor="#39e581f9"] ;
795 -> 805 ;
806 [label="27 <= 1.33\nentropy = 0.34\nsamples = 11\nvalue = [0, 15, 1]\nclass = 1", fillcolor="#39e581ee"] ;
805 -> 806 ;
807 [label="entropy = 0.0\nsamples = 10\nvalue = [0, 15, 0]\nclass = 1", fillcolor="#39e581ff"] ;
806 -> 807 ;
808 [label="entropy = 0.0\nsamples = 1\nvalue = [0, 0, 1]\nclass = 2", fillcolor="#8139e5ff"] ;
806 -> 808 ;
809 [label="entropy = 0.0\nsamples = 20\nvalue = [0, 31, 0]\nclass = 1", fillcolor="#39e581ff"] ;
805 -> 809 ;
810 [label="entropy = 0.0\nsamples = 1\nvalue = [1, 0, 0]\nclass = 0", fillcolor="#e58139ff"] ;
794 -> 810 ;
811 [label="4/1/2017 <= 0.22\nentropy = 0.85\nsamples = 107\nvalue = [13, 138, 17]\nclass = 1", fillcolor="#39e581cc"] ;
793 -> 811 ;
812 [label="2/1/2019 <= 0.2\nentropy = 0.92\nsamples = 3\nvalue = [1, 0, 2]\nclass = 2", fillcolor="#8139e57f"] ;
811 -> 812 ;
813 [label="entropy = 0.0\nsamples = 1\nvalue = [1, 0, 0]\nclass = 0", fillcolor="#e58139ff"] ;
812 -> 813 ;
814 [label="entropy = 0.0\nsamples = 2\nvalue = [0, 0, 2]\nclass = 2", fillcolor="#8139e5ff"] ;
812 -> 814 ;
815 [label="6/1/2017 <= 0.26\nentropy = 0.81\nsamples = 104\nvalue = [12, 138, 15]\nclass = 1", fillcolor="#39e581d1"] ;
811 -> 815 ;
816 [label="8/1/2019 <= 0.07\nentropy = 0.94\nsamples = 74\nvalue = [11, 96, 14]\nclass = 1", fillcolor="#39e581c3"] ;
815 -> 816 ;
817 [label="5/1/2019 <= 0.22\nentropy = 1.3\nsamples = 20\nvalue = [8, 20, 4]\nclass = 1", fillcolor="#39e58180"] ;
816 -> 817 ;
818 [label="9/1/2017 <= 0.22\nentropy = 1.08\nsamples = 18\nvalue = [3, 20, 4]\nclass = 1", fillcolor="#39e581b1"] ;
817 -> 818 ;
819 [label="9/1/2017 <= 0.22\nentropy = 0.95\nsamples = 7\nvalue = [0, 7, 4]\nclass = 1", fillcolor="#39e5816d"] ;
818 -> 819 ;
820 [label="4/1/2019 <= 0.22\nentropy = 0.76\nsamples = 6\nvalue = [0, 7, 2]\nclass = 1", fillcolor="#39e581b6"] ;
819 -> 820 ;
821 [label="9/1/2019 <= 0.37\nentropy = 0.86\nsamples = 4\nvalue = [0, 5, 2]\nclass = 1", fillcolor="#39e58199"] ;
820 -> 821 ;
822 [label="entropy = 0.0\nsamples = 3\nvalue = [0, 5, 0]\nclass = 1", fillcolor="#39e581ff"] ;
821 -> 822 ;
823 [label="entropy = 0.0\nsamples = 1\nvalue = [0, 0, 2]\nclass = 2", fillcolor="#8139e5ff"] ;
821 -> 823 ;
824 [label="entropy = 0.0\nsamples = 2\nvalue = [0, 2, 0]\nclass = 1", fillcolor="#39e581ff"] ;
820 -> 824 ;
825 [label="entropy = 0.0\nsamples = 1\nvalue = [0, 0, 2]\nclass = 2", fillcolor="#8139e5ff"] ;
819 -> 825 ;
826 [label="5/1/2019 <= 0.22\nentropy = 0.7\nsamples = 11\nvalue = [3, 13, 0]\nclass = 1", fillcolor="#39e581c4"] ;
818 -> 826 ;
827 [label="9/1/2017 <= 0.22\nentropy = 0.85\nsamples = 7\nvalue = [3, 8, 0]\nclass = 1", fillcolor="#39e5819f"] ;
826 -> 827 ;
828 [label="8/1/2017 <= 0.23\nentropy = 0.95\nsamples = 6\nvalue = [3, 5, 0]\nclass = 1", fillcolor="#39e58166"] ;
827 -> 828 ;
829 [label="52 <= -0.41\nentropy = 0.99\nsamples = 5\nvalue = [3, 4, 0]\nclass = 1", fillcolor="#39e58140"] ;
828 -> 829 ;
830 [label="entropy = 0.0\nsamples = 2\nvalue = [0, 2, 0]\nclass = 1", fillcolor="#39e581ff"] ;
829 -> 830 ;
831 [label="37 <= 1.41\nentropy = 0.97\nsamples = 3\nvalue = [3, 2, 0]\nclass = 0", fillcolor="#e5813955"] ;
829 -> 831 ;
832 [label="entropy = 0.0\nsamples = 1\nvalue = [0, 2, 0]\nclass = 1", fillcolor="#39e581ff"] ;
831 -> 832 ;
833 [label="entropy = 0.0\nsamples = 2\nvalue = [3, 0, 0]\nclass = 0", fillcolor="#e58139ff"] ;
831 -> 833 ;
834 [label="entropy = 0.0\nsamples = 1\nvalue = [0, 1, 0]\nclass = 1", fillcolor="#39e581ff"] ;
828 -> 834 ;
835 [label="entropy = 0.0\nsamples = 1\nvalue = [0, 3, 0]\nclass = 1", fillcolor="#39e581ff"] ;
827 -> 835 ;
836 [label="entropy = 0.0\nsamples = 4\nvalue = [0, 5, 0]\nclass = 1", fillcolor="#39e581ff"] ;
826 -> 836 ;
837 [label="entropy = 0.0\nsamples = 2\nvalue = [5, 0, 0]\nclass = 0", fillcolor="#e58139ff"] ;
817 -> 837 ;
838 [label="2/1/2019 <= 0.25\nentropy = 0.71\nsamples = 54\nvalue = [3, 76, 10]\nclass = 1", fillcolor="#39e581d5"] ;
816 -> 838 ;
839 [label="6/1/2019 <= 0.23\nentropy = 0.4\nsamples = 27\nvalue = [1, 44, 2]\nclass = 1", fillcolor="#39e581ee"] ;
838 -> 839 ;
840 [label="8/1/2019 <= 0.07\nentropy = 0.95\nsamples = 6\nvalue = [1, 11, 2]\nclass = 1", fillcolor="#39e581bf"] ;
