digraph Tree {
node [shape=box, style="filled, rounded", color="black", fontname=helvetica] ;
edge [fontname=helvetica] ;
0 [label="3/1/2019 <= 0.04\nentropy = 0.61\nsamples = 10810\nvalue = [14944, 1784, 288]\nclass = 0", fillcolor="#e58139dc"] ;
1 [label="8/1/2019 <= -0.01\nentropy = 0.14\nsamples = 9231\nvalue = [14240, 285, 0]\nclass = 0", fillcolor="#e58139fa"] ;
0 -> 1 [labeldistance=2.5, labelangle=45, headlabel="True"] ;
2 [label="5/1/2019 <= -0.03\nentropy = 0.05\nsamples = 8356\nvalue = [13033, 82, 0]\nclass = 0", fillcolor="#e58139fd"] ;
1 -> 2 ;
3 [label="6/1/2019 <= -0.07\nentropy = 0.04\nsamples = 7363\nvalue = [11540, 44, 0]\nclass = 0", fillcolor="#e58139fe"] ;
2 -> 3 ;
4 [label="entropy = 0.0\nsamples = 1594\nvalue = [2520, 0, 0]\nclass = 0", fillcolor="#e58139ff"] ;
3 -> 4 ;
5 [label="9/1/2019 <= -0.04\nentropy = 0.04\nsamples = 5769\nvalue = [9020, 44, 0]\nclass = 0", fillcolor="#e58139fe"] ;
3 -> 5 ;
6 [label="4/1/2019 <= -0.06\nentropy = 0.07\nsamples = 3224\nvalue = [4973, 41, 0]\nclass = 0", fillcolor="#e58139fd"] ;
5 -> 6 ;
7 [label="21 <= 6.31\nentropy = 0.03\nsamples = 1962\nvalue = [3015, 8, 0]\nclass = 0", fillcolor="#e58139fe"] ;
6 -> 7 ;
8 [label="5/1/2019 <= -0.07\nentropy = 0.02\nsamples = 1941\nvalue = [2985, 6, 0]\nclass = 0", fillcolor="#e58139fe"] ;
7 -> 8 ;
9 [label="9/1/2019 <= -0.06\nentropy = 0.09\nsamples = 296\nvalue = [461, 5, 0]\nclass = 0", fillcolor="#e58139fc"] ;
8 -> 9 ;
10 [label="entropy = 0.0\nsamples = 131\nvalue = [203, 0, 0]\nclass = 0", fillcolor="#e58139ff"] ;
9 -> 10 ;
11 [label="11/1/2017 <= -0.4\nentropy = 0.14\nsamples = 165\nvalue = [258, 5, 0]\nclass = 0", fillcolor="#e58139fa"] ;
9 -> 11 ;
12 [label="entropy = 0.0\nsamples = 37\nvalue = [58, 0, 0]\nclass = 0", fillcolor="#e58139ff"] ;
11 -> 12 ;
13 [label="9/1/2019 <= -0.06\nentropy = 0.17\nsamples = 128\nvalue = [200, 5, 0]\nclass = 0", fillcolor="#e58139f9"] ;
11 -> 13 ;
14 [label="37 <= 1.41\nentropy = 0.23\nsamples = 85\nvalue = [127, 5, 0]\nclass = 0", fillcolor="#e58139f5"] ;
13 -> 14 ;
15 [label="8/1/2017 <= -0.07\nentropy = 0.25\nsamples = 77\nvalue = [115, 5, 0]\nclass = 0", fillcolor="#e58139f4"] ;
14 -> 15 ;
16 [label="27 <= 1.33\nentropy = 0.26\nsamples = 73\nvalue = [109, 5, 0]\nclass = 0", fillcolor="#e58139f3"] ;
15 -> 16 ;
17 [label="58 <= 0.69\nentropy = 0.3\nsamples = 59\nvalue = [89, 5, 0]\nclass = 0", fillcolor="#e58139f1"] ;
16 -> 17 ;
18 [label="54 <= 5.84\nentropy = 0.34\nsamples = 49\nvalue = [75, 5, 0]\nclass = 0", fillcolor="#e58139ee"] ;
17 -> 18 ;
19 [label="31 <= 1.32\nentropy = 0.35\nsamples = 47\nvalue = [71, 5, 0]\nclass = 0", fillcolor="#e58139ed"] ;
18 -> 19 ;
20 [label="41 <= 1.32\nentropy = 0.4\nsamples = 39\nvalue = [59, 5, 0]\nclass = 0", fillcolor="#e58139e9"] ;
19 -> 20 ;
21 [label="8/1/2019 <= -0.03\nentropy = 0.46\nsamples = 33\nvalue = [46, 5, 0]\nclass = 0", fillcolor="#e58139e3"] ;
20 -> 21 ;
22 [label="8/1/2019 <= -0.03\nentropy = 0.86\nsamples = 3\nvalue = [2, 5, 0]\nclass = 1", fillcolor="#39e58199"] ;
21 -> 22 ;
23 [label="entropy = 0.0\nsamples = 2\nvalue = [2, 0, 0]\nclass = 0", fillcolor="#e58139ff"] ;
22 -> 23 ;
24 [label="entropy = 0.0\nsamples = 1\nvalue = [0, 5, 0]\nclass = 1", fillcolor="#39e581ff"] ;
22 -> 24 ;
25 [label="entropy = 0.0\nsamples = 30\nvalue = [44, 0, 0]\nclass = 0", fillcolor="#e58139ff"] ;
21 -> 25 ;
26 [label="entropy = 0.0\nsamples = 6\nvalue = [13, 0, 0]\nclass = 0", fillcolor="#e58139ff"] ;
20 -> 26 ;
27 [label="entropy = 0.0\nsamples = 8\nvalue = [12, 0, 0]\nclass = 0", fillcolor="#e58139ff"] ;
19 -> 27 ;
28 [label="entropy = 0.0\nsamples = 2\nvalue = [4, 0, 0]\nclass = 0", fillcolor="#e58139ff"] ;
18 -> 28 ;
29 [label="entropy = 0.0\nsamples = 10\nvalue = [14, 0, 0]\nclass = 0", fillcolor="#e58139ff"] ;
17 -> 29 ;
30 [label="entropy = 0.0\nsamples = 14\nvalue = [20, 0, 0]\nclass = 0", fillcolor="#e58139ff"] ;
16 -> 30 ;
31 [label="entropy = 0.0\nsamples = 4\nvalue = [6, 0, 0]\nclass = 0", fillcolor="#e58139ff"] ;
15 -> 31 ;
32 [label="entropy = 0.0\nsamples = 8\nvalue = [12, 0, 0]\nclass = 0", fillcolor="#e58139ff"] ;
14 -> 32 ;
33 [label="entropy = 0.0\nsamples = 43\nvalue = [73, 0, 0]\nclass = 0", fillcolor="#e58139ff"] ;
13 -> 33 ;
34 [label="3/1/2019 <= -0.06\nentropy = 0.01\nsamples = 1645\nvalue = [2524, 1, 0]\nclass = 0", fillcolor="#e58139ff"] ;
8 -> 34 ;
35 [label="entropy = 0.0\nsamples = 1363\nvalue = [2074, 0, 0]\nclass = 0", fillcolor="#e58139ff"] ;
34 -> 35 ;
36 [label="3/1/2017 <= -0.06\nentropy = 0.02\nsamples = 282\nvalue = [450, 1, 0]\nclass = 0", fillcolor="#e58139fe"] ;
34 -> 36 ;
37 [label="38 <= 4.07\nentropy = 0.03\nsamples = 212\nvalue = [341, 1, 0]\nclass = 0", fillcolor="#e58139fe"] ;
36 -> 37 ;
38 [label="10/1/2017 <= -0.28\nentropy = 0.03\nsamples = 211\nvalue = [340, 1, 0]\nclass = 0", fillcolor="#e58139fe"] ;
37 -> 38 ;
39 [label="entropy = 0.0\nsamples = 77\nvalue = [126, 0, 0]\nclass = 0", fillcolor="#e58139ff"] ;
38 -> 39 ;
40 [label="35 <= 1.46\nentropy = 0.04\nsamples = 134\nvalue = [214, 1, 0]\nclass = 0", fillcolor="#e58139fe"] ;
38 -> 40 ;
41 [label="52 <= -0.41\nentropy = 0.05\nsamples = 120\nvalue = [190, 1, 0]\nclass = 0", fillcolor="#e58139fe"] ;
40 -> 41 ;
42 [label="entropy = 0.0\nsamples = 38\nvalue = [65, 0, 0]\nclass = 0", fillcolor="#e58139ff"] ;
41 -> 42 ;
43 [label="11 <= 20.61\nentropy = 0.07\nsamples = 82\nvalue = [125, 1, 0]\nclass = 0", fillcolor="#e58139fd"] ;
41 -> 43 ;
44 [label="entropy = 0.0\nsamples = 81\nvalue = [125, 0, 0]\nclass = 0", fillcolor="#e58139ff"] ;
43 -> 44 ;
45 [label="entropy = 0.0\nsamples = 1\nvalue = [0, 1, 0]\nclass = 1", fillcolor="#39e581ff"] ;
43 -> 45 ;
46 [label="entropy = 0.0\nsamples = 14\nvalue = [24, 0, 0]\nclass = 0", fillcolor="#e58139ff"] ;
40 -> 46 ;
47 [label="entropy = 0.0\nsamples = 1\nvalue = [1, 0, 0]\nclass = 0", fillcolor="#e58139ff"] ;
37 -> 47 ;
48 [label="entropy = 0.0\nsamples = 70\nvalue = [109, 0, 0]\nclass = 0", fillcolor="#e58139ff"] ;
36 -> 48 ;
49 [label="4/1/2017 <= -0.06\nentropy = 0.34\nsamples = 21\nvalue = [30, 2, 0]\nclass = 0", fillcolor="#e58139ee"] ;
7 -> 49 ;
50 [label="entropy = 0.0\nsamples = 18\nvalue = [28, 0, 0]\nclass = 0", fillcolor="#e58139ff"] ;
49 -> 50 ;
51 [label="52 <= -0.41\nentropy = 1.0\nsamples = 3\nvalue = [2, 2, 0]\nclass = 0", fillcolor="#e5813900"] ;
49 -> 51 ;
52 [label="entropy = 0.0\nsamples = 1\nvalue = [1, 0, 0]\nclass = 0", fillcolor="#e58139ff"] ;
51 -> 52 ;
53 [label="11/1/2017 <= -0.22\nentropy = 0.92\nsamples = 2\nvalue = [1, 2, 0]\nclass = 1", fillcolor="#39e5817f"] ;
51 -> 53 ;
54 [label="entropy = 0.0\nsamples = 1\nvalue = [0, 2, 0]\nclass = 1", fillcolor="#39e581ff"] ;
53 -> 54 ;
55 [label="entropy = 0.0\nsamples = 1\nvalue = [1, 0, 0]\nclass = 0", fillcolor="#e58139ff"] ;
53 -> 55 ;
56 [label="19 <= 8.04\nentropy = 0.12\nsamples = 1262\nvalue = [1958, 33, 0]\nclass = 0", fillcolor="#e58139fb"] ;
6 -> 56 ;
57 [label="6/1/2017 <= -0.07\nentropy = 0.08\nsamples = 1257\nvalue = [1958, 21, 0]\nclass = 0", fillcolor="#e58139fc"] ;
56 -> 57 ;
58 [label="11 <= 20.61\nentropy = 0.97\nsamples = 3\nvalue = [2, 3, 0]\nclass = 1", fillcolor="#39e58155"] ;
57 -> 58 ;
59 [label="entropy = 0.0\nsamples = 2\nvalue = [2, 0, 0]\nclass = 0", fillcolor="#e58139ff"] ;
58 -> 59 ;
60 [label="entropy = 0.0\nsamples = 1\nvalue = [0, 3, 0]\nclass = 1", fillcolor="#39e581ff"] ;
58 -> 60 ;
61 [label="33 <= 1.35\nentropy = 0.07\nsamples = 1254\nvalue = [1956, 18, 0]\nclass = 0", fillcolor="#e58139fd"] ;
57 -> 61 ;
62 [label="6/1/2019 <= -0.05\nentropy = 0.08\nsamples = 1112\nvalue = [1729, 18, 0]\nclass = 0", fillcolor="#e58139fc"] ;
61 -> 62 ;
63 [label="5/1/2017 <= -0.06\nentropy = 0.05\nsamples = 530\nvalue = [801, 4, 0]\nclass = 0", fillcolor="#e58139fe"] ;
62 -> 63 ;
64 [label="9/1/2019 <= -0.05\nentropy = 0.08\nsamples = 277\nvalue = [415, 4, 0]\nclass = 0", fillcolor="#e58139fd"] ;
63 -> 64 ;
65 [label="11/1/2017 <= -0.3\nentropy = 0.1\nsamples = 209\nvalue = [316, 4, 0]\nclass = 0", fillcolor="#e58139fc"] ;
64 -> 65 ;
66 [label="4/1/2019 <= -0.06\nentropy = 0.14\nsamples = 130\nvalue = [201, 4, 0]\nclass = 0", fillcolor="#e58139fa"] ;
65 -> 66 ;
67 [label="38 <= 4.07\nentropy = 0.14\nsamples = 124\nvalue = [192, 4, 0]\nclass = 0", fillcolor="#e58139fa"] ;
66 -> 67 ;
68 [label="35 <= 1.46\nentropy = 0.15\nsamples = 121\nvalue = [187, 4, 0]\nclass = 0", fillcolor="#e58139fa"] ;
67 -> 68 ;
69 [label="4/1/2019 <= -0.06\nentropy = 0.17\nsamples = 101\nvalue = [159, 4, 0]\nclass = 0", fillcolor="#e58139f9"] ;
68 -> 69 ;
70 [label="21 <= 6.31\nentropy = 0.15\nsamples = 85\nvalue = [134, 3, 0]\nclass = 0", fillcolor="#e58139f9"] ;
69 -> 70 ;
71 [label="entropy = 0.0\nsamples = 83\nvalue = [134, 0, 0]\nclass = 0", fillcolor="#e58139ff"] ;
70 -> 71 ;
72 [label="entropy = 0.0\nsamples = 2\nvalue = [0, 3, 0]\nclass = 1", fillcolor="#39e581ff"] ;
70 -> 72 ;
73 [label="26 <= 4.03\nentropy = 0.24\nsamples = 16\nvalue = [25, 1, 0]\nclass = 0", fillcolor="#e58139f5"] ;
69 -> 73 ;
74 [label="10/1/2017 <= -0.16\nentropy = 0.27\nsamples = 14\nvalue = [21, 1, 0]\nclass = 0", fillcolor="#e58139f3"] ;
73 -> 74 ;
75 [label="entropy = 0.0\nsamples = 10\nvalue = [16, 0, 0]\nclass = 0", fillcolor="#e58139ff"] ;
74 -> 75 ;
76 [label="39 <= 1.31\nentropy = 0.65\nsamples = 4\nvalue = [5, 1, 0]\nclass = 0", fillcolor="#e58139cc"] ;
74 -> 76 ;
77 [label="27 <= 1.33\nentropy = 1.0\nsamples = 2\nvalue = [1, 1, 0]\nclass = 0", fillcolor="#e5813900"] ;
76 -> 77 ;
78 [label="entropy = 0.0\nsamples = 1\nvalue = [0, 1, 0]\nclass = 1", fillcolor="#39e581ff"] ;
77 -> 78 ;
79 [label="entropy = 0.0\nsamples = 1\nvalue = [1, 0, 0]\nclass = 0", fillcolor="#e58139ff"] ;
77 -> 79 ;
80 [label="entropy = 0.0\nsamples = 2\nvalue = [4, 0, 0]\nclass = 0", fillcolor="#e58139ff"] ;
76 -> 80 ;
81 [label="entropy = 0.0\nsamples = 2\nvalue = [4, 0, 0]\nclass = 0", fillcolor="#e58139ff"] ;
73 -> 81 ;
82 [label="entropy = 0.0\nsamples = 20\nvalue = [28, 0, 0]\nclass = 0", fillcolor="#e58139ff"] ;
68 -> 82 ;
83 [label="entropy = 0.0\nsamples = 3\nvalue = [5, 0, 0]\nclass = 0", fillcolor="#e58139ff"] ;
67 -> 83 ;
84 [label="entropy = 0.0\nsamples = 6\nvalue = [9, 0, 0]\nclass = 0", fillcolor="#e58139ff"] ;
66 -> 84 ;
85 [label="entropy = 0.0\nsamples = 79\nvalue = [115, 0, 0]\nclass = 0", fillcolor="#e58139ff"] ;
65 -> 85 ;
86 [label="entropy = 0.0\nsamples = 68\nvalue = [99, 0, 0]\nclass = 0", fillcolor="#e58139ff"] ;
64 -> 86 ;
87 [label="entropy = 0.0\nsamples = 253\nvalue = [386, 0, 0]\nclass = 0", fillcolor="#e58139ff"] ;
63 -> 87 ;
88 [label="5/1/2019 <= -0.05\nentropy = 0.11\nsamples = 582\nvalue = [928, 14, 0]\nclass = 0", fillcolor="#e58139fb"] ;
62 -> 88 ;
89 [label="7/1/2019 <= -0.05\nentropy = 0.17\nsamples = 197\nvalue = [316, 8, 0]\nclass = 0", fillcolor="#e58139f9"] ;
88 -> 89 ;
90 [label="39 <= 1.31\nentropy = 0.1\nsamples = 150\nvalue = [243, 3, 0]\nclass = 0", fillcolor="#e58139fc"] ;
89 -> 90 ;
91 [label="9/1/2017 <= -0.05\nentropy = 0.1\nsamples = 134\nvalue = [217, 3, 0]\nclass = 0", fillcolor="#e58139fb"] ;
90 -> 91 ;
92 [label="9/1/2019 <= -0.05\nentropy = 0.11\nsamples = 129\nvalue = [209, 3, 0]\nclass = 0", fillcolor="#e58139fb"] ;
91 -> 92 ;
93 [label="entropy = 0.0\nsamples = 53\nvalue = [94, 0, 0]\nclass = 0", fillcolor="#e58139ff"] ;
92 -> 93 ;
94 [label="11/1/2017 <= -0.3\nentropy = 0.17\nsamples = 76\nvalue = [115, 3, 0]\nclass = 0", fillcolor="#e58139f8"] ;
92 -> 94 ;
95 [label="11/1/2017 <= -0.33\nentropy = 0.92\nsamples = 3\nvalue = [6, 3, 0]\nclass = 0", fillcolor="#e581397f"] ;
94 -> 95 ;
96 [label="entropy = 0.0\nsamples = 1\nvalue = [4, 0, 0]\nclass = 0", fillcolor="#e58139ff"] ;
95 -> 96 ;
97 [label="29 <= 1.35\nentropy = 0.97\nsamples = 2\nvalue = [2, 3, 0]\nclass = 1", fillcolor="#39e58155"] ;
95 -> 97 ;
98 [label="entropy = 0.0\nsamples = 1\nvalue = [0, 3, 0]\nclass = 1", fillcolor="#39e581ff"] ;
97 -> 98 ;
99 [label="entropy = 0.0\nsamples = 1\nvalue = [2, 0, 0]\nclass = 0", fillcolor="#e58139ff"] ;
97 -> 99 ;
100 [label="entropy = 0.0\nsamples = 73\nvalue = [109, 0, 0]\nclass = 0", fillcolor="#e58139ff"] ;
94 -> 100 ;
101 [label="entropy = 0.0\nsamples = 5\nvalue = [8, 0, 0]\nclass = 0", fillcolor="#e58139ff"] ;
91 -> 101 ;
102 [label="entropy = 0.0\nsamples = 16\nvalue = [26, 0, 0]\nclass = 0", fillcolor="#e58139ff"] ;
90 -> 102 ;
103 [label="53 <= 6.78\nentropy = 0.34\nsamples = 47\nvalue = [73, 5, 0]\nclass = 0", fillcolor="#e58139ee"] ;
89 -> 103 ;
104 [label="52 <= -0.41\nentropy = 0.36\nsamples = 46\nvalue = [69, 5, 0]\nclass = 0", fillcolor="#e58139ed"] ;
103 -> 104 ;
105 [label="8/1/2019 <= -0.02\nentropy = 0.47\nsamples = 17\nvalue = [27, 3, 0]\nclass = 0", fillcolor="#e58139e3"] ;
104 -> 105 ;
106 [label="21 <= 6.31\nentropy = 0.49\nsamples = 16\nvalue = [25, 3, 0]\nclass = 0", fillcolor="#e58139e0"] ;
105 -> 106 ;
107 [label="entropy = 0.0\nsamples = 15\nvalue = [25, 0, 0]\nclass = 0", fillcolor="#e58139ff"] ;
106 -> 107 ;
108 [label="entropy = 0.0\nsamples = 1\nvalue = [0, 3, 0]\nclass = 1", fillcolor="#39e581ff"] ;
106 -> 108 ;
109 [label="entropy = 0.0\nsamples = 1\nvalue = [2, 0, 0]\nclass = 0", fillcolor="#e58139ff"] ;
105 -> 109 ;
110 [label="29 <= 1.35\nentropy = 0.27\nsamples = 29\nvalue = [42, 2, 0]\nclass = 0", fillcolor="#e58139f3"] ;
104 -> 110 ;
111 [label="10/1/2017 <= -0.09\nentropy = 0.28\nsamples = 28\nvalue = [40, 2, 0]\nclass = 0", fillcolor="#e58139f2"] ;
110 -> 111 ;
112 [label="entropy = 0.0\nsamples = 24\nvalue = [37, 0, 0]\nclass = 0", fillcolor="#e58139ff"] ;
111 -> 112 ;
113 [label="39 <= 1.31\nentropy = 0.97\nsamples = 4\nvalue = [3, 2, 0]\nclass = 0", fillcolor="#e5813955"] ;
111 -> 113 ;
114 [label="31 <= 1.32\nentropy = 0.92\nsamples = 2\nvalue = [1, 2, 0]\nclass = 1", fillcolor="#39e5817f"] ;
113 -> 114 ;
115 [label="entropy = 0.0\nsamples = 1\nvalue = [0, 2, 0]\nclass = 1", fillcolor="#39e581ff"] ;
114 -> 115 ;
116 [label="entropy = 0.0\nsamples = 1\nvalue = [1, 0, 0]\nclass = 0", fillcolor="#e58139ff"] ;
114 -> 116 ;
117 [label="entropy = 0.0\nsamples = 2\nvalue = [2, 0, 0]\nclass = 0", fillcolor="#e58139ff"] ;
113 -> 117 ;
118 [label="entropy = 0.0\nsamples = 1\nvalue = [2, 0, 0]\nclass = 0", fillcolor="#e58139ff"] ;
110 -> 118 ;
119 [label="entropy = 0.0\nsamples = 1\nvalue = [4, 0, 0]\nclass = 0", fillcolor="#e58139ff"] ;
103 -> 119 ;
120 [label="9 <= 8.52\nentropy = 0.08\nsamples = 385\nvalue = [612, 6, 0]\nclass = 0", fillcolor="#e58139fc"] ;
88 -> 120 ;
121 [label="58 <= 0.69\nentropy = 0.08\nsamples = 383\nvalue = [609, 6, 0]\nclass = 0", fillcolor="#e58139fc"] ;
120 -> 121 ;
122 [label="9/1/2019 <= -0.07\nentropy = 0.1\nsamples = 302\nvalue = [475, 6, 0]\nclass = 0", fillcolor="#e58139fc"] ;
121 -> 122 ;
123 [label="5/1/2019 <= -0.05\nentropy = 0.29\nsamples = 80\nvalue = [113, 6, 0]\nclass = 0", fillcolor="#e58139f1"] ;
122 -> 123 ;
124 [label="entropy = 0.0\nsamples = 15\nvalue = [19, 0, 0]\nclass = 0", fillcolor="#e58139ff"] ;
123 -> 124 ;
125 [label="10/1/2017 <= -0.03\nentropy = 0.33\nsamples = 65\nvalue = [94, 6, 0]\nclass = 0", fillcolor="#e58139ef"] ;
123 -> 125 ;
126 [label="10/1/2017 <= -0.18\nentropy = 0.59\nsamples = 22\nvalue = [30, 5, 0]\nclass = 0", fillcolor="#e58139d4"] ;
125 -> 126 ;
127 [label="entropy = 0.0\nsamples = 8\nvalue = [14, 0, 0]\nclass = 0", fillcolor="#e58139ff"] ;
126 -> 127 ;
128 [label="7/1/2019 <= -0.04\nentropy = 0.79\nsamples = 14\nvalue = [16, 5, 0]\nclass = 0", fillcolor="#e58139af"] ;
126 -> 128 ;
129 [label="11/1/2017 <= 0.01\nentropy = 0.99\nsamples = 6\nvalue = [5, 4, 0]\nclass = 0", fillcolor="#e5813933"] ;
128 -> 129 ;
130 [label="52 <= -0.41\nentropy = 0.86\nsamples = 5\nvalue = [5, 2, 0]\nclass = 0", fillcolor="#e5813999"] ;
129 -> 130 ;
131 [label="entropy = 0.0\nsamples = 1\nvalue = [1, 0, 0]\nclass = 0", fillcolor="#e58139ff"] ;
130 -> 131 ;
132 [label="2/1/2017 <= -0.04\nentropy = 0.92\nsamples = 4\nvalue = [4, 2, 0]\nclass = 0", fillcolor="#e581397f"] ;
130 -> 132 ;
133 [label="39 <= 1.31\nentropy = 0.97\nsamples = 3\nvalue = [3, 2, 0]\nclass = 0", fillcolor="#e5813955"] ;
132 -> 133 ;
134 [label="entropy = 0.0\nsamples = 1\nvalue = [0, 2, 0]\nclass = 1", fillcolor="#39e581ff"] ;
133 -> 134 ;
135 [label="entropy = 0.0\nsamples = 2\nvalue = [3, 0, 0]\nclass = 0", fillcolor="#e58139ff"] ;
133 -> 135 ;
136 [label="entropy = 0.0\nsamples = 1\nvalue = [1, 0, 0]\nclass = 0", fillcolor="#e58139ff"] ;
132 -> 136 ;
137 [label="entropy = 0.0\nsamples = 1\nvalue = [0, 2, 0]\nclass = 1", fillcolor="#39e581ff"] ;
129 -> 137 ;
138 [label="8/1/2019 <= -0.01\nentropy = 0.41\nsamples = 8\nvalue = [11, 1, 0]\nclass = 0", fillcolor="#e58139e8"] ;
128 -> 138 ;
139 [label="entropy = 0.0\nsamples = 6\nvalue = [10, 0, 0]\nclass = 0", fillcolor="#e58139ff"] ;
138 -> 139 ;
140 [label="11/1/2017 <= 0.21\nentropy = 1.0\nsamples = 2\nvalue = [1, 1, 0]\nclass = 0", fillcolor="#e5813900"] ;
138 -> 140 ;
141 [label="entropy = 0.0\nsamples = 1\nvalue = [0, 1, 0]\nclass = 1", fillcolor="#39e581ff"] ;
140 -> 141 ;
142 [label="entropy = 0.0\nsamples = 1\nvalue = [1, 0, 0]\nclass = 0", fillcolor="#e58139ff"] ;
140 -> 142 ;
143 [label="21 <= 6.31\nentropy = 0.11\nsamples = 43\nvalue = [64, 1, 0]\nclass = 0", fillcolor="#e58139fb"] ;
125 -> 143 ;
144 [label="entropy = 0.0\nsamples = 42\nvalue = [64, 0, 0]\nclass = 0", fillcolor="#e58139ff"] ;
143 -> 144 ;
145 [label="entropy = 0.0\nsamples = 1\nvalue = [0, 1, 0]\nclass = 1", fillcolor="#39e581ff"] ;
143 -> 145 ;
146 [label="entropy = 0.0\nsamples = 222\nvalue = [362, 0, 0]\nclass = 0", fillcolor="#e58139ff"] ;
122 -> 146 ;
147 [label="entropy = 0.0\nsamples = 81\nvalue = [134, 0, 0]\nclass = 0", fillcolor="#e58139ff"] ;
121 -> 147 ;
148 [label="entropy = 0.0\nsamples = 2\nvalue = [3, 0, 0]\nclass = 0", fillcolor="#e58139ff"] ;
120 -> 148 ;
149 [label="entropy = 0.0\nsamples = 142\nvalue = [227, 0, 0]\nclass = 0", fillcolor="#e58139ff"] ;
61 -> 149 ;
150 [label="entropy = 0.0\nsamples = 5\nvalue = [0, 12, 0]\nclass = 1", fillcolor="#39e581ff"] ;
56 -> 150 ;
151 [label="11/1/2017 <= -0.2\nentropy = 0.01\nsamples = 2545\nvalue = [4047, 3, 0]\nclass = 0", fillcolor="#e58139ff"] ;
5 -> 151 ;
152 [label="2/1/2019 <= -0.05\nentropy = 0.0\nsamples = 1982\nvalue = [3145, 1, 0]\nclass = 0", fillcolor="#e58139ff"] ;
151 -> 152 ;
153 [label="21 <= 6.31\nentropy = 0.02\nsamples = 385\nvalue = [604, 1, 0]\nclass = 0", fillcolor="#e58139ff"] ;
152 -> 153 ;
154 [label="entropy = 0.0\nsamples = 384\nvalue = [604, 0, 0]\nclass = 0", fillcolor="#e58139ff"] ;
153 -> 154 ;
155 [label="entropy = 0.0\nsamples = 1\nvalue = [0, 1, 0]\nclass = 1", fillcolor="#39e581ff"] ;
153 -> 155 ;
156 [label="entropy = 0.0\nsamples = 1597\nvalue = [2541, 0, 0]\nclass = 0", fillcolor="#e58139ff"] ;
152 -> 156 ;
157 [label="21 <= 6.31\nentropy = 0.02\nsamples = 563\nvalue = [902, 2, 0]\nclass = 0", fillcolor="#e58139fe"] ;
151 -> 157 ;
158 [label="10/1/2017 <= -0.26\nentropy = 0.01\nsamples = 562\nvalue = [902, 1, 0]\nclass = 0", fillcolor="#e58139ff"] ;
157 -> 158 ;
159 [label="1/1/2019 <= -0.04\nentropy = 0.06\nsamples = 104\nvalue = [155, 1, 0]\nclass = 0", fillcolor="#e58139fd"] ;
158 -> 159 ;
160 [label="2/1/2019 <= -0.04\nentropy = 0.12\nsamples = 42\nvalue = [62, 1, 0]\nclass = 0", fillcolor="#e58139fb"] ;
159 -> 160 ;
161 [label="entropy = 0.0\nsamples = 33\nvalue = [53, 0, 0]\nclass = 0", fillcolor="#e58139ff"] ;
160 -> 161 ;
162 [label="20 <= 37.65\nentropy = 0.47\nsamples = 9\nvalue = [9, 1, 0]\nclass = 0", fillcolor="#e58139e3"] ;
160 -> 162 ;
163 [label="entropy = 0.0\nsamples = 8\nvalue = [9, 0, 0]\nclass = 0", fillcolor="#e58139ff"] ;
162 -> 163 ;
164 [label="entropy = 0.0\nsamples = 1\nvalue = [0, 1, 0]\nclass = 1", fillcolor="#39e581ff"] ;
162 -> 164 ;
165 [label="entropy = 0.0\nsamples = 62\nvalue = [93, 0, 0]\nclass = 0", fillcolor="#e58139ff"] ;
159 -> 165 ;
166 [label="entropy = 0.0\nsamples = 458\nvalue = [747, 0, 0]\nclass = 0", fillcolor="#e58139ff"] ;
158 -> 166 ;
167 [label="entropy = 0.0\nsamples = 1\nvalue = [0, 1, 0]\nclass = 1", fillcolor="#39e581ff"] ;
157 -> 167 ;
168 [label="2/1/2017 <= -0.05\nentropy = 0.17\nsamples = 993\nvalue = [1493, 38, 0]\nclass = 0", fillcolor="#e58139f9"] ;
2 -> 168 ;
169 [label="9/1/2019 <= -0.02\nentropy = 0.72\nsamples = 4\nvalue = [1, 4, 0]\nclass = 1", fillcolor="#39e581bf"] ;
168 -> 169 ;
170 [label="entropy = 0.0\nsamples = 3\nvalue = [0, 4, 0]\nclass = 1", fillcolor="#39e581ff"] ;
169 -> 170 ;
171 [label="entropy = 0.0\nsamples = 1\nvalue = [1, 0, 0]\nclass = 0", fillcolor="#e58139ff"] ;
169 -> 171 ;
172 [label="9/1/2019 <= -0.07\nentropy = 0.15\nsamples = 989\nvalue = [1492, 34, 0]\nclass = 0", fillcolor="#e58139f9"] ;
168 -> 172 ;
173 [label="2/1/2019 <= -0.01\nentropy = 0.68\nsamples = 92\nvalue = [113, 25, 0]\nclass = 0", fillcolor="#e58139c7"] ;
172 -> 173 ;
174 [label="11/1/2017 <= -0.26\nentropy = 0.46\nsamples = 77\nvalue = [103, 11, 0]\nclass = 0", fillcolor="#e58139e4"] ;
173 -> 174 ;
175 [label="entropy = 0.0\nsamples = 3\nvalue = [0, 6, 0]\nclass = 1", fillcolor="#39e581ff"] ;
174 -> 175 ;
176 [label="5/1/2019 <= -0.02\nentropy = 0.27\nsamples = 74\nvalue = [103, 5, 0]\nclass = 0", fillcolor="#e58139f3"] ;
174 -> 176 ;
177 [label="entropy = 0.0\nsamples = 26\nvalue = [31, 0, 0]\nclass = 0", fillcolor="#e58139ff"] ;
176 -> 177 ;
178 [label="5/1/2017 <= -0.02\nentropy = 0.35\nsamples = 48\nvalue = [72, 5, 0]\nclass = 0", fillcolor="#e58139ed"] ;
176 -> 178 ;
179 [label="1/1/2017 <= -0.02\nentropy = 0.43\nsamples = 35\nvalue = [51, 5, 0]\nclass = 0", fillcolor="#e58139e6"] ;
178 -> 179 ;
180 [label="5/1/2019 <= -0.02\nentropy = 0.25\nsamples = 30\nvalue = [47, 2, 0]\nclass = 0", fillcolor="#e58139f4"] ;
179 -> 180 ;
181 [label="25 <= 14.21\nentropy = 0.33\nsamples = 21\nvalue = [31, 2, 0]\nclass = 0", fillcolor="#e58139ef"] ;
180 -> 181 ;
182 [label="39 <= 1.31\nentropy = 0.2\nsamples = 20\nvalue = [31, 1, 0]\nclass = 0", fillcolor="#e58139f7"] ;
181 -> 182 ;
183 [label="10/1/2017 <= 0.18\nentropy = 0.22\nsamples = 18\nvalue = [27, 1, 0]\nclass = 0", fillcolor="#e58139f6"] ;
182 -> 183 ;
184 [label="entropy = 0.0\nsamples = 6\nvalue = [12, 0, 0]\nclass = 0", fillcolor="#e58139ff"] ;
183 -> 184 ;
185 [label="45 <= 6.19\nentropy = 0.34\nsamples = 12\nvalue = [15, 1, 0]\nclass = 0", fillcolor="#e58139ee"] ;
183 -> 185 ;
186 [label="35 <= 1.46\nentropy = 0.35\nsamples = 11\nvalue = [14, 1, 0]\nclass = 0", fillcolor="#e58139ed"] ;
185 -> 186 ;
187 [label="33 <= 1.35\nentropy = 0.37\nsamples = 10\nvalue = [13, 1, 0]\nclass = 0", fillcolor="#e58139eb"] ;
186 -> 187 ;
188 [label="29 <= 1.35\nentropy = 0.41\nsamples = 8\nvalue = [11, 1, 0]\nclass = 0", fillcolor="#e58139e8"] ;
187 -> 188 ;
189 [label="19 <= 8.04\nentropy = 0.47\nsamples = 6\nvalue = [9, 1, 0]\nclass = 0", fillcolor="#e58139e3"] ;
188 -> 189 ;
190 [label="entropy = 0.0\nsamples = 5\nvalue = [9, 0, 0]\nclass = 0", fillcolor="#e58139ff"] ;
189 -> 190 ;
191 [label="entropy = 0.0\nsamples = 1\nvalue = [0, 1, 0]\nclass = 1", fillcolor="#39e581ff"] ;
189 -> 191 ;
192 [label="entropy = 0.0\nsamples = 2\nvalue = [2, 0, 0]\nclass = 0", fillcolor="#e58139ff"] ;
188 -> 192 ;
193 [label="entropy = 0.0\nsamples = 2\nvalue = [2, 0, 0]\nclass = 0", fillcolor="#e58139ff"] ;
187 -> 193 ;
194 [label="entropy = 0.0\nsamples = 1\nvalue = [1, 0, 0]\nclass = 0", fillcolor="#e58139ff"] ;
186 -> 194 ;
195 [label="entropy = 0.0\nsamples = 1\nvalue = [1, 0, 0]\nclass = 0", fillcolor="#e58139ff"] ;
185 -> 195 ;
196 [label="entropy = 0.0\nsamples = 2\nvalue = [4, 0, 0]\nclass = 0", fillcolor="#e58139ff"] ;
182 -> 196 ;
197 [label="entropy = 0.0\nsamples = 1\nvalue = [0, 1, 0]\nclass = 1", fillcolor="#39e581ff"] ;
181 -> 197 ;
198 [label="entropy = 0.0\nsamples = 9\nvalue = [16, 0, 0]\nclass = 0", fillcolor="#e58139ff"] ;
180 -> 198 ;
199 [label="52 <= -0.41\nentropy = 0.99\nsamples = 5\nvalue = [4, 3, 0]\nclass = 0", fillcolor="#e5813940"] ;
179 -> 199 ;
200 [label="entropy = 0.0\nsamples = 2\nvalue = [3, 0, 0]\nclass = 0", fillcolor="#e58139ff"] ;
199 -> 200 ;
201 [label="11/1/2017 <= 0.13\nentropy = 0.81\nsamples = 3\nvalue = [1, 3, 0]\nclass = 1", fillcolor="#39e581aa"] ;
199 -> 201 ;
202 [label="entropy = 0.0\nsamples = 2\nvalue = [0, 3, 0]\nclass = 1", fillcolor="#39e581ff"] ;
201 -> 202 ;
203 [label="entropy = 0.0\nsamples = 1\nvalue = [1, 0, 0]\nclass = 0", fillcolor="#e58139ff"] ;
201 -> 203 ;
204 [label="entropy = 0.0\nsamples = 13\nvalue = [21, 0, 0]\nclass = 0", fillcolor="#e58139ff"] ;
178 -> 204 ;
205 [label="4/1/2017 <= -0.0\nentropy = 0.98\nsamples = 15\nvalue = [10, 14, 0]\nclass = 1", fillcolor="#39e58149"] ;
173 -> 205 ;
206 [label="48 <= 4.05\nentropy = 1.0\nsamples = 13\nvalue = [10, 10, 0]\nclass = 0", fillcolor="#e5813900"] ;
205 -> 206 ;
207 [label="33 <= 1.35\nentropy = 1.0\nsamples = 12\nvalue = [10, 9, 0]\nclass = 0", fillcolor="#e5813919"] ;
206 -> 207 ;
208 [label="10/1/2017 <= 0.3\nentropy = 0.97\nsamples = 10\nvalue = [6, 9, 0]\nclass = 1", fillcolor="#39e58155"] ;
207 -> 208 ;
209 [label="5/1/2019 <= -0.01\nentropy = 0.59\nsamples = 5\nvalue = [6, 1, 0]\nclass = 0", fillcolor="#e58139d4"] ;
208 -> 209 ;
210 [label="43 <= 5.89\nentropy = 0.92\nsamples = 2\nvalue = [2, 1, 0]\nclass = 0", fillcolor="#e581397f"] ;
209 -> 210 ;
211 [label="entropy = 0.0\nsamples = 1\nvalue = [0, 1, 0]\nclass = 1", fillcolor="#39e581ff"] ;
210 -> 211 ;
212 [label="entropy = 0.0\nsamples = 1\nvalue = [2, 0, 0]\nclass = 0", fillcolor="#e58139ff"] ;
210 -> 212 ;
213 [label="entropy = 0.0\nsamples = 3\nvalue = [4, 0, 0]\nclass = 0", fillcolor="#e58139ff"] ;
209 -> 213 ;
214 [label="entropy = 0.0\nsamples = 5\nvalue = [0, 8, 0]\nclass = 1", fillcolor="#39e581ff"] ;
208 -> 214 ;
215 [label="entropy = 0.0\nsamples = 2\nvalue = [4, 0, 0]\nclass = 0", fillcolor="#e58139ff"] ;
207 -> 215 ;
216 [label="entropy = 0.0\nsamples = 1\nvalue = [0, 1, 0]\nclass = 1", fillcolor="#39e581ff"] ;
206 -> 216 ;
217 [label="entropy = 0.0\nsamples = 2\nvalue = [0, 4, 0]\nclass = 1", fillcolor="#39e581ff"] ;
205 -> 217 ;
218 [label="10/1/2017 <= 0.33\nentropy = 0.06\nsamples = 897\nvalue = [1379, 9, 0]\nclass = 0", fillcolor="#e58139fd"] ;
172 -> 218 ;
219 [label="6/1/2017 <= -0.01\nentropy = 0.05\nsamples = 894\nvalue = [1378, 7, 0]\nclass = 0", fillcolor="#e58139fe"] ;
218 -> 219 ;
220 [label="11/1/2017 <= -0.43\nentropy = 0.06\nsamples = 674\nvalue = [1042, 7, 0]\nclass = 0", fillcolor="#e58139fd"] ;
219 -> 220 ;
221 [label="33 <= 1.35\nentropy = 0.72\nsamples = 6\nvalue = [8, 2, 0]\nclass = 0", fillcolor="#e58139bf"] ;
220 -> 221 ;
222 [label="6/1/2019 <= -0.02\nentropy = 0.86\nsamples = 5\nvalue = [5, 2, 0]\nclass = 0", fillcolor="#e5813999"] ;
221 -> 222 ;
223 [label="entropy = 0.0\nsamples = 3\nvalue = [4, 0, 0]\nclass = 0", fillcolor="#e58139ff"] ;
222 -> 223 ;
224 [label="10/1/2017 <= 0.06\nentropy = 0.92\nsamples = 2\nvalue = [1, 2, 0]\nclass = 1", fillcolor="#39e5817f"] ;
222 -> 224 ;
225 [label="entropy = 0.0\nsamples = 1\nvalue = [0, 2, 0]\nclass = 1", fillcolor="#39e581ff"] ;
224 -> 225 ;
226 [label="entropy = 0.0\nsamples = 1\nvalue = [1, 0, 0]\nclass = 0", fillcolor="#e58139ff"] ;
224 -> 226 ;
227 [label="entropy = 0.0\nsamples = 1\nvalue = [3, 0, 0]\nclass = 0", fillcolor="#e58139ff"] ;
221 -> 227 ;
228 [label="41 <= 1.32\nentropy = 0.04\nsamples = 668\nvalue = [1034, 5, 0]\nclass = 0", fillcolor="#e58139fe"] ;
220 -> 228 ;
229 [label="1/1/2017 <= -0.01\nentropy = 0.05\nsamples = 563\nvalue = [877, 5, 0]\nclass = 0", fillcolor="#e58139fe"] ;
228 -> 229 ;
230 [label="9/1/2017 <= -0.02\nentropy = 0.03\nsamples = 543\nvalue = [846, 3, 0]\nclass = 0", fillcolor="#e58139fe"] ;
229 -> 230 ;
231 [label="9/1/2017 <= -0.02\nentropy = 0.06\nsamples = 271\nvalue = [422, 3, 0]\nclass = 0", fillcolor="#e58139fd"] ;
230 -> 231 ;
232 [label="31 <= 1.32\nentropy = 0.03\nsamples = 175\nvalue = [272, 1, 0]\nclass = 0", fillcolor="#e58139fe"] ;
231 -> 232 ;
233 [label="2/1/2019 <= -0.02\nentropy = 0.04\nsamples = 137\nvalue = [209, 1, 0]\nclass = 0", fillcolor="#e58139fe"] ;
232 -> 233 ;
234 [label="21 <= 6.31\nentropy = 0.1\nsamples = 52\nvalue = [78, 1, 0]\nclass = 0", fillcolor="#e58139fc"] ;
233 -> 234 ;
235 [label="entropy = 0.0\nsamples = 51\nvalue = [78, 0, 0]\nclass = 0", fillcolor="#e58139ff"] ;
234 -> 235 ;
236 [label="entropy = 0.0\nsamples = 1\nvalue = [0, 1, 0]\nclass = 1", fillcolor="#39e581ff"] ;
234 -> 236 ;
237 [label="entropy = 0.0\nsamples = 85\nvalue = [131, 0, 0]\nclass = 0", fillcolor="#e58139ff"] ;
233 -> 237 ;
238 [label="entropy = 0.0\nsamples = 38\nvalue = [63, 0, 0]\nclass = 0", fillcolor="#e58139ff"] ;
232 -> 238 ;
239 [label="9/1/2019 <= -0.01\nentropy = 0.1\nsamples = 96\nvalue = [150, 2, 0]\nclass = 0", fillcolor="#e58139fc"] ;
231 -> 239 ;
240 [label="58 <= 0.69\nentropy = 0.13\nsamples = 71\nvalue = [112, 2, 0]\nclass = 0", fillcolor="#e58139fa"] ;
239 -> 240 ;
241 [label="entropy = 0.0\nsamples = 55\nvalue = [91, 0, 0]\nclass = 0", fillcolor="#e58139ff"] ;
240 -> 241 ;
242 [label="6/1/2019 <= -0.02\nentropy = 0.43\nsamples = 16\nvalue = [21, 2, 0]\nclass = 0", fillcolor="#e58139e7"] ;
240 -> 242 ;
243 [label="entropy = 0.0\nsamples = 1\nvalue = [2, 0, 0]\nclass = 0", fillcolor="#e58139ff"] ;
242 -> 243 ;
244 [label="7/1/2017 <= -0.02\nentropy = 0.45\nsamples = 15\nvalue = [19, 2, 0]\nclass = 0", fillcolor="#e58139e4"] ;
242 -> 244 ;
245 [label="39 <= 1.31\nentropy = 0.49\nsamples = 13\nvalue = [17, 2, 0]\nclass = 0", fillcolor="#e58139e1"] ;
244 -> 245 ;
246 [label="19 <= 8.04\nentropy = 0.54\nsamples = 12\nvalue = [14, 2, 0]\nclass = 0", fillcolor="#e58139db"] ;
245 -> 246 ;
247 [label="entropy = 0.0\nsamples = 11\nvalue = [14, 0, 0]\nclass = 0", fillcolor="#e58139ff"] ;
246 -> 247 ;
248 [label="entropy = 0.0\nsamples = 1\nvalue = [0, 2, 0]\nclass = 1", fillcolor="#39e581ff"] ;
246 -> 248 ;
249 [label="entropy = 0.0\nsamples = 1\nvalue = [3, 0, 0]\nclass = 0", fillcolor="#e58139ff"] ;
245 -> 249 ;
250 [label="entropy = 0.0\nsamples = 2\nvalue = [2, 0, 0]\nclass = 0", fillcolor="#e58139ff"] ;
244 -> 250 ;
251 [label="entropy = 0.0\nsamples = 25\nvalue = [38, 0, 0]\nclass = 0", fillcolor="#e58139ff"] ;
239 -> 251 ;
252 [label="entropy = 0.0\nsamples = 272\nvalue = [424, 0, 0]\nclass = 0", fillcolor="#e58139ff"] ;
230 -> 252 ;
253 [label="1/1/2017 <= -0.01\nentropy = 0.33\nsamples = 20\nvalue = [31, 2, 0]\nclass = 0", fillcolor="#e58139ef"] ;
229 -> 253 ;
254 [label="10/1/2017 <= 0.1\nentropy = 0.41\nsamples = 16\nvalue = [22, 2, 0]\nclass = 0", fillcolor="#e58139e8"] ;
253 -> 254 ;
255 [label="entropy = 0.0\nsamples = 12\nvalue = [17, 0, 0]\nclass = 0", fillcolor="#e58139ff"] ;
254 -> 255 ;
256 [label="7/1/2017 <= -0.03\nentropy = 0.86\nsamples = 4\nvalue = [5, 2, 0]\nclass = 0", fillcolor="#e5813999"] ;
254 -> 256 ;
257 [label="entropy = 0.0\nsamples = 1\nvalue = [1, 0, 0]\nclass = 0", fillcolor="#e58139ff"] ;
256 -> 257 ;
258 [label="8/1/2017 <= -0.03\nentropy = 0.92\nsamples = 3\nvalue = [4, 2, 0]\nclass = 0", fillcolor="#e581397f"] ;
256 -> 258 ;
259 [label="entropy = 0.0\nsamples = 1\nvalue = [0, 2, 0]\nclass = 1", fillcolor="#39e581ff"] ;
258 -> 259 ;
260 [label="entropy = 0.0\nsamples = 2\nvalue = [4, 0, 0]\nclass = 0", fillcolor="#e58139ff"] ;
258 -> 260 ;
261 [label="entropy = 0.0\nsamples = 4\nvalue = [9, 0, 0]\nclass = 0", fillcolor="#e58139ff"] ;
253 -> 261 ;
262 [label="entropy = 0.0\nsamples = 105\nvalue = [157, 0, 0]\nclass = 0", fillcolor="#e58139ff"] ;
228 -> 262 ;
263 [label="entropy = 0.0\nsamples = 220\nvalue = [336, 0, 0]\nclass = 0", fillcolor="#e58139ff"] ;
219 -> 263 ;
264 [label="1/1/2019 <= -0.0\nentropy = 0.92\nsamples = 3\nvalue = [1, 2, 0]\nclass = 1", fillcolor="#39e5817f"] ;
218 -> 264 ;
265 [label="entropy = 0.0\nsamples = 2\nvalue = [0, 2, 0]\nclass = 1", fillcolor="#39e581ff"] ;
264 -> 265 ;
266 [label="entropy = 0.0\nsamples = 1\nvalue = [1, 0, 0]\nclass = 0", fillcolor="#e58139ff"] ;
264 -> 266 ;
267 [label="19 <= 8.04\nentropy = 0.59\nsamples = 875\nvalue = [1207, 203, 0]\nclass = 0", fillcolor="#e58139d4"] ;
1 -> 267 ;
268 [label="6/1/2017 <= 0.01\nentropy = 0.59\nsamples = 873\nvalue = [1207, 199, 0]\nclass = 0", fillcolor="#e58139d5"] ;
267 -> 268 ;
269 [label="3/1/2019 <= -0.01\nentropy = 0.35\nsamples = 285\nvalue = [419, 29, 0]\nclass = 0", fillcolor="#e58139ed"] ;
268 -> 269 ;
270 [label="entropy = 0.0\nsamples = 11\nvalue = [17, 0, 0]\nclass = 0", fillcolor="#e58139ff"] ;
269 -> 270 ;
271 [label="11/1/2017 <= 0.09\nentropy = 0.36\nsamples = 274\nvalue = [402, 29, 0]\nclass = 0", fillcolor="#e58139ed"] ;
269 -> 271 ;
272 [label="2/1/2019 <= -0.01\nentropy = 0.42\nsamples = 221\nvalue = [315, 29, 0]\nclass = 0", fillcolor="#e58139e8"] ;
271 -> 272 ;
273 [label="entropy = 0.0\nsamples = 1\nvalue = [0, 1, 0]\nclass = 1", fillcolor="#39e581ff"] ;
272 -> 273 ;
274 [label="9/1/2017 <= -0.04\nentropy = 0.41\nsamples = 220\nvalue = [315, 28, 0]\nclass = 0", fillcolor="#e58139e8"] ;
272 -> 274 ;
275 [label="8/1/2019 <= -0.0\nentropy = 0.81\nsamples = 3\nvalue = [1, 3, 0]\nclass = 1", fillcolor="#39e581aa"] ;
274 -> 275 ;
276 [label="entropy = 0.0\nsamples = 1\nvalue = [0, 2, 0]\nclass = 1", fillcolor="#39e581ff"] ;
275 -> 276 ;
277 [label="6/1/2019 <= 0.0\nentropy = 1.0\nsamples = 2\nvalue = [1, 1, 0]\nclass = 0", fillcolor="#e5813900"] ;
275 -> 277 ;
278 [label="entropy = 0.0\nsamples = 1\nvalue = [1, 0, 0]\nclass = 0", fillcolor="#e58139ff"] ;
277 -> 278 ;
279 [label="entropy = 0.0\nsamples = 1\nvalue = [0, 1, 0]\nclass = 1", fillcolor="#39e581ff"] ;
277 -> 279 ;
280 [label="21 <= 6.31\nentropy = 0.38\nsamples = 217\nvalue = [314, 25, 0]\nclass = 0", fillcolor="#e58139eb"] ;
274 -> 280 ;
281 [label="5/1/2017 <= -0.0\nentropy = 0.36\nsamples = 215\nvalue = [314, 23, 0]\nclass = 0", fillcolor="#e58139ec"] ;
280 -> 281 ;
282 [label="entropy = 0.0\nsamples = 8\nvalue = [17, 0, 0]\nclass = 0", fillcolor="#e58139ff"] ;
281 -> 282 ;
283 [label="11/1/2017 <= -0.41\nentropy = 0.37\nsamples = 207\nvalue = [297, 23, 0]\nclass = 0", fillcolor="#e58139eb"] ;
281 -> 283 ;
284 [label="27 <= 1.33\nentropy = 0.97\nsamples = 4\nvalue = [3, 2, 0]\nclass = 0", fillcolor="#e5813955"] ;
283 -> 284 ;
285 [label="1/1/2017 <= 0.0\nentropy = 0.92\nsamples = 3\nvalue = [1, 2, 0]\nclass = 1", fillcolor="#39e5817f"] ;
284 -> 285 ;
286 [label="9/1/2019 <= 0.04\nentropy = 1.0\nsamples = 2\nvalue = [1, 1, 0]\nclass = 0", fillcolor="#e5813900"] ;
285 -> 286 ;
287 [label="entropy = 0.0\nsamples = 1\nvalue = [0, 1, 0]\nclass = 1", fillcolor="#39e581ff"] ;
286 -> 287 ;
288 [label="entropy = 0.0\nsamples = 1\nvalue = [1, 0, 0]\nclass = 0", fillcolor="#e58139ff"] ;
286 -> 288 ;
289 [label="entropy = 0.0\nsamples = 1\nvalue = [0, 1, 0]\nclass = 1", fillcolor="#39e581ff"] ;
285 -> 289 ;
290 [label="entropy = 0.0\nsamples = 1\nvalue = [2, 0, 0]\nclass = 0", fillcolor="#e58139ff"] ;
284 -> 290 ;
291 [label="10/1/2017 <= 0.29\nentropy = 0.35\nsamples = 203\nvalue = [294, 21, 0]\nclass = 0", fillcolor="#e58139ed"] ;
283 -> 291 ;
292 [label="entropy = 0.0\nsamples = 189\nvalue = [294, 0, 0]\nclass = 0", fillcolor="#e58139ff"] ;
291 -> 292 ;
293 [label="entropy = 0.0\nsamples = 14\nvalue = [0, 21, 0]\nclass = 1", fillcolor="#39e581ff"] ;
291 -> 293 ;
294 [label="entropy = 0.0\nsamples = 2\nvalue = [0, 2, 0]\nclass = 1", fillcolor="#39e581ff"] ;
280 -> 294 ;
295 [label="entropy = 0.0\nsamples = 53\nvalue = [87, 0, 0]\nclass = 0", fillcolor="#e58139ff"] ;
271 -> 295 ;
296 [label="1/1/2019 <= 0.03\nentropy = 0.67\nsamples = 588\nvalue = [788, 170, 0]\nclass = 0", fillcolor="#e58139c8"] ;
268 -> 296 ;
297 [label="9/1/2019 <= -0.03\nentropy = 0.59\nsamples = 372\nvalue = [508, 85, 0]\nclass = 0", fillcolor="#e58139d4"] ;
296 -> 297 ;
298 [label="1/1/2019 <= 0.01\nentropy = 0.97\nsamples = 81\nvalue = [51, 75, 0]\nclass = 1", fillcolor="#39e58152"] ;
297 -> 298 ;
299 [label="entropy = 0.0\nsamples = 6\nvalue = [0, 11, 0]\nclass = 1", fillcolor="#39e581ff"] ;
298 -> 299 ;
300 [label="10/1/2017 <= 0.31\nentropy = 0.99\nsamples = 75\nvalue = [51, 64, 0]\nclass = 1", fillcolor="#39e58134"] ;
298 -> 300 ;
301 [label="4/1/2017 <= 0.01\nentropy = 0.14\nsamples = 32\nvalue = [51, 1, 0]\nclass = 0", fillcolor="#e58139fa"] ;
300 -> 301 ;
302 [label="entropy = 0.0\nsamples = 15\nvalue = [26, 0, 0]\nclass = 0", fillcolor="#e58139ff"] ;
301 -> 302 ;
303 [label="6/1/2017 <= 0.02\nentropy = 0.24\nsamples = 17\nvalue = [25, 1, 0]\nclass = 0", fillcolor="#e58139f5"] ;
301 -> 303 ;
304 [label="10/1/2017 <= 0.26\nentropy = 0.5\nsamples = 5\nvalue = [8, 1, 0]\nclass = 0", fillcolor="#e58139df"] ;
303 -> 304 ;
305 [label="entropy = 0.0\nsamples = 4\nvalue = [8, 0, 0]\nclass = 0", fillcolor="#e58139ff"] ;
304 -> 305 ;
306 [label="entropy = 0.0\nsamples = 1\nvalue = [0, 1, 0]\nclass = 1", fillcolor="#39e581ff"] ;
304 -> 306 ;
307 [label="entropy = 0.0\nsamples = 12\nvalue = [17, 0, 0]\nclass = 0", fillcolor="#e58139ff"] ;
303 -> 307 ;
308 [label="entropy = 0.0\nsamples = 43\nvalue = [0, 63, 0]\nclass = 1", fillcolor="#39e581ff"] ;
300 -> 308 ;
309 [label="2/1/2017 <= 0.02\nentropy = 0.15\nsamples = 291\nvalue = [457, 10, 0]\nclass = 0", fillcolor="#e58139f9"] ;
297 -> 309 ;
310 [label="3/1/2017 <= 0.01\nentropy = 0.06\nsamples = 173\nvalue = [263, 2, 0]\nclass = 0", fillcolor="#e58139fd"] ;
309 -> 310 ;
311 [label="2/1/2019 <= 0.01\nentropy = 0.1\nsamples = 106\nvalue = [159, 2, 0]\nclass = 0", fillcolor="#e58139fc"] ;
310 -> 311 ;
312 [label="entropy = 0.0\nsamples = 66\nvalue = [102, 0, 0]\nclass = 0", fillcolor="#e58139ff"] ;
311 -> 312 ;
313 [label="52 <= -0.41\nentropy = 0.21\nsamples = 40\nvalue = [57, 2, 0]\nclass = 0", fillcolor="#e58139f6"] ;
311 -> 313 ;
314 [label="entropy = 0.0\nsamples = 10\nvalue = [15, 0, 0]\nclass = 0", fillcolor="#e58139ff"] ;
313 -> 314 ;
315 [label="11/1/2017 <= -0.13\nentropy = 0.27\nsamples = 30\nvalue = [42, 2, 0]\nclass = 0", fillcolor="#e58139f3"] ;
313 -> 315 ;
316 [label="entropy = 0.0\nsamples = 2\nvalue = [0, 2, 0]\nclass = 1", fillcolor="#39e581ff"] ;
315 -> 316 ;
317 [label="entropy = 0.0\nsamples = 28\nvalue = [42, 0, 0]\nclass = 0", fillcolor="#e58139ff"] ;
315 -> 317 ;
318 [label="entropy = 0.0\nsamples = 67\nvalue = [104, 0, 0]\nclass = 0", fillcolor="#e58139ff"] ;
310 -> 318 ;
319 [label="7/1/2017 <= 0.02\nentropy = 0.24\nsamples = 118\nvalue = [194, 8, 0]\nclass = 0", fillcolor="#e58139f4"] ;
309 -> 319 ;
320 [label="2/1/2017 <= 0.02\nentropy = 0.26\nsamples = 105\nvalue = [173, 8, 0]\nclass = 0", fillcolor="#e58139f3"] ;
319 -> 320 ;
321 [label="27 <= 1.33\nentropy = 0.29\nsamples = 80\nvalue = [131, 7, 0]\nclass = 0", fillcolor="#e58139f1"] ;
320 -> 321 ;
322 [label="10/1/2017 <= 0.3\nentropy = 0.33\nsamples = 70\nvalue = [109, 7, 0]\nclass = 0", fillcolor="#e58139ef"] ;
321 -> 322 ;
323 [label="entropy = 0.0\nsamples = 66\nvalue = [109, 0, 0]\nclass = 0", fillcolor="#e58139ff"] ;
322 -> 323 ;
324 [label="entropy = 0.0\nsamples = 4\nvalue = [0, 7, 0]\nclass = 1", fillcolor="#39e581ff"] ;
322 -> 324 ;
325 [label="entropy = 0.0\nsamples = 10\nvalue = [22, 0, 0]\nclass = 0", fillcolor="#e58139ff"] ;
321 -> 325 ;
326 [label="4/1/2019 <= 0.02\nentropy = 0.16\nsamples = 25\nvalue = [42, 1, 0]\nclass = 0", fillcolor="#e58139f9"] ;
320 -> 326 ;
327 [label="entropy = 0.0\nsamples = 6\nvalue = [8, 0, 0]\nclass = 0", fillcolor="#e58139ff"] ;
326 -> 327 ;
328 [label="29 <= 1.35\nentropy = 0.19\nsamples = 19\nvalue = [34, 1, 0]\nclass = 0", fillcolor="#e58139f8"] ;
326 -> 328 ;
329 [label="entropy = 0.0\nsamples = 16\nvalue = [30, 0, 0]\nclass = 0", fillcolor="#e58139ff"] ;
328 -> 329 ;
330 [label="58 <= 0.69\nentropy = 0.72\nsamples = 3\nvalue = [4, 1, 0]\nclass = 0", fillcolor="#e58139bf"] ;
328 -> 330 ;
331 [label="entropy = 0.0\nsamples = 1\nvalue = [3, 0, 0]\nclass = 0", fillcolor="#e58139ff"] ;
330 -> 331 ;
332 [label="11/1/2017 <= 0.12\nentropy = 1.0\nsamples = 2\nvalue = [1, 1, 0]\nclass = 0", fillcolor="#e5813900"] ;
330 -> 332 ;
333 [label="entropy = 0.0\nsamples = 1\nvalue = [1, 0, 0]\nclass = 0", fillcolor="#e58139ff"] ;
332 -> 333 ;
334 [label="entropy = 0.0\nsamples = 1\nvalue = [0, 1, 0]\nclass = 1", fillcolor="#39e581ff"] ;
332 -> 334 ;
335 [label="entropy = 0.0\nsamples = 13\nvalue = [21, 0, 0]\nclass = 0", fillcolor="#e58139ff"] ;
319 -> 335 ;
336 [label="4/1/2019 <= 0.03\nentropy = 0.78\nsamples = 216\nvalue = [280, 85, 0]\nclass = 0", fillcolor="#e58139b2"] ;
296 -> 336 ;
337 [label="56 <= 2.42\nentropy = 0.95\nsamples = 46\nvalue = [56, 33, 0]\nclass = 0", fillcolor="#e5813969"] ;
336 -> 337 ;
338 [label="10/1/2017 <= 0.29\nentropy = 0.97\nsamples = 44\nvalue = [49, 33, 0]\nclass = 0", fillcolor="#e5813953"] ;
337 -> 338 ;
339 [label="entropy = 0.0\nsamples = 30\nvalue = [49, 0, 0]\nclass = 0", fillcolor="#e58139ff"] ;
338 -> 339 ;
340 [label="entropy = 0.0\nsamples = 14\nvalue = [0, 33, 0]\nclass = 1", fillcolor="#39e581ff"] ;
338 -> 340 ;
341 [label="entropy = 0.0\nsamples = 2\nvalue = [7, 0, 0]\nclass = 0", fillcolor="#e58139ff"] ;
337 -> 341 ;
342 [label="11/1/2017 <= 0.5\nentropy = 0.7\nsamples = 170\nvalue = [224, 52, 0]\nclass = 0", fillcolor="#e58139c4"] ;
336 -> 342 ;
343 [label="6/1/2019 <= 0.03\nentropy = 0.75\nsamples = 149\nvalue = [189, 52, 0]\nclass = 0", fillcolor="#e58139b9"] ;
342 -> 343 ;
344 [label="33 <= 1.35\nentropy = 0.53\nsamples = 47\nvalue = [72, 10, 0]\nclass = 0", fillcolor="#e58139dc"] ;
343 -> 344 ;
345 [label="31 <= 1.32\nentropy = 0.56\nsamples = 44\nvalue = [66, 10, 0]\nclass = 0", fillcolor="#e58139d8"] ;
344 -> 345 ;
346 [label="7/1/2017 <= 0.03\nentropy = 0.42\nsamples = 41\nvalue = [64, 6, 0]\nclass = 0", fillcolor="#e58139e7"] ;
345 -> 346 ;
347 [label="9/1/2019 <= -0.01\nentropy = 0.46\nsamples = 38\nvalue = [55, 6, 0]\nclass = 0", fillcolor="#e58139e3"] ;
346 -> 347 ;
348 [label="entropy = 0.0\nsamples = 4\nvalue = [0, 4, 0]\nclass = 1", fillcolor="#39e581ff"] ;
347 -> 348 ;
349 [label="27 <= 1.33\nentropy = 0.22\nsamples = 34\nvalue = [55, 2, 0]\nclass = 0", fillcolor="#e58139f6"] ;
347 -> 349 ;
350 [label="51 <= 13.29\nentropy = 0.25\nsamples = 28\nvalue = [45, 2, 0]\nclass = 0", fillcolor="#e58139f4"] ;
349 -> 350 ;
351 [label="10/1/2017 <= 0.31\nentropy = 0.27\nsamples = 27\nvalue = [42, 2, 0]\nclass = 0", fillcolor="#e58139f3"] ;
350 -> 351 ;
352 [label="entropy = 0.0\nsamples = 26\nvalue = [42, 0, 0]\nclass = 0", fillcolor="#e58139ff"] ;
351 -> 352 ;
353 [label="entropy = 0.0\nsamples = 1\nvalue = [0, 2, 0]\nclass = 1", fillcolor="#39e581ff"] ;
351 -> 353 ;
354 [label="entropy = 0.0\nsamples = 1\nvalue = [3, 0, 0]\nclass = 0", fillcolor="#e58139ff"] ;
350 -> 354 ;
355 [label="entropy = 0.0\nsamples = 6\nvalue = [10, 0, 0]\nclass = 0", fillcolor="#e58139ff"] ;
349 -> 355 ;
356 [label="entropy = 0.0\nsamples = 3\nvalue = [9, 0, 0]\nclass = 0", fillcolor="#e58139ff"] ;
346 -> 356 ;
357 [label="9/1/2019 <= -0.01\nentropy = 0.92\nsamples = 3\nvalue = [2, 4, 0]\nclass = 1", fillcolor="#39e5817f"] ;
345 -> 357 ;
358 [label="entropy = 0.0\nsamples = 1\nvalue = [0, 4, 0]\nclass = 1", fillcolor="#39e581ff"] ;
357 -> 358 ;
359 [label="entropy = 0.0\nsamples = 2\nvalue = [2, 0, 0]\nclass = 0", fillcolor="#e58139ff"] ;
357 -> 359 ;
360 [label="entropy = 0.0\nsamples = 3\nvalue = [6, 0, 0]\nclass = 0", fillcolor="#e58139ff"] ;
344 -> 360 ;
361 [label="10/1/2017 <= 0.3\nentropy = 0.83\nsamples = 102\nvalue = [117, 42, 0]\nclass = 0", fillcolor="#e58139a3"] ;
343 -> 361 ;
362 [label="entropy = 0.0\nsamples = 75\nvalue = [116, 0, 0]\nclass = 0", fillcolor="#e58139ff"] ;
361 -> 362 ;
363 [label="9/1/2019 <= 0.04\nentropy = 0.16\nsamples = 27\nvalue = [1, 42, 0]\nclass = 1", fillcolor="#39e581f9"] ;
361 -> 363 ;
364 [label="entropy = 0.0\nsamples = 25\nvalue = [0, 38, 0]\nclass = 1", fillcolor="#39e581ff"] ;
363 -> 364 ;
365 [label="6/1/2017 <= 0.03\nentropy = 0.72\nsamples = 2\nvalue = [1, 4, 0]\nclass = 1", fillcolor="#39e581bf"] ;
363 -> 365 ;
366 [label="entropy = 0.0\nsamples = 1\nvalue = [0, 4, 0]\nclass = 1", fillcolor="#39e581ff"] ;
365 -> 366 ;
367 [label="entropy = 0.0\nsamples = 1\nvalue = [1, 0, 0]\nclass = 0", fillcolor="#e58139ff"] ;
365 -> 367 ;
368 [label="entropy = 0.0\nsamples = 21\nvalue = [35, 0, 0]\nclass = 0", fillcolor="#e58139ff"] ;
342 -> 368 ;
369 [label="entropy = 0.0\nsamples = 2\nvalue = [0, 4, 0]\nclass = 1", fillcolor="#39e581ff"] ;
267 -> 369 ;
370 [label="6/1/2017 <= 0.3\nentropy = 1.32\nsamples = 1579\nvalue = [704, 1499, 288]\nclass = 1", fillcolor="#39e58171"] ;
0 -> 370 [labeldistance=2.5, labelangle=-45, headlabel="False"] ;
371 [label="4/1/2017 <= 0.07\nentropy = 1.01\nsamples = 1270\nvalue = [690, 1276, 21]\nclass = 1", fillcolor="#39e58173"] ;
370 -> 371 ;
372 [label="8/1/2017 <= 0.01\nentropy = 0.94\nsamples = 399\nvalue = [411, 225, 0]\nclass = 0", fillcolor="#e5813973"] ;
371 -> 372 ;
373 [label="10/1/2017 <= 0.3\nentropy = 0.5\nsamples = 3\nvalue = [1, 8, 0]\nclass = 1", fillcolor="#39e581df"] ;
372 -> 373 ;
374 [label="entropy = 0.0\nsamples = 1\nvalue = [1, 0, 0]\nclass = 0", fillcolor="#e58139ff"] ;
373 -> 374 ;
375 [label="entropy = 0.0\nsamples = 2\nvalue = [0, 8, 0]\nclass = 1", fillcolor="#39e581ff"] ;
373 -> 375 ;
376 [label="10/1/2017 <= 0.3\nentropy = 0.93\nsamples = 396\nvalue = [410, 217, 0]\nclass = 0", fillcolor="#e5813978"] ;
372 -> 376 ;
377 [label="8/1/2017 <= 0.11\nentropy = 0.09\nsamples = 260\nvalue = [408, 5, 0]\nclass = 0", fillcolor="#e58139fc"] ;
376 -> 377 ;
378 [label="4/1/2019 <= 0.05\nentropy = 0.04\nsamples = 259\nvalue = [408, 2, 0]\nclass = 0", fillcolor="#e58139fe"] ;
377 -> 378 ;
379 [label="entropy = 0.0\nsamples = 154\nvalue = [249, 0, 0]\nclass = 0", fillcolor="#e58139ff"] ;
378 -> 379 ;
380 [label="2/1/2017 <= 0.05\nentropy = 0.1\nsamples = 105\nvalue = [159, 2, 0]\nclass = 0", fillcolor="#e58139fc"] ;
378 -> 380 ;
381 [label="21 <= 6.31\nentropy = 0.65\nsamples = 4\nvalue = [5, 1, 0]\nclass = 0", fillcolor="#e58139cc"] ;
380 -> 381 ;
382 [label="entropy = 0.0\nsamples = 3\nvalue = [5, 0, 0]\nclass = 0", fillcolor="#e58139ff"] ;
381 -> 382 ;
383 [label="entropy = 0.0\nsamples = 1\nvalue = [0, 1, 0]\nclass = 1", fillcolor="#39e581ff"] ;
381 -> 383 ;
384 [label="21 <= 6.31\nentropy = 0.06\nsamples = 101\nvalue = [154, 1, 0]\nclass = 0", fillcolor="#e58139fd"] ;
380 -> 384 ;
385 [label="entropy = 0.0\nsamples = 100\nvalue = [154, 0, 0]\nclass = 0", fillcolor="#e58139ff"] ;
384 -> 385 ;
386 [label="entropy = 0.0\nsamples = 1\nvalue = [0, 1, 0]\nclass = 1", fillcolor="#39e581ff"] ;
384 -> 386 ;
387 [label="entropy = 0.0\nsamples = 1\nvalue = [0, 3, 0]\nclass = 1", fillcolor="#39e581ff"] ;
377 -> 387 ;
388 [label="45 <= 6.19\nentropy = 0.08\nsamples = 136\nvalue = [2, 212, 0]\nclass = 1", fillcolor="#39e581fd"] ;
376 -> 388 ;
389 [label="4/1/2017 <= 0.06\nentropy = 0.04\nsamples = 135\nvalue = [1, 212, 0]\nclass = 1", fillcolor="#39e581fe"] ;
388 -> 389 ;
390 [label="entropy = 0.0\nsamples = 112\nvalue = [0, 176, 0]\nclass = 1", fillcolor="#39e581ff"] ;
389 -> 390 ;
391 [label="56 <= 2.42\nentropy = 0.18\nsamples = 23\nvalue = [1, 36, 0]\nclass = 1", fillcolor="#39e581f8"] ;
389 -> 391 ;
392 [label="entropy = 0.0\nsamples = 22\nvalue = [0, 36, 0]\nclass = 1", fillcolor="#39e581ff"] ;
391 -> 392 ;
393 [label="entropy = 0.0\nsamples = 1\nvalue = [1, 0, 0]\nclass = 0", fillcolor="#e58139ff"] ;
391 -> 393 ;
394 [label="entropy = 0.0\nsamples = 1\nvalue = [1, 0, 0]\nclass = 0", fillcolor="#e58139ff"] ;
388 -> 394 ;
395 [label="6/1/2017 <= 0.2\nentropy = 0.85\nsamples = 871\nvalue = [279, 1051, 21]\nclass = 1", fillcolor="#39e581b8"] ;
371 -> 395 ;
396 [label="4/1/2017 <= 0.12\nentropy = 0.79\nsamples = 690\nvalue = [245, 823, 1]\nclass = 1", fillcolor="#39e581b3"] ;
395 -> 396 ;
397 [label="4/1/2019 <= 0.07\nentropy = 0.85\nsamples = 421\nvalue = [178, 461, 0]\nclass = 1", fillcolor="#39e5819d"] ;
396 -> 397 ;
398 [label="9/1/2019 <= 0.08\nentropy = 0.65\nsamples = 4\nvalue = [5, 1, 0]\nclass = 0", fillcolor="#e58139cc"] ;
397 -> 398 ;
399 [label="entropy = 0.0\nsamples = 3\nvalue = [5, 0, 0]\nclass = 0", fillcolor="#e58139ff"] ;
398 -> 399 ;
400 [label="entropy = 0.0\nsamples = 1\nvalue = [0, 1, 0]\nclass = 1", fillcolor="#39e581ff"] ;
398 -> 400 ;
401 [label="45 <= 6.19\nentropy = 0.85\nsamples = 417\nvalue = [173, 460, 0]\nclass = 1", fillcolor="#39e5819f"] ;
397 -> 401 ;
402 [label="8/1/2017 <= 0.12\nentropy = 0.81\nsamples = 408\nvalue = [152, 460, 0]\nclass = 1", fillcolor="#39e581ab"] ;
401 -> 402 ;
403 [label="53 <= 6.78\nentropy = 0.79\nsamples = 397\nvalue = [141, 453, 0]\nclass = 1", fillcolor="#39e581b0"] ;
402 -> 403 ;
404 [label="8/1/2019 <= 0.06\nentropy = 0.79\nsamples = 396\nvalue = [141, 450, 0]\nclass = 1", fillcolor="#39e581af"] ;
403 -> 404 ;
405 [label="1/1/2019 <= 0.09\nentropy = 0.79\nsamples = 394\nvalue = [138, 450, 0]\nclass = 1", fillcolor="#39e581b1"] ;
404 -> 405 ;
406 [label="58 <= 0.69\nentropy = 0.86\nsamples = 175\nvalue = [74, 186, 0]\nclass = 1", fillcolor="#39e5819a"] ;
405 -> 406 ;
407 [label="10/1/2017 <= 0.3\nentropy = 0.79\nsamples = 133\nvalue = [46, 149, 0]\nclass = 1", fillcolor="#39e581b0"] ;
406 -> 407 ;
408 [label="entropy = 0.0\nsamples = 31\nvalue = [44, 0, 0]\nclass = 0", fillcolor="#e58139ff"] ;
407 -> 408 ;
409 [label="61 <= 8.52\nentropy = 0.1\nsamples = 102\nvalue = [2, 149, 0]\nclass = 1", fillcolor="#39e581fc"] ;
407 -> 409 ;
410 [label="52 <= -0.41\nentropy = 0.06\nsamples = 101\nvalue = [1, 149, 0]\nclass = 1", fillcolor="#39e581fd"] ;
409 -> 410 ;
411 [label="4/1/2017 <= 0.08\nentropy = 0.35\nsamples = 12\nvalue = [1, 14, 0]\nclass = 1", fillcolor="#39e581ed"] ;
410 -> 411 ;
412 [label="entropy = 0.0\nsamples = 9\nvalue = [0, 11, 0]\nclass = 1", fillcolor="#39e581ff"] ;
411 -> 412 ;
413 [label="10/1/2017 <= 0.36\nentropy = 0.81\nsamples = 3\nvalue = [1, 3, 0]\nclass = 1", fillcolor="#39e581aa"] ;
411 -> 413 ;
414 [label="entropy = 0.0\nsamples = 1\nvalue = [1, 0, 0]\nclass = 0", fillcolor="#e58139ff"] ;
413 -> 414 ;
415 [label="entropy = 0.0\nsamples = 2\nvalue = [0, 3, 0]\nclass = 1", fillcolor="#39e581ff"] ;
413 -> 415 ;
416 [label="entropy = 0.0\nsamples = 89\nvalue = [0, 135, 0]\nclass = 1", fillcolor="#39e581ff"] ;
410 -> 416 ;
417 [label="entropy = 0.0\nsamples = 1\nvalue = [1, 0, 0]\nclass = 0", fillcolor="#e58139ff"] ;
409 -> 417 ;
418 [label="2/1/2017 <= 0.09\nentropy = 0.99\nsamples = 42\nvalue = [28, 37, 0]\nclass = 1", fillcolor="#39e5813e"] ;
406 -> 418 ;
419 [label="1/1/2017 <= 0.08\nentropy = 0.94\nsamples = 37\nvalue = [20, 36, 0]\nclass = 1", fillcolor="#39e58171"] ;
418 -> 419 ;
420 [label="10/1/2017 <= 0.3\nentropy = 0.99\nsamples = 20\nvalue = [17, 14, 0]\nclass = 0", fillcolor="#e581392d"] ;
419 -> 420 ;
421 [label="entropy = 0.0\nsamples = 11\nvalue = [17, 0, 0]\nclass = 0", fillcolor="#e58139ff"] ;
420 -> 421 ;
422 [label="entropy = 0.0\nsamples = 9\nvalue = [0, 14, 0]\nclass = 1", fillcolor="#39e581ff"] ;
420 -> 422 ;
423 [label="1/1/2017 <= 0.08\nentropy = 0.53\nsamples = 17\nvalue = [3, 22, 0]\nclass = 1", fillcolor="#39e581dc"] ;
419 -> 423 ;
424 [label="9/1/2019 <= 0.23\nentropy = 0.7\nsamples = 13\nvalue = [3, 13, 0]\nclass = 1", fillcolor="#39e581c4"] ;
423 -> 424 ;
425 [label="5/1/2017 <= 0.08\nentropy = 0.57\nsamples = 12\nvalue = [2, 13, 0]\nclass = 1", fillcolor="#39e581d8"] ;
424 -> 425 ;
426 [label="9/1/2017 <= 0.13\nentropy = 0.72\nsamples = 8\nvalue = [2, 8, 0]\nclass = 1", fillcolor="#39e581bf"] ;
425 -> 426 ;
427 [label="9/1/2019 <= 0.04\nentropy = 0.5\nsamples = 7\nvalue = [1, 8, 0]\nclass = 1", fillcolor="#39e581df"] ;
426 -> 427 ;
428 [label="entropy = 0.0\nsamples = 2\nvalue = [0, 3, 0]\nclass = 1", fillcolor="#39e581ff"] ;
427 -> 428 ;
429 [label="9/1/2019 <= 0.15\nentropy = 0.65\nsamples = 5\nvalue = [1, 5, 0]\nclass = 1", fillcolor="#39e581cc"] ;
427 -> 429 ;
430 [label="10/1/2017 <= 0.25\nentropy = 0.72\nsamples = 4\nvalue = [1, 4, 0]\nclass = 1", fillcolor="#39e581bf"] ;
429 -> 430 ;
431 [label="entropy = 0.0\nsamples = 1\nvalue = [1, 0, 0]\nclass = 0", fillcolor="#e58139ff"] ;
430 -> 431 ;
432 [label="entropy = 0.0\nsamples = 3\nvalue = [0, 4, 0]\nclass = 1", fillcolor="#39e581ff"] ;
430 -> 432 ;
433 [label="entropy = 0.0\nsamples = 1\nvalue = [0, 1, 0]\nclass = 1", fillcolor="#39e581ff"] ;
429 -> 433 ;
434 [label="entropy = 0.0\nsamples = 1\nvalue = [1, 0, 0]\nclass = 0", fillcolor="#e58139ff"] ;
426 -> 434 ;
435 [label="entropy = 0.0\nsamples = 4\nvalue = [0, 5, 0]\nclass = 1", fillcolor="#39e581ff"] ;
425 -> 435 ;
436 [label="entropy = 0.0\nsamples = 1\nvalue = [1, 0, 0]\nclass = 0", fillcolor="#e58139ff"] ;
424 -> 436 ;
437 [label="entropy = 0.0\nsamples = 4\nvalue = [0, 9, 0]\nclass = 1", fillcolor="#39e581ff"] ;
423 -> 437 ;
438 [label="31 <= 1.32\nentropy = 0.5\nsamples = 5\nvalue = [8, 1, 0]\nclass = 0", fillcolor="#e58139df"] ;
418 -> 438 ;
439 [label="6/1/2019 <= 0.06\nentropy = 0.65\nsamples = 4\nvalue = [5, 1, 0]\nclass = 0", fillcolor="#e58139cc"] ;
438 -> 439 ;
440 [label="entropy = 0.0\nsamples = 1\nvalue = [1, 0, 0]\nclass = 0", fillcolor="#e58139ff"] ;
439 -> 440 ;
441 [label="11/1/2017 <= 0.36\nentropy = 0.72\nsamples = 3\nvalue = [4, 1, 0]\nclass = 0", fillcolor="#e58139bf"] ;
439 -> 441 ;
442 [label="entropy = 0.0\nsamples = 1\nvalue = [3, 0, 0]\nclass = 0", fillcolor="#e58139ff"] ;
441 -> 442 ;
443 [label="10/1/2017 <= 0.3\nentropy = 1.0\nsamples = 2\nvalue = [1, 1, 0]\nclass = 0", fillcolor="#e5813900"] ;
441 -> 443 ;
444 [label="entropy = 0.0\nsamples = 1\nvalue = [1, 0, 0]\nclass = 0", fillcolor="#e58139ff"] ;
443 -> 444 ;
445 [label="entropy = 0.0\nsamples = 1\nvalue = [0, 1, 0]\nclass = 1", fillcolor="#39e581ff"] ;
443 -> 445 ;
446 [label="entropy = 0.0\nsamples = 1\nvalue = [3, 0, 0]\nclass = 0", fillcolor="#e58139ff"] ;
438 -> 446 ;
447 [label="55 <= 5.87\nentropy = 0.71\nsamples = 219\nvalue = [64, 264, 0]\nclass = 1", fillcolor="#39e581c1"] ;
405 -> 447 ;
448 [label="5/1/2019 <= 0.09\nentropy = 0.7\nsamples = 217\nvalue = [62, 264, 0]\nclass = 1", fillcolor="#39e581c3"] ;
447 -> 448 ;
449 [label="3/1/2019 <= 0.09\nentropy = 0.35\nsamples = 31\nvalue = [3, 43, 0]\nclass = 1", fillcolor="#39e581ed"] ;
448 -> 449 ;
450 [label="41 <= 1.32\nentropy = 0.41\nsamples = 25\nvalue = [3, 34, 0]\nclass = 1", fillcolor="#39e581e9"] ;
449 -> 450 ;
451 [label="entropy = 0.0\nsamples = 19\nvalue = [0, 28, 0]\nclass = 1", fillcolor="#39e581ff"] ;
450 -> 451 ;
452 [label="1/1/2017 <= 0.09\nentropy = 0.92\nsamples = 6\nvalue = [3, 6, 0]\nclass = 1", fillcolor="#39e5817f"] ;
450 -> 452 ;
453 [label="10/1/2017 <= 0.28\nentropy = 0.97\nsamples = 3\nvalue = [2, 3, 0]\nclass = 1", fillcolor="#39e58155"] ;
452 -> 453 ;
454 [label="entropy = 0.0\nsamples = 1\nvalue = [2, 0, 0]\nclass = 0", fillcolor="#e58139ff"] ;
453 -> 454 ;
455 [label="entropy = 0.0\nsamples = 2\nvalue = [0, 3, 0]\nclass = 1", fillcolor="#39e581ff"] ;
453 -> 455 ;
456 [label="9/1/2019 <= 0.17\nentropy = 0.81\nsamples = 3\nvalue = [1, 3, 0]\nclass = 1", fillcolor="#39e581aa"] ;
452 -> 456 ;
457 [label="entropy = 0.0\nsamples = 2\nvalue = [0, 3, 0]\nclass = 1", fillcolor="#39e581ff"] ;
456 -> 457 ;
458 [label="entropy = 0.0\nsamples = 1\nvalue = [1, 0, 0]\nclass = 0", fillcolor="#e58139ff"] ;
456 -> 458 ;
459 [label="entropy = 0.0\nsamples = 6\nvalue = [0, 9, 0]\nclass = 1", fillcolor="#39e581ff"] ;
449 -> 459 ;
460 [label="48 <= 4.05\nentropy = 0.74\nsamples = 186\nvalue = [59, 221, 0]\nclass = 1", fillcolor="#39e581bb"] ;
448 -> 460 ;
461 [label="11/1/2017 <= 1.08\nentropy = 0.75\nsamples = 183\nvalue = [59, 214, 0]\nclass = 1", fillcolor="#39e581b9"] ;
460 -> 461 ;
462 [label="7/1/2019 <= 0.21\nentropy = 0.8\nsamples = 161\nvalue = [58, 180, 0]\nclass = 1", fillcolor="#39e581ad"] ;
461 -> 462 ;
463 [label="43 <= 5.89\nentropy = 0.8\nsamples = 160\nvalue = [57, 180, 0]\nclass = 1", fillcolor="#39e581ae"] ;
462 -> 463 ;
464 [label="21 <= 6.31\nentropy = 0.75\nsamples = 155\nvalue = [49, 180, 0]\nclass = 1", fillcolor="#39e581ba"] ;
463 -> 464 ;
465 [label="54 <= 5.84\nentropy = 0.76\nsamples = 152\nvalue = [49, 175, 0]\nclass = 1", fillcolor="#39e581b8"] ;
464 -> 465 ;
466 [label="6/1/2017 <= 0.11\nentropy = 0.74\nsamples = 151\nvalue = [47, 175, 0]\nclass = 1", fillcolor="#39e581bb"] ;
465 -> 466 ;
467 [label="3/1/2017 <= 0.1\nentropy = 0.85\nsamples = 74\nvalue = [30, 79, 0]\nclass = 1", fillcolor="#39e5819e"] ;
466 -> 467 ;
468 [label="39 <= 1.31\nentropy = 0.79\nsamples = 63\nvalue = [22, 70, 0]\nclass = 1", fillcolor="#39e581af"] ;
467 -> 468 ;
469 [label="7/1/2019 <= 0.1\nentropy = 0.74\nsamples = 60\nvalue = [18, 69, 0]\nclass = 1", fillcolor="#39e581bc"] ;
468 -> 469 ;
470 [label="1/1/2019 <= 0.1\nentropy = 0.79\nsamples = 54\nvalue = [18, 58, 0]\nclass = 1", fillcolor="#39e581b0"] ;
469 -> 470 ;
471 [label="10/1/2017 <= 0.3\nentropy = 0.73\nsamples = 43\nvalue = [12, 47, 0]\nclass = 1", fillcolor="#39e581be"] ;
470 -> 471 ;
472 [label="entropy = 0.0\nsamples = 9\nvalue = [12, 0, 0]\nclass = 0", fillcolor="#e58139ff"] ;
471 -> 472 ;
473 [label="entropy = 0.0\nsamples = 34\nvalue = [0, 47, 0]\nclass = 1", fillcolor="#39e581ff"] ;
471 -> 473 ;
474 [label="47 <= 29.16\nentropy = 0.94\nsamples = 11\nvalue = [6, 11, 0]\nclass = 1", fillcolor="#39e58174"] ;
470 -> 474 ;
475 [label="10/1/2017 <= 0.4\nentropy = 0.97\nsamples = 10\nvalue = [6, 9, 0]\nclass = 1", fillcolor="#39e58155"] ;
474 -> 475 ;
476 [label="entropy = 0.0\nsamples = 2\nvalue = [4, 0, 0]\nclass = 0", fillcolor="#e58139ff"] ;
475 -> 476 ;
477 [label="29 <= 1.35\nentropy = 0.68\nsamples = 8\nvalue = [2, 9, 0]\nclass = 1", fillcolor="#39e581c6"] ;
475 -> 477 ;
478 [label="33 <= 1.35\nentropy = 0.97\nsamples = 4\nvalue = [2, 3, 0]\nclass = 1", fillcolor="#39e58155"] ;
477 -> 478 ;
479 [label="58 <= 0.69\nentropy = 1.0\nsamples = 3\nvalue = [2, 2, 0]\nclass = 0", fillcolor="#e5813900"] ;
478 -> 479 ;
480 [label="entropy = 0.0\nsamples = 1\nvalue = [0, 1, 0]\nclass = 1", fillcolor="#39e581ff"] ;
479 -> 480 ;
481 [label="9/1/2019 <= 0.1\nentropy = 0.92\nsamples = 2\nvalue = [2, 1, 0]\nclass = 0", fillcolor="#e581397f"] ;
479 -> 481 ;
482 [label="entropy = 0.0\nsamples = 1\nvalue = [0, 1, 0]\nclass = 1", fillcolor="#39e581ff"] ;
481 -> 482 ;
483 [label="entropy = 0.0\nsamples = 1\nvalue = [2, 0, 0]\nclass = 0", fillcolor="#e58139ff"] ;
481 -> 483 ;
484 [label="entropy = 0.0\nsamples = 1\nvalue = [0, 1, 0]\nclass = 1", fillcolor="#39e581ff"] ;
478 -> 484 ;
485 [label="entropy = 0.0\nsamples = 4\nvalue = [0, 6, 0]\nclass = 1", fillcolor="#39e581ff"] ;
477 -> 485 ;
486 [label="entropy = 0.0\nsamples = 1\nvalue = [0, 2, 0]\nclass = 1", fillcolor="#39e581ff"] ;
474 -> 486 ;
487 [label="entropy = 0.0\nsamples = 6\nvalue = [0, 11, 0]\nclass = 1", fillcolor="#39e581ff"] ;
469 -> 487 ;
488 [label="1/1/2019 <= 0.09\nentropy = 0.72\nsamples = 3\nvalue = [4, 1, 0]\nclass = 0", fillcolor="#e58139bf"] ;
468 -> 488 ;
489 [label="entropy = 0.0\nsamples = 1\nvalue = [0, 1, 0]\nclass = 1", fillcolor="#39e581ff"] ;
488 -> 489 ;
490 [label="entropy = 0.0\nsamples = 2\nvalue = [4, 0, 0]\nclass = 0", fillcolor="#e58139ff"] ;
488 -> 490 ;
491 [label="58 <= 0.69\nentropy = 1.0\nsamples = 11\nvalue = [8, 9, 0]\nclass = 1", fillcolor="#39e5811c"] ;
467 -> 491 ;
492 [label="4/1/2017 <= 0.1\nentropy = 0.99\nsamples = 9\nvalue = [6, 8, 0]\nclass = 1", fillcolor="#39e58140"] ;
491 -> 492 ;
493 [label="entropy = 0.0\nsamples = 3\nvalue = [0, 3, 0]\nclass = 1", fillcolor="#39e581ff"] ;
492 -> 493 ;
494 [label="9/1/2019 <= 0.15\nentropy = 0.99\nsamples = 6\nvalue = [6, 5, 0]\nclass = 0", fillcolor="#e581392a"] ;
492 -> 494 ;
495 [label="entropy = 0.0\nsamples = 3\nvalue = [0, 5, 0]\nclass = 1", fillcolor="#39e581ff"] ;
494 -> 495 ;
496 [label="entropy = 0.0\nsamples = 3\nvalue = [6, 0, 0]\nclass = 0", fillcolor="#e58139ff"] ;
494 -> 496 ;
497 [label="6/1/2017 <= 0.11\nentropy = 0.92\nsamples = 2\nvalue = [2, 1, 0]\nclass = 0", fillcolor="#e581397f"] ;
491 -> 497 ;
498 [label="entropy = 0.0\nsamples = 1\nvalue = [2, 0, 0]\nclass = 0", fillcolor="#e58139ff"] ;
497 -> 498 ;
499 [label="entropy = 0.0\nsamples = 1\nvalue = [0, 1, 0]\nclass = 1", fillcolor="#39e581ff"] ;
497 -> 499 ;
500 [label="39 <= 1.31\nentropy = 0.61\nsamples = 77\nvalue = [17, 96, 0]\nclass = 1", fillcolor="#39e581d2"] ;
466 -> 500 ;
501 [label="2/1/2017 <= 0.11\nentropy = 0.64\nsamples = 71\nvalue = [17, 89, 0]\nclass = 1", fillcolor="#39e581ce"] ;
500 -> 501 ;
502 [label="1/1/2017 <= 0.11\nentropy = 0.37\nsamples = 32\nvalue = [3, 40, 0]\nclass = 1", fillcolor="#39e581ec"] ;
501 -> 502 ;
503 [label="33 <= 1.35\nentropy = 0.41\nsamples = 27\nvalue = [3, 33, 0]\nclass = 1", fillcolor="#39e581e8"] ;
502 -> 503 ;
504 [label="7/1/2017 <= 0.11\nentropy = 0.24\nsamples = 20\nvalue = [1, 25, 0]\nclass = 1", fillcolor="#39e581f5"] ;
503 -> 504 ;
505 [label="entropy = 0.0\nsamples = 14\nvalue = [0, 18, 0]\nclass = 1", fillcolor="#39e581ff"] ;
504 -> 505 ;
506 [label="41 <= 1.32\nentropy = 0.54\nsamples = 6\nvalue = [1, 7, 0]\nclass = 1", fillcolor="#39e581db"] ;
504 -> 506 ;
507 [label="29 <= 1.35\nentropy = 0.92\nsamples = 3\nvalue = [1, 2, 0]\nclass = 1", fillcolor="#39e5817f"] ;
506 -> 507 ;
508 [label="entropy = 0.0\nsamples = 1\nvalue = [0, 1, 0]\nclass = 1", fillcolor="#39e581ff"] ;
507 -> 508 ;
509 [label="11/1/2017 <= 0.62\nentropy = 1.0\nsamples = 2\nvalue = [1, 1, 0]\nclass = 0", fillcolor="#e5813900"] ;
507 -> 509 ;
510 [label="entropy = 0.0\nsamples = 1\nvalue = [0, 1, 0]\nclass = 1", fillcolor="#39e581ff"] ;
509 -> 510 ;
511 [label="entropy = 0.0\nsamples = 1\nvalue = [1, 0, 0]\nclass = 0", fillcolor="#e58139ff"] ;
509 -> 511 ;
512 [label="entropy = 0.0\nsamples = 3\nvalue = [0, 5, 0]\nclass = 1", fillcolor="#39e581ff"] ;
506 -> 512 ;
513 [label="9/1/2019 <= 0.15\nentropy = 0.72\nsamples = 7\nvalue = [2, 8, 0]\nclass = 1", fillcolor="#39e581bf"] ;
503 -> 513 ;
514 [label="entropy = 0.0\nsamples = 6\nvalue = [0, 8, 0]\nclass = 1", fillcolor="#39e581ff"] ;
513 -> 514 ;
515 [label="entropy = 0.0\nsamples = 1\nvalue = [2, 0, 0]\nclass = 0", fillcolor="#e58139ff"] ;
513 -> 515 ;
516 [label="entropy = 0.0\nsamples = 5\nvalue = [0, 7, 0]\nclass = 1", fillcolor="#39e581ff"] ;
502 -> 516 ;
517 [label="3/1/2017 <= 0.11\nentropy = 0.76\nsamples = 39\nvalue = [14, 49, 0]\nclass = 1", fillcolor="#39e581b6"] ;
501 -> 517 ;
518 [label="52 <= -0.41\nentropy = 1.0\nsamples = 3\nvalue = [2, 2, 0]\nclass = 0", fillcolor="#e5813900"] ;
517 -> 518 ;
519 [label="entropy = 0.0\nsamples = 1\nvalue = [0, 1, 0]\nclass = 1", fillcolor="#39e581ff"] ;
518 -> 519 ;
520 [label="31 <= 1.32\nentropy = 0.92\nsamples = 2\nvalue = [2, 1, 0]\nclass = 0", fillcolor="#e581397f"] ;
518 -> 520 ;
521 [label="entropy = 0.0\nsamples = 1\nvalue = [0, 1, 0]\nclass = 1", fillcolor="#39e581ff"] ;
520 -> 521 ;
522 [label="entropy = 0.0\nsamples = 1\nvalue = [2, 0, 0]\nclass = 0", fillcolor="#e58139ff"] ;
520 -> 522 ;
523 [label="9/1/2017 <= 0.2\nentropy = 0.73\nsamples = 36\nvalue = [12, 47, 0]\nclass = 1", fillcolor="#39e581be"] ;
517 -> 523 ;
524 [label="4/1/2019 <= 0.12\nentropy = 0.64\nsamples = 35\nvalue = [9, 47, 0]\nclass = 1", fillcolor="#39e581ce"] ;
523 -> 524 ;
525 [label="1/1/2017 <= 0.12\nentropy = 0.67\nsamples = 27\nvalue = [7, 33, 0]\nclass = 1", fillcolor="#39e581c9"] ;
524 -> 525 ;
526 [label="33 <= 1.35\nentropy = 0.61\nsamples = 17\nvalue = [4, 23, 0]\nclass = 1", fillcolor="#39e581d3"] ;
525 -> 526 ;
527 [label="11/1/2017 <= 0.75\nentropy = 0.65\nsamples = 10\nvalue = [3, 15, 0]\nclass = 1", fillcolor="#39e581cc"] ;
526 -> 527 ;
528 [label="11/1/2017 <= 0.69\nentropy = 0.88\nsamples = 7\nvalue = [3, 7, 0]\nclass = 1", fillcolor="#39e58192"] ;
527 -> 528 ;
529 [label="3/1/2019 <= 0.11\nentropy = 0.59\nsamples = 5\nvalue = [1, 6, 0]\nclass = 1", fillcolor="#39e581d4"] ;
528 -> 529 ;
530 [label="31 <= 1.32\nentropy = 0.72\nsamples = 4\nvalue = [1, 4, 0]\nclass = 1", fillcolor="#39e581bf"] ;
529 -> 530 ;
531 [label="9/1/2019 <= 0.23\nentropy = 0.81\nsamples = 3\nvalue = [1, 3, 0]\nclass = 1", fillcolor="#39e581aa"] ;
530 -> 531 ;
532 [label="entropy = 0.0\nsamples = 2\nvalue = [0, 3, 0]\nclass = 1", fillcolor="#39e581ff"] ;
531 -> 532 ;
533 [label="entropy = 0.0\nsamples = 1\nvalue = [1, 0, 0]\nclass = 0", fillcolor="#e58139ff"] ;
531 -> 533 ;
534 [label="entropy = 0.0\nsamples = 1\nvalue = [0, 1, 0]\nclass = 1", fillcolor="#39e581ff"] ;
530 -> 534 ;
535 [label="entropy = 0.0\nsamples = 1\nvalue = [0, 2, 0]\nclass = 1", fillcolor="#39e581ff"] ;
529 -> 535 ;
536 [label="29 <= 1.35\nentropy = 0.92\nsamples = 2\nvalue = [2, 1, 0]\nclass = 0", fillcolor="#e581397f"] ;
528 -> 536 ;
537 [label="entropy = 0.0\nsamples = 1\nvalue = [2, 0, 0]\nclass = 0", fillcolor="#e58139ff"] ;
536 -> 537 ;
538 [label="entropy = 0.0\nsamples = 1\nvalue = [0, 1, 0]\nclass = 1", fillcolor="#39e581ff"] ;
536 -> 538 ;
539 [label="entropy = 0.0\nsamples = 3\nvalue = [0, 8, 0]\nclass = 1", fillcolor="#39e581ff"] ;
527 -> 539 ;
540 [label="3/1/2017 <= 0.11\nentropy = 0.5\nsamples = 7\nvalue = [1, 8, 0]\nclass = 1", fillcolor="#39e581df"] ;
526 -> 540 ;
541 [label="entropy = 0.0\nsamples = 5\nvalue = [0, 5, 0]\nclass = 1", fillcolor="#39e581ff"] ;
540 -> 541 ;
542 [label="10/1/2017 <= 0.37\nentropy = 0.81\nsamples = 2\nvalue = [1, 3, 0]\nclass = 1", fillcolor="#39e581aa"] ;
540 -> 542 ;
543 [label="entropy = 0.0\nsamples = 1\nvalue = [1, 0, 0]\nclass = 0", fillcolor="#e58139ff"] ;
542 -> 543 ;
544 [label="entropy = 0.0\nsamples = 1\nvalue = [0, 3, 0]\nclass = 1", fillcolor="#39e581ff"] ;
542 -> 544 ;
545 [label="59 <= 37.65\nentropy = 0.78\nsamples = 10\nvalue = [3, 10, 0]\nclass = 1", fillcolor="#39e581b3"] ;
525 -> 545 ;
546 [label="52 <= -0.41\nentropy = 0.81\nsamples = 9\nvalue = [3, 9, 0]\nclass = 1", fillcolor="#39e581aa"] ;
545 -> 546 ;
547 [label="entropy = 0.0\nsamples = 1\nvalue = [0, 2, 0]\nclass = 1", fillcolor="#39e581ff"] ;
546 -> 547 ;
548 [label="9/1/2019 <= 0.21\nentropy = 0.88\nsamples = 8\nvalue = [3, 7, 0]\nclass = 1", fillcolor="#39e58192"] ;
546 -> 548 ;
549 [label="entropy = 0.0\nsamples = 6\nvalue = [0, 7, 0]\nclass = 1", fillcolor="#39e581ff"] ;
548 -> 549 ;
550 [label="entropy = 0.0\nsamples = 2\nvalue = [3, 0, 0]\nclass = 0", fillcolor="#e58139ff"] ;
548 -> 550 ;
551 [label="entropy = 0.0\nsamples = 1\nvalue = [0, 1, 0]\nclass = 1", fillcolor="#39e581ff"] ;
545 -> 551 ;
552 [label="5/1/2019 <= 0.12\nentropy = 0.54\nsamples = 8\nvalue = [2, 14, 0]\nclass = 1", fillcolor="#39e581db"] ;
524 -> 552 ;
553 [label="entropy = 0.0\nsamples = 1\nvalue = [0, 1, 0]\nclass = 1", fillcolor="#39e581ff"] ;
552 -> 553 ;
554 [label="31 <= 1.32\nentropy = 0.57\nsamples = 7\nvalue = [2, 13, 0]\nclass = 1", fillcolor="#39e581d8"] ;
552 -> 554 ;
555 [label="33 <= 1.35\nentropy = 0.59\nsamples = 6\nvalue = [2, 12, 0]\nclass = 1", fillcolor="#39e581d4"] ;
554 -> 555 ;
556 [label="entropy = 0.0\nsamples = 4\nvalue = [0, 10, 0]\nclass = 1", fillcolor="#39e581ff"] ;
555 -> 556 ;
557 [label="9/1/2019 <= 0.14\nentropy = 1.0\nsamples = 2\nvalue = [2, 2, 0]\nclass = 0", fillcolor="#e5813900"] ;
555 -> 557 ;
558 [label="entropy = 0.0\nsamples = 1\nvalue = [0, 2, 0]\nclass = 1", fillcolor="#39e581ff"] ;
557 -> 558 ;
559 [label="entropy = 0.0\nsamples = 1\nvalue = [2, 0, 0]\nclass = 0", fillcolor="#e58139ff"] ;
557 -> 559 ;
560 [label="entropy = 0.0\nsamples = 1\nvalue = [0, 1, 0]\nclass = 1", fillcolor="#39e581ff"] ;
554 -> 560 ;
561 [label="entropy = 0.0\nsamples = 1\nvalue = [3, 0, 0]\nclass = 0", fillcolor="#e58139ff"] ;
523 -> 561 ;
562 [label="entropy = 0.0\nsamples = 6\nvalue = [0, 7, 0]\nclass = 1", fillcolor="#39e581ff"] ;
500 -> 562 ;
563 [label="entropy = 0.0\nsamples = 1\nvalue = [2, 0, 0]\nclass = 0", fillcolor="#e58139ff"] ;
465 -> 563 ;
564 [label="entropy = 0.0\nsamples = 3\nvalue = [0, 5, 0]\nclass = 1", fillcolor="#39e581ff"] ;
464 -> 564 ;
565 [label="entropy = 0.0\nsamples = 5\nvalue = [8, 0, 0]\nclass = 0", fillcolor="#e58139ff"] ;
463 -> 565 ;
566 [label="entropy = 0.0\nsamples = 1\nvalue = [1, 0, 0]\nclass = 0", fillcolor="#e58139ff"] ;
462 -> 566 ;
567 [label="5/1/2019 <= 0.1\nentropy = 0.19\nsamples = 22\nvalue = [1, 34, 0]\nclass = 1", fillcolor="#39e581f8"] ;
461 -> 567 ;
568 [label="7/1/2019 <= 0.09\nentropy = 0.47\nsamples = 8\nvalue = [1, 9, 0]\nclass = 1", fillcolor="#39e581e3"] ;
567 -> 568 ;
569 [label="entropy = 0.0\nsamples = 4\nvalue = [0, 5, 0]\nclass = 1", fillcolor="#39e581ff"] ;
568 -> 569 ;
570 [label="41 <= 1.32\nentropy = 0.72\nsamples = 4\nvalue = [1, 4, 0]\nclass = 1", fillcolor="#39e581bf"] ;
568 -> 570 ;
571 [label="35 <= 1.46\nentropy = 1.0\nsamples = 2\nvalue = [1, 1, 0]\nclass = 0", fillcolor="#e5813900"] ;
570 -> 571 ;
572 [label="entropy = 0.0\nsamples = 1\nvalue = [0, 1, 0]\nclass = 1", fillcolor="#39e581ff"] ;
571 -> 572 ;
573 [label="entropy = 0.0\nsamples = 1\nvalue = [1, 0, 0]\nclass = 0", fillcolor="#e58139ff"] ;
571 -> 573 ;
574 [label="entropy = 0.0\nsamples = 2\nvalue = [0, 3, 0]\nclass = 1", fillcolor="#39e581ff"] ;
570 -> 574 ;
575 [label="entropy = 0.0\nsamples = 14\nvalue = [0, 25, 0]\nclass = 1", fillcolor="#39e581ff"] ;
567 -> 575 ;
576 [label="entropy = 0.0\nsamples = 3\nvalue = [0, 7, 0]\nclass = 1", fillcolor="#39e581ff"] ;
460 -> 576 ;
577 [label="entropy = 0.0\nsamples = 2\nvalue = [2, 0, 0]\nclass = 0", fillcolor="#e58139ff"] ;
447 -> 577 ;
578 [label="entropy = 0.0\nsamples = 2\nvalue = [3, 0, 0]\nclass = 0", fillcolor="#e58139ff"] ;
404 -> 578 ;
579 [label="entropy = 0.0\nsamples = 1\nvalue = [0, 3, 0]\nclass = 1", fillcolor="#39e581ff"] ;
403 -> 579 ;
580 [label="52 <= -0.41\nentropy = 0.96\nsamples = 11\nvalue = [11, 7, 0]\nclass = 0", fillcolor="#e581395d"] ;
402 -> 580 ;
581 [label="2/1/2019 <= 0.12\nentropy = 0.86\nsamples = 5\nvalue = [2, 5, 0]\nclass = 1", fillcolor="#39e58199"] ;
580 -> 581 ;
582 [label="entropy = 0.0\nsamples = 3\nvalue = [0, 4, 0]\nclass = 1", fillcolor="#39e581ff"] ;
581 -> 582 ;
583 [label="33 <= 1.35\nentropy = 0.92\nsamples = 2\nvalue = [2, 1, 0]\nclass = 0", fillcolor="#e581397f"] ;
581 -> 583 ;
584 [label="entropy = 0.0\nsamples = 1\nvalue = [2, 0, 0]\nclass = 0", fillcolor="#e58139ff"] ;
583 -> 584 ;
585 [label="entropy = 0.0\nsamples = 1\nvalue = [0, 1, 0]\nclass = 1", fillcolor="#39e581ff"] ;
583 -> 585 ;
586 [label="11/1/2017 <= 0.71\nentropy = 0.68\nsamples = 6\nvalue = [9, 2, 0]\nclass = 0", fillcolor="#e58139c6"] ;
580 -> 586 ;
587 [label="3/1/2017 <= 0.09\nentropy = 0.97\nsamples = 3\nvalue = [3, 2, 0]\nclass = 0", fillcolor="#e5813955"] ;
586 -> 587 ;
588 [label="entropy = 0.0\nsamples = 1\nvalue = [3, 0, 0]\nclass = 0", fillcolor="#e58139ff"] ;
587 -> 588 ;
589 [label="entropy = 0.0\nsamples = 2\nvalue = [0, 2, 0]\nclass = 1", fillcolor="#39e581ff"] ;
587 -> 589 ;
590 [label="entropy = 0.0\nsamples = 3\nvalue = [6, 0, 0]\nclass = 0", fillcolor="#e58139ff"] ;
586 -> 590 ;
591 [label="entropy = 0.0\nsamples = 9\nvalue = [21, 0, 0]\nclass = 0", fillcolor="#e58139ff"] ;
401 -> 591 ;
592 [label="11/1/2017 <= 0.82\nentropy = 0.65\nsamples = 269\nvalue = [67, 362, 1]\nclass = 1", fillcolor="#39e581cf"] ;
396 -> 592 ;
593 [label="4/1/2019 <= 0.12\nentropy = 0.18\nsamples = 66\nvalue = [3, 108, 0]\nclass = 1", fillcolor="#39e581f8"] ;
592 -> 593 ;
594 [label="3/1/2017 <= 0.09\nentropy = 0.86\nsamples = 5\nvalue = [2, 5, 0]\nclass = 1", fillcolor="#39e58199"] ;
593 -> 594 ;
595 [label="entropy = 0.0\nsamples = 1\nvalue = [1, 0, 0]\nclass = 0", fillcolor="#e58139ff"] ;
594 -> 595 ;
596 [label="8/1/2017 <= 0.07\nentropy = 0.65\nsamples = 4\nvalue = [1, 5, 0]\nclass = 1", fillcolor="#39e581cc"] ;
594 -> 596 ;
597 [label="entropy = 0.0\nsamples = 1\nvalue = [1, 0, 0]\nclass = 0", fillcolor="#e58139ff"] ;
596 -> 597 ;
598 [label="entropy = 0.0\nsamples = 3\nvalue = [0, 5, 0]\nclass = 1", fillcolor="#39e581ff"] ;
596 -> 598 ;
599 [label="5/1/2017 <= 0.17\nentropy = 0.08\nsamples = 61\nvalue = [1, 103, 0]\nclass = 1", fillcolor="#39e581fd"] ;
593 -> 599 ;
600 [label="entropy = 0.0\nsamples = 44\nvalue = [0, 78, 0]\nclass = 1", fillcolor="#39e581ff"] ;
599 -> 600 ;
601 [label="4/1/2019 <= 0.17\nentropy = 0.24\nsamples = 17\nvalue = [1, 25, 0]\nclass = 1", fillcolor="#39e581f5"] ;
599 -> 601 ;
602 [label="entropy = 0.0\nsamples = 1\nvalue = [1, 0, 0]\nclass = 0", fillcolor="#e58139ff"] ;
601 -> 602 ;
603 [label="entropy = 0.0\nsamples = 16\nvalue = [0, 25, 0]\nclass = 1", fillcolor="#39e581ff"] ;
601 -> 603 ;
604 [label="43 <= 5.89\nentropy = 0.75\nsamples = 203\nvalue = [64, 254, 1]\nclass = 1", fillcolor="#39e581be"] ;
592 -> 604 ;
605 [label="8/1/2017 <= 0.13\nentropy = 0.7\nsamples = 195\nvalue = [55, 254, 1]\nclass = 1", fillcolor="#39e581c7"] ;
604 -> 605 ;
606 [label="1/1/2017 <= 0.14\nentropy = 0.28\nsamples = 13\nvalue = [0, 20, 1]\nclass = 1", fillcolor="#39e581f2"] ;
605 -> 606 ;
607 [label="entropy = 0.0\nsamples = 10\nvalue = [0, 18, 0]\nclass = 1", fillcolor="#39e581ff"] ;
606 -> 607 ;
608 [label="3/1/2019 <= 0.17\nentropy = 0.92\nsamples = 3\nvalue = [0, 2, 1]\nclass = 1", fillcolor="#39e5817f"] ;
606 -> 608 ;
609 [label="entropy = 0.0\nsamples = 1\nvalue = [0, 0, 1]\nclass = 2", fillcolor="#8139e5ff"] ;
608 -> 609 ;
610 [label="entropy = 0.0\nsamples = 2\nvalue = [0, 2, 0]\nclass = 1", fillcolor="#39e581ff"] ;
608 -> 610 ;
611 [label="5/1/2017 <= 0.16\nentropy = 0.7\nsamples = 182\nvalue = [55, 234, 0]\nclass = 1", fillcolor="#39e581c3"] ;
605 -> 611 ;
612 [label="8/1/2017 <= 0.2\nentropy = 0.86\nsamples = 75\nvalue = [33, 82, 0]\nclass = 1", fillcolor="#39e58198"] ;
611 -> 612 ;
613 [label="6/1/2019 <= 0.13\nentropy = 0.84\nsamples = 74\nvalue = [30, 82, 0]\nclass = 1", fillcolor="#39e581a2"] ;
612 -> 613 ;
614 [label="27 <= 1.33\nentropy = 0.72\nsamples = 3\nvalue = [4, 1, 0]\nclass = 0", fillcolor="#e58139bf"] ;
613 -> 614 ;
615 [label="56 <= 2.42\nentropy = 0.92\nsamples = 2\nvalue = [2, 1, 0]\nclass = 0", fillcolor="#e581397f"] ;
614 -> 615 ;
616 [label="entropy = 0.0\nsamples = 1\nvalue = [2, 0, 0]\nclass = 0", fillcolor="#e58139ff"] ;
615 -> 616 ;
617 [label="entropy = 0.0\nsamples = 1\nvalue = [0, 1, 0]\nclass = 1", fillcolor="#39e581ff"] ;
615 -> 617 ;
618 [label="entropy = 0.0\nsamples = 1\nvalue = [2, 0, 0]\nclass = 0", fillcolor="#e58139ff"] ;
614 -> 618 ;
619 [label="2/1/2017 <= 0.13\nentropy = 0.8\nsamples = 71\nvalue = [26, 81, 0]\nclass = 1", fillcolor="#39e581ad"] ;
613 -> 619 ;
620 [label="entropy = 0.0\nsamples = 5\nvalue = [0, 12, 0]\nclass = 1", fillcolor="#39e581ff"] ;
619 -> 620 ;
621 [label="5/1/2019 <= 0.15\nentropy = 0.85\nsamples = 66\nvalue = [26, 69, 0]\nclass = 1", fillcolor="#39e5819f"] ;
619 -> 621 ;
622 [label="29 <= 1.35\nentropy = 0.78\nsamples = 57\nvalue = [19, 63, 0]\nclass = 1", fillcolor="#39e581b2"] ;
621 -> 622 ;
623 [label="3/1/2017 <= 0.14\nentropy = 0.84\nsamples = 48\nvalue = [19, 51, 0]\nclass = 1", fillcolor="#39e581a0"] ;
622 -> 623 ;
624 [label="7/1/2017 <= 0.13\nentropy = 1.0\nsamples = 12\nvalue = [11, 10, 0]\nclass = 0", fillcolor="#e5813917"] ;
623 -> 624 ;
625 [label="33 <= 1.35\nentropy = 0.92\nsamples = 10\nvalue = [5, 10, 0]\nclass = 1", fillcolor="#39e5817f"] ;
624 -> 625 ;
626 [label="2/1/2019 <= 0.13\nentropy = 0.99\nsamples = 6\nvalue = [4, 5, 0]\nclass = 1", fillcolor="#39e58133"] ;
625 -> 626 ;
627 [label="41 <= 1.32\nentropy = 0.92\nsamples = 5\nvalue = [4, 2, 0]\nclass = 0", fillcolor="#e581397f"] ;
626 -> 627 ;
628 [label="6/1/2019 <= 0.13\nentropy = 0.72\nsamples = 4\nvalue = [4, 1, 0]\nclass = 0", fillcolor="#e58139bf"] ;
627 -> 628 ;
629 [label="37 <= 1.41\nentropy = 0.81\nsamples = 3\nvalue = [3, 1, 0]\nclass = 0", fillcolor="#e58139aa"] ;
628 -> 629 ;
630 [label="10/1/2017 <= 1.2\nentropy = 1.0\nsamples = 2\nvalue = [1, 1, 0]\nclass = 0", fillcolor="#e5813900"] ;
629 -> 630 ;
631 [label="entropy = 0.0\nsamples = 1\nvalue = [0, 1, 0]\nclass = 1", fillcolor="#39e581ff"] ;
630 -> 631 ;
632 [label="entropy = 0.0\nsamples = 1\nvalue = [1, 0, 0]\nclass = 0", fillcolor="#e58139ff"] ;
630 -> 632 ;
633 [label="entropy = 0.0\nsamples = 1\nvalue = [2, 0, 0]\nclass = 0", fillcolor="#e58139ff"] ;
629 -> 633 ;
634 [label="entropy = 0.0\nsamples = 1\nvalue = [1, 0, 0]\nclass = 0", fillcolor="#e58139ff"] ;
628 -> 634 ;
635 [label="entropy = 0.0\nsamples = 1\nvalue = [0, 1, 0]\nclass = 1", fillcolor="#39e581ff"] ;
627 -> 635 ;
636 [label="entropy = 0.0\nsamples = 1\nvalue = [0, 3, 0]\nclass = 1", fillcolor="#39e581ff"] ;
626 -> 636 ;
637 [label="7/1/2019 <= 0.13\nentropy = 0.65\nsamples = 4\nvalue = [1, 5, 0]\nclass = 1", fillcolor="#39e581cc"] ;
625 -> 637 ;
638 [label="entropy = 0.0\nsamples = 2\nvalue = [0, 4, 0]\nclass = 1", fillcolor="#39e581ff"] ;
637 -> 638 ;
639 [label="10/1/2017 <= 0.54\nentropy = 1.0\nsamples = 2\nvalue = [1, 1, 0]\nclass = 0", fillcolor="#e5813900"] ;
637 -> 639 ;
640 [label="entropy = 0.0\nsamples = 1\nvalue = [1, 0, 0]\nclass = 0", fillcolor="#e58139ff"] ;
639 -> 640 ;
641 [label="entropy = 0.0\nsamples = 1\nvalue = [0, 1, 0]\nclass = 1", fillcolor="#39e581ff"] ;
639 -> 641 ;
642 [label="entropy = 0.0\nsamples = 2\nvalue = [6, 0, 0]\nclass = 0", fillcolor="#e58139ff"] ;
624 -> 642 ;
643 [label="1/1/2019 <= 0.15\nentropy = 0.64\nsamples = 36\nvalue = [8, 41, 0]\nclass = 1", fillcolor="#39e581cd"] ;
623 -> 643 ;
644 [label="9/1/2019 <= 0.21\nentropy = 0.75\nsamples = 28\nvalue = [8, 29, 0]\nclass = 1", fillcolor="#39e581b9"] ;
643 -> 644 ;
645 [label="3/1/2019 <= 0.14\nentropy = 0.22\nsamples = 23\nvalue = [1, 28, 0]\nclass = 1", fillcolor="#39e581f6"] ;
644 -> 645 ;
646 [label="entropy = 0.0\nsamples = 14\nvalue = [0, 19, 0]\nclass = 1", fillcolor="#39e581ff"] ;
645 -> 646 ;
647 [label="4/1/2019 <= 0.14\nentropy = 0.47\nsamples = 9\nvalue = [1, 9, 0]\nclass = 1", fillcolor="#39e581e3"] ;
645 -> 647 ;
648 [label="39 <= 1.31\nentropy = 0.72\nsamples = 5\nvalue = [1, 4, 0]\nclass = 1", fillcolor="#39e581bf"] ;
647 -> 648 ;
649 [label="entropy = 0.0\nsamples = 4\nvalue = [0, 4, 0]\nclass = 1", fillcolor="#39e581ff"] ;
648 -> 649 ;
650 [label="entropy = 0.0\nsamples = 1\nvalue = [1, 0, 0]\nclass = 0", fillcolor="#e58139ff"] ;
648 -> 650 ;
651 [label="entropy = 0.0\nsamples = 4\nvalue = [0, 5, 0]\nclass = 1", fillcolor="#39e581ff"] ;
647 -> 651 ;
652 [label="31 <= 1.32\nentropy = 0.54\nsamples = 5\nvalue = [7, 1, 0]\nclass = 0", fillcolor="#e58139db"] ;
644 -> 652 ;
653 [label="entropy = 0.0\nsamples = 4\nvalue = [7, 0, 0]\nclass = 0", fillcolor="#e58139ff"] ;
652 -> 653 ;
654 [label="entropy = 0.0\nsamples = 1\nvalue = [0, 1, 0]\nclass = 1", fillcolor="#39e581ff"] ;
652 -> 654 ;
655 [label="entropy = 0.0\nsamples = 8\nvalue = [0, 12, 0]\nclass = 1", fillcolor="#39e581ff"] ;
643 -> 655 ;
656 [label="entropy = 0.0\nsamples = 9\nvalue = [0, 12, 0]\nclass = 1", fillcolor="#39e581ff"] ;
622 -> 656 ;
657 [label="9/1/2019 <= 0.1\nentropy = 1.0\nsamples = 9\nvalue = [7, 6, 0]\nclass = 0", fillcolor="#e5813924"] ;
621 -> 657 ;
658 [label="entropy = 0.0\nsamples = 2\nvalue = [0, 3, 0]\nclass = 1", fillcolor="#39e581ff"] ;
657 -> 658 ;
659 [label="3/1/2017 <= 0.15\nentropy = 0.88\nsamples = 7\nvalue = [7, 3, 0]\nclass = 0", fillcolor="#e5813992"] ;
657 -> 659 ;
660 [label="entropy = 0.0\nsamples = 2\nvalue = [5, 0, 0]\nclass = 0", fillcolor="#e58139ff"] ;
659 -> 660 ;
661 [label="52 <= -0.41\nentropy = 0.97\nsamples = 5\nvalue = [2, 3, 0]\nclass = 1", fillcolor="#39e58155"] ;
659 -> 661 ;
662 [label="entropy = 0.0\nsamples = 1\nvalue = [1, 0, 0]\nclass = 0", fillcolor="#e58139ff"] ;
661 -> 662 ;
663 [label="13 <= 9.0\nentropy = 0.81\nsamples = 4\nvalue = [1, 3, 0]\nclass = 1", fillcolor="#39e581aa"] ;
661 -> 663 ;
664 [label="11/1/2017 <= 1.39\nentropy = 0.92\nsamples = 3\nvalue = [1, 2, 0]\nclass = 1", fillcolor="#39e5817f"] ;
663 -> 664 ;
665 [label="entropy = 0.0\nsamples = 2\nvalue = [0, 2, 0]\nclass = 1", fillcolor="#39e581ff"] ;
664 -> 665 ;
666 [label="entropy = 0.0\nsamples = 1\nvalue = [1, 0, 0]\nclass = 0", fillcolor="#e58139ff"] ;
664 -> 666 ;
667 [label="entropy = 0.0\nsamples = 1\nvalue = [0, 1, 0]\nclass = 1", fillcolor="#39e581ff"] ;
663 -> 667 ;
668 [label="entropy = 0.0\nsamples = 1\nvalue = [3, 0, 0]\nclass = 0", fillcolor="#e58139ff"] ;
612 -> 668 ;
669 [label="6/1/2019 <= 0.16\nentropy = 0.55\nsamples = 107\nvalue = [22, 152, 0]\nclass = 1", fillcolor="#39e581da"] ;
611 -> 669 ;
670 [label="entropy = 0.0\nsamples = 7\nvalue = [0, 12, 0]\nclass = 1", fillcolor="#39e581ff"] ;
669 -> 670 ;
671 [label="33 <= 1.35\nentropy = 0.57\nsamples = 100\nvalue = [22, 140, 0]\nclass = 1", fillcolor="#39e581d7"] ;
669 -> 671 ;
672 [label="45 <= 6.19\nentropy = 0.6\nsamples = 84\nvalue = [20, 116, 0]\nclass = 1", fillcolor="#39e581d3"] ;
671 -> 672 ;
673 [label="2/1/2019 <= 0.19\nentropy = 0.55\nsamples = 80\nvalue = [17, 115, 0]\nclass = 1", fillcolor="#39e581d9"] ;
672 -> 673 ;
674 [label="9/1/2017 <= 0.16\nentropy = 0.63\nsamples = 57\nvalue = [15, 79, 0]\nclass = 1", fillcolor="#39e581cf"] ;
673 -> 674 ;
675 [label="entropy = 0.0\nsamples = 6\nvalue = [0, 11, 0]\nclass = 1", fillcolor="#39e581ff"] ;
674 -> 675 ;
676 [label="5/1/2017 <= 0.16\nentropy = 0.68\nsamples = 51\nvalue = [15, 68, 0]\nclass = 1", fillcolor="#39e581c7"] ;
674 -> 676 ;
677 [label="52 <= -0.41\nentropy = 0.99\nsamples = 4\nvalue = [3, 4, 0]\nclass = 1", fillcolor="#39e58140"] ;
676 -> 677 ;
678 [label="entropy = 0.0\nsamples = 1\nvalue = [1, 0, 0]\nclass = 0", fillcolor="#e58139ff"] ;
677 -> 678 ;
679 [label="10/1/2017 <= 0.3\nentropy = 0.92\nsamples = 3\nvalue = [2, 4, 0]\nclass = 1", fillcolor="#39e5817f"] ;
677 -> 679 ;
680 [label="entropy = 0.0\nsamples = 1\nvalue = [2, 0, 0]\nclass = 0", fillcolor="#e58139ff"] ;
679 -> 680 ;
681 [label="entropy = 0.0\nsamples = 2\nvalue = [0, 4, 0]\nclass = 1", fillcolor="#39e581ff"] ;
679 -> 681 ;
682 [label="9/1/2019 <= 0.18\nentropy = 0.63\nsamples = 47\nvalue = [12, 64, 0]\nclass = 1", fillcolor="#39e581cf"] ;
676 -> 682 ;
683 [label="entropy = 0.0\nsamples = 25\nvalue = [0, 37, 0]\nclass = 1", fillcolor="#39e581ff"] ;
682 -> 683 ;
684 [label="2/1/2019 <= 0.17\nentropy = 0.89\nsamples = 22\nvalue = [12, 27, 0]\nclass = 1", fillcolor="#39e5818e"] ;
682 -> 684 ;
685 [label="4/1/2017 <= 0.17\nentropy = 0.72\nsamples = 3\nvalue = [4, 1, 0]\nclass = 0", fillcolor="#e58139bf"] ;
684 -> 685 ;
686 [label="entropy = 0.0\nsamples = 1\nvalue = [0, 1, 0]\nclass = 1", fillcolor="#39e581ff"] ;
685 -> 686 ;
687 [label="entropy = 0.0\nsamples = 2\nvalue = [4, 0, 0]\nclass = 0", fillcolor="#e58139ff"] ;
685 -> 687 ;
688 [label="27 <= 1.33\nentropy = 0.79\nsamples = 19\nvalue = [8, 26, 0]\nclass = 1", fillcolor="#39e581b1"] ;
684 -> 688 ;
689 [label="11/1/2017 <= 1.1\nentropy = 0.75\nsamples = 18\nvalue = [7, 26, 0]\nclass = 1", fillcolor="#39e581ba"] ;
688 -> 689 ;
690 [label="entropy = 0.0\nsamples = 3\nvalue = [0, 8, 0]\nclass = 1", fillcolor="#39e581ff"] ;
689 -> 690 ;
691 [label="7/1/2017 <= 0.17\nentropy = 0.86\nsamples = 15\nvalue = [7, 18, 0]\nclass = 1", fillcolor="#39e5819c"] ;
689 -> 691 ;
692 [label="entropy = 0.0\nsamples = 2\nvalue = [0, 4, 0]\nclass = 1", fillcolor="#39e581ff"] ;
691 -> 692 ;
693 [label="10/1/2017 <= 0.4\nentropy = 0.92\nsamples = 13\nvalue = [7, 14, 0]\nclass = 1", fillcolor="#39e5817f"] ;
691 -> 693 ;
694 [label="29 <= 1.35\nentropy = 0.54\nsamples = 7\nvalue = [7, 1, 0]\nclass = 0", fillcolor="#e58139db"] ;
693 -> 694 ;
695 [label="entropy = 0.0\nsamples = 5\nvalue = [6, 0, 0]\nclass = 0", fillcolor="#e58139ff"] ;
694 -> 695 ;
696 [label="1/1/2019 <= 0.18\nentropy = 1.0\nsamples = 2\nvalue = [1, 1, 0]\nclass = 0", fillcolor="#e5813900"] ;
694 -> 696 ;
697 [label="entropy = 0.0\nsamples = 1\nvalue = [1, 0, 0]\nclass = 0", fillcolor="#e58139ff"] ;
696 -> 697 ;
698 [label="entropy = 0.0\nsamples = 1\nvalue = [0, 1, 0]\nclass = 1", fillcolor="#39e581ff"] ;
696 -> 698 ;
699 [label="entropy = 0.0\nsamples = 6\nvalue = [0, 13, 0]\nclass = 1", fillcolor="#39e581ff"] ;
693 -> 699 ;
700 [label="entropy = 0.0\nsamples = 1\nvalue = [1, 0, 0]\nclass = 0", fillcolor="#e58139ff"] ;
688 -> 700 ;
701 [label="58 <= 0.69\nentropy = 0.3\nsamples = 23\nvalue = [2, 36, 0]\nclass = 1", fillcolor="#39e581f1"] ;
673 -> 701 ;
702 [label="9/1/2019 <= 0.31\nentropy = 0.24\nsamples = 15\nvalue = [1, 25, 0]\nclass = 1", fillcolor="#39e581f5"] ;
701 -> 702 ;
703 [label="entropy = 0.0\nsamples = 14\nvalue = [0, 25, 0]\nclass = 1", fillcolor="#39e581ff"] ;
702 -> 703 ;
704 [label="entropy = 0.0\nsamples = 1\nvalue = [1, 0, 0]\nclass = 0", fillcolor="#e58139ff"] ;
702 -> 704 ;
705 [label="8/1/2019 <= 0.06\nentropy = 0.41\nsamples = 8\nvalue = [1, 11, 0]\nclass = 1", fillcolor="#39e581e8"] ;
701 -> 705 ;
706 [label="entropy = 0.0\nsamples = 5\nvalue = [0, 8, 0]\nclass = 1", fillcolor="#39e581ff"] ;
705 -> 706 ;
707 [label="2/1/2017 <= 0.22\nentropy = 0.81\nsamples = 3\nvalue = [1, 3, 0]\nclass = 1", fillcolor="#39e581aa"] ;
705 -> 707 ;
708 [label="9/1/2019 <= 0.14\nentropy = 1.0\nsamples = 2\nvalue = [1, 1, 0]\nclass = 0", fillcolor="#e5813900"] ;
707 -> 708 ;
709 [label="entropy = 0.0\nsamples = 1\nvalue = [0, 1, 0]\nclass = 1", fillcolor="#39e581ff"] ;
708 -> 709 ;
710 [label="entropy = 0.0\nsamples = 1\nvalue = [1, 0, 0]\nclass = 0", fillcolor="#e58139ff"] ;
708 -> 710 ;
711 [label="entropy = 0.0\nsamples = 1\nvalue = [0, 2, 0]\nclass = 1", fillcolor="#39e581ff"] ;
707 -> 711 ;
712 [label="4/1/2019 <= 0.53\nentropy = 0.81\nsamples = 4\nvalue = [3, 1, 0]\nclass = 0", fillcolor="#e58139aa"] ;
672 -> 712 ;
713 [label="entropy = 0.0\nsamples = 3\nvalue = [3, 0, 0]\nclass = 0", fillcolor="#e58139ff"] ;
712 -> 713 ;
714 [label="entropy = 0.0\nsamples = 1\nvalue = [0, 1, 0]\nclass = 1", fillcolor="#39e581ff"] ;
712 -> 714 ;
715 [label="6/1/2017 <= 0.2\nentropy = 0.39\nsamples = 16\nvalue = [2, 24, 0]\nclass = 1", fillcolor="#39e581ea"] ;
671 -> 715 ;
716 [label="entropy = 0.0\nsamples = 14\nvalue = [0, 23, 0]\nclass = 1", fillcolor="#39e581ff"] ;
715 -> 716 ;
717 [label="11/1/2017 <= 2.04\nentropy = 0.92\nsamples = 2\nvalue = [2, 1, 0]\nclass = 0", fillcolor="#e581397f"] ;
715 -> 717 ;
718 [label="entropy = 0.0\nsamples = 1\nvalue = [0, 1, 0]\nclass = 1", fillcolor="#39e581ff"] ;
717 -> 718 ;
719 [label="entropy = 0.0\nsamples = 1\nvalue = [2, 0, 0]\nclass = 0", fillcolor="#e58139ff"] ;
717 -> 719 ;
720 [label="entropy = 0.0\nsamples = 8\nvalue = [9, 0, 0]\nclass = 0", fillcolor="#e58139ff"] ;
604 -> 720 ;
721 [label="43 <= 5.89\nentropy = 0.89\nsamples = 181\nvalue = [34, 228, 20]\nclass = 1", fillcolor="#39e581c7"] ;
395 -> 721 ;
722 [label="9/1/2017 <= 0.24\nentropy = 0.85\nsamples = 177\nvalue = [29, 226, 20]\nclass = 1", fillcolor="#39e581cc"] ;
721 -> 722 ;
723 [label="9/1/2017 <= 0.22\nentropy = 0.59\nsamples = 83\nvalue = [7, 120, 7]\nclass = 1", fillcolor="#39e581e3"] ;
722 -> 723 ;
724 [label="2/1/2017 <= 0.21\nentropy = 0.78\nsamples = 55\nvalue = [6, 71, 7]\nclass = 1", fillcolor="#39e581d4"] ;
723 -> 724 ;
725 [label="33 <= 1.35\nentropy = 0.16\nsamples = 29\nvalue = [0, 42, 1]\nclass = 1", fillcolor="#39e581f9"] ;
724 -> 725 ;
726 [label="entropy = 0.0\nsamples = 23\nvalue = [0, 34, 0]\nclass = 1", fillcolor="#39e581ff"] ;
725 -> 726 ;
727 [label="4/1/2017 <= 0.21\nentropy = 0.5\nsamples = 6\nvalue = [0, 8, 1]\nclass = 1", fillcolor="#39e581df"] ;
725 -> 727 ;
728 [label="9/1/2019 <= 0.32\nentropy = 0.81\nsamples = 2\nvalue = [0, 3, 1]\nclass = 1", fillcolor="#39e581aa"] ;
727 -> 728 ;
729 [label="entropy = 0.0\nsamples = 1\nvalue = [0, 3, 0]\nclass = 1", fillcolor="#39e581ff"] ;
728 -> 729 ;
730 [label="entropy = 0.0\nsamples = 1\nvalue = [0, 0, 1]\nclass = 2", fillcolor="#8139e5ff"] ;
728 -> 730 ;
731 [label="entropy = 0.0\nsamples = 4\nvalue = [0, 5, 0]\nclass = 1", fillcolor="#39e581ff"] ;
727 -> 731 ;
732 [label="29 <= 1.35\nentropy = 1.16\nsamples = 26\nvalue = [6, 29, 6]\nclass = 1", fillcolor="#39e581a8"] ;
724 -> 732 ;
733 [label="11/1/2017 <= 1.36\nentropy = 1.27\nsamples = 16\nvalue = [6, 16, 3]\nclass = 1", fillcolor="#39e58186"] ;
732 -> 733 ;
734 [label="3/1/2017 <= 0.22\nentropy = 0.76\nsamples = 6\nvalue = [0, 7, 2]\nclass = 1", fillcolor="#39e581b6"] ;
733 -> 734 ;
735 [label="entropy = 0.0\nsamples = 1\nvalue = [0, 0, 1]\nclass = 2", fillcolor="#8139e5ff"] ;
734 -> 735 ;
736 [label="3/1/2017 <= 0.22\nentropy = 0.54\nsamples = 5\nvalue = [0, 7, 1]\nclass = 1", fillcolor="#39e581db"] ;
734 -> 736 ;
737 [label="2/1/2017 <= 0.22\nentropy = 0.81\nsamples = 3\nvalue = [0, 3, 1]\nclass = 1", fillcolor="#39e581aa"] ;
736 -> 737 ;
738 [label="entropy = 0.0\nsamples = 2\nvalue = [0, 3, 0]\nclass = 1", fillcolor="#39e581ff"] ;
737 -> 738 ;
739 [label="entropy = 0.0\nsamples = 1\nvalue = [0, 0, 1]\nclass = 2", fillcolor="#8139e5ff"] ;
737 -> 739 ;
740 [label="entropy = 0.0\nsamples = 2\nvalue = [0, 4, 0]\nclass = 1", fillcolor="#39e581ff"] ;
736 -> 740 ;
741 [label="10/1/2017 <= 0.6\nentropy = 1.25\nsamples = 10\nvalue = [6, 9, 1]\nclass = 1", fillcolor="#39e5814c"] ;
733 -> 741 ;
742 [label="41 <= 1.32\nentropy = 0.81\nsamples = 3\nvalue = [3, 0, 1]\nclass = 0", fillcolor="#e58139aa"] ;
741 -> 742 ;
743 [label="entropy = 0.0\nsamples = 2\nvalue = [3, 0, 0]\nclass = 0", fillcolor="#e58139ff"] ;
742 -> 743 ;
744 [label="entropy = 0.0\nsamples = 1\nvalue = [0, 0, 1]\nclass = 2", fillcolor="#8139e5ff"] ;
742 -> 744 ;
745 [label="2/1/2019 <= 0.22\nentropy = 0.81\nsamples = 7\nvalue = [3, 9, 0]\nclass = 1", fillcolor="#39e581aa"] ;
741 -> 745 ;
746 [label="entropy = 0.0\nsamples = 3\nvalue = [0, 6, 0]\nclass = 1", fillcolor="#39e581ff"] ;
745 -> 746 ;
747 [label="7/1/2019 <= 0.26\nentropy = 1.0\nsamples = 4\nvalue = [3, 3, 0]\nclass = 0", fillcolor="#e5813900"] ;
745 -> 747 ;
748 [label="10/1/2017 <= 1.17\nentropy = 0.97\nsamples = 3\nvalue = [2, 3, 0]\nclass = 1", fillcolor="#39e58155"] ;
747 -> 748 ;
749 [label="entropy = 0.0\nsamples = 1\nvalue = [2, 0, 0]\nclass = 0", fillcolor="#e58139ff"] ;
748 -> 749 ;
750 [label="entropy = 0.0\nsamples = 2\nvalue = [0, 3, 0]\nclass = 1", fillcolor="#39e581ff"] ;
748 -> 750 ;
751 [label="entropy = 0.0\nsamples = 1\nvalue = [1, 0, 0]\nclass = 0", fillcolor="#e58139ff"] ;
747 -> 751 ;
752 [label="11/1/2017 <= 1.53\nentropy = 0.7\nsamples = 10\nvalue = [0, 13, 3]\nclass = 1", fillcolor="#39e581c4"] ;
732 -> 752 ;
753 [label="1/1/2017 <= 0.22\nentropy = 1.0\nsamples = 4\nvalue = [0, 3, 3]\nclass = 1", fillcolor="#39e58100"] ;
752 -> 753 ;
754 [label="6/1/2017 <= 0.22\nentropy = 0.97\nsamples = 3\nvalue = [0, 3, 2]\nclass = 1", fillcolor="#39e58155"] ;
753 -> 754 ;
755 [label="9/1/2019 <= 0.34\nentropy = 1.0\nsamples = 2\nvalue = [0, 2, 2]\nclass = 1", fillcolor="#39e58100"] ;
754 -> 755 ;
756 [label="entropy = 0.0\nsamples = 1\nvalue = [0, 2, 0]\nclass = 1", fillcolor="#39e581ff"] ;
755 -> 756 ;
757 [label="entropy = 0.0\nsamples = 1\nvalue = [0, 0, 2]\nclass = 2", fillcolor="#8139e5ff"] ;
755 -> 757 ;
758 [label="entropy = 0.0\nsamples = 1\nvalue = [0, 1, 0]\nclass = 1", fillcolor="#39e581ff"] ;
754 -> 758 ;
759 [label="entropy = 0.0\nsamples = 1\nvalue = [0, 0, 1]\nclass = 2", fillcolor="#8139e5ff"] ;
753 -> 759 ;
760 [label="entropy = 0.0\nsamples = 6\nvalue = [0, 10, 0]\nclass = 1", fillcolor="#39e581ff"] ;
752 -> 760 ;
761 [label="45 <= 6.19\nentropy = 0.14\nsamples = 28\nvalue = [1, 49, 0]\nclass = 1", fillcolor="#39e581fa"] ;
723 -> 761 ;
762 [label="entropy = 0.0\nsamples = 27\nvalue = [0, 49, 0]\nclass = 1", fillcolor="#39e581ff"] ;
761 -> 762 ;
763 [label="entropy = 0.0\nsamples = 1\nvalue = [1, 0, 0]\nclass = 0", fillcolor="#e58139ff"] ;
761 -> 763 ;
764 [label="9/1/2017 <= 0.27\nentropy = 1.04\nsamples = 94\nvalue = [22, 106, 13]\nclass = 1", fillcolor="#39e581b4"] ;
722 -> 764 ;
765 [label="10/1/2017 <= 0.31\nentropy = 1.26\nsamples = 44\nvalue = [11, 45, 12]\nclass = 1", fillcolor="#39e58196"] ;
764 -> 765 ;
766 [label="3/1/2017 <= 0.57\nentropy = 1.42\nsamples = 9\nvalue = [7, 2, 7]\nclass = 0", fillcolor="#e5813900"] ;
765 -> 766 ;
767 [label="5/1/2019 <= 0.25\nentropy = 1.42\nsamples = 8\nvalue = [4, 2, 7]\nclass = 2", fillcolor="#8139e555"] ;
766 -> 767 ;
768 [label="11/1/2017 <= 2.16\nentropy = 0.97\nsamples = 6\nvalue = [4, 0, 6]\nclass = 2", fillcolor="#8139e555"] ;
767 -> 768 ;
769 [label="33 <= 1.35\nentropy = 0.59\nsamples = 4\nvalue = [1, 0, 6]\nclass = 2", fillcolor="#8139e5d4"] ;
768 -> 769 ;
770 [label="entropy = 0.0\nsamples = 2\nvalue = [0, 0, 3]\nclass = 2", fillcolor="#8139e5ff"] ;
769 -> 770 ;
771 [label="9/1/2019 <= 0.52\nentropy = 0.81\nsamples = 2\nvalue = [1, 0, 3]\nclass = 2", fillcolor="#8139e5aa"] ;
769 -> 771 ;
772 [label="entropy = 0.0\nsamples = 1\nvalue = [1, 0, 0]\nclass = 0", fillcolor="#e58139ff"] ;
771 -> 772 ;
773 [label="entropy = 0.0\nsamples = 1\nvalue = [0, 0, 3]\nclass = 2", fillcolor="#8139e5ff"] ;
771 -> 773 ;
774 [label="entropy = 0.0\nsamples = 2\nvalue = [3, 0, 0]\nclass = 0", fillcolor="#e58139ff"] ;
768 -> 774 ;
775 [label="4/1/2017 <= 0.26\nentropy = 0.92\nsamples = 2\nvalue = [0, 2, 1]\nclass = 1", fillcolor="#39e5817f"] ;
767 -> 775 ;
776 [label="entropy = 0.0\nsamples = 1\nvalue = [0, 2, 0]\nclass = 1", fillcolor="#39e581ff"] ;
775 -> 776 ;
777 [label="entropy = 0.0\nsamples = 1\nvalue = [0, 0, 1]\nclass = 2", fillcolor="#8139e5ff"] ;
775 -> 777 ;
778 [label="entropy = 0.0\nsamples = 1\nvalue = [3, 0, 0]\nclass = 0", fillcolor="#e58139ff"] ;
766 -> 778 ;
779 [label="29 <= 1.35\nentropy = 0.84\nsamples = 35\nvalue = [4, 43, 5]\nclass = 1", fillcolor="#39e581ce"] ;
765 -> 779 ;
780 [label="11/1/2017 <= 0.68\nentropy = 0.86\nsamples = 25\nvalue = [3, 32, 4]\nclass = 1", fillcolor="#39e581cc"] ;
779 -> 780 ;
781 [label="11/1/2017 <= 0.4\nentropy = 0.92\nsamples = 3\nvalue = [0, 2, 4]\nclass = 2", fillcolor="#8139e57f"] ;
780 -> 781 ;
782 [label="entropy = 0.0\nsamples = 1\nvalue = [0, 0, 3]\nclass = 2", fillcolor="#8139e5ff"] ;
781 -> 782 ;
783 [label="9/1/2019 <= 0.34\nentropy = 0.92\nsamples = 2\nvalue = [0, 2, 1]\nclass = 1", fillcolor="#39e5817f"] ;
781 -> 783 ;
784 [label="entropy = 0.0\nsamples = 1\nvalue = [0, 2, 0]\nclass = 1", fillcolor="#39e581ff"] ;
783 -> 784 ;
785 [label="entropy = 0.0\nsamples = 1\nvalue = [0, 0, 1]\nclass = 2", fillcolor="#8139e5ff"] ;
783 -> 785 ;
786 [label="3/1/2017 <= 0.24\nentropy = 0.44\nsamples = 22\nvalue = [3, 30, 0]\nclass = 1", fillcolor="#39e581e6"] ;
780 -> 786 ;
787 [label="6/1/2017 <= 0.22\nentropy = 1.0\nsamples = 4\nvalue = [3, 3, 0]\nclass = 0", fillcolor="#e5813900"] ;
786 -> 787 ;
788 [label="entropy = 0.0\nsamples = 1\nvalue = [2, 0, 0]\nclass = 0", fillcolor="#e58139ff"] ;
787 -> 788 ;
789 [label="52 <= -0.41\nentropy = 0.81\nsamples = 3\nvalue = [1, 3, 0]\nclass = 1", fillcolor="#39e581aa"] ;
787 -> 789 ;
790 [label="entropy = 0.0\nsamples = 1\nvalue = [1, 0, 0]\nclass = 0", fillcolor="#e58139ff"] ;
789 -> 790 ;
791 [label="entropy = 0.0\nsamples = 2\nvalue = [0, 3, 0]\nclass = 1", fillcolor="#39e581ff"] ;
789 -> 791 ;
792 [label="entropy = 0.0\nsamples = 18\nvalue = [0, 27, 0]\nclass = 1", fillcolor="#39e581ff"] ;
786 -> 792 ;
793 [label="7/1/2019 <= 0.26\nentropy = 0.77\nsamples = 10\nvalue = [1, 11, 1]\nclass = 1", fillcolor="#39e581d4"] ;
779 -> 793 ;
794 [label="6/1/2019 <= 0.25\nentropy = 0.47\nsamples = 7\nvalue = [1, 9, 0]\nclass = 1", fillcolor="#39e581e3"] ;
793 -> 794 ;
795 [label="1/1/2019 <= 0.25\nentropy = 0.65\nsamples = 5\nvalue = [1, 5, 0]\nclass = 1", fillcolor="#39e581cc"] ;
794 -> 795 ;
796 [label="entropy = 0.0\nsamples = 1\nvalue = [0, 1, 0]\nclass = 1", fillcolor="#39e581ff"] ;
795 -> 796 ;
797 [label="58 <= 0.69\nentropy = 0.72\nsamples = 4\nvalue = [1, 4, 0]\nclass = 1", fillcolor="#39e581bf"] ;
795 -> 797 ;
798 [label="entropy = 0.0\nsamples = 3\nvalue = [0, 4, 0]\nclass = 1", fillcolor="#39e581ff"] ;
797 -> 798 ;
799 [label="entropy = 0.0\nsamples = 1\nvalue = [1, 0, 0]\nclass = 0", fillcolor="#e58139ff"] ;
797 -> 799 ;
800 [label="entropy = 0.0\nsamples = 2\nvalue = [0, 4, 0]\nclass = 1", fillcolor="#39e581ff"] ;
794 -> 800 ;
801 [label="4/1/2017 <= 0.26\nentropy = 0.92\nsamples = 3\nvalue = [0, 2, 1]\nclass = 1", fillcolor="#39e5817f"] ;
793 -> 801 ;
802 [label="entropy = 0.0\nsamples = 1\nvalue = [0, 0, 1]\nclass = 2", fillcolor="#8139e5ff"] ;
801 -> 802 ;
803 [label="entropy = 0.0\nsamples = 2\nvalue = [0, 2, 0]\nclass = 1", fillcolor="#39e581ff"] ;
801 -> 803 ;
804 [label="4/1/2017 <= 0.28\nentropy = 0.71\nsamples = 50\nvalue = [11, 61, 1]\nclass = 1", fillcolor="#39e581ce"] ;
764 -> 804 ;
805 [label="7/1/2019 <= 0.28\nentropy = 0.81\nsamples = 23\nvalue = [8, 24, 0]\nclass = 1", fillcolor="#39e581aa"] ;
804 -> 805 ;
806 [label="10/1/2017 <= 0.33\nentropy = 0.72\nsamples = 21\nvalue = [6, 24, 0]\nclass = 1", fillcolor="#39e581bf"] ;
805 -> 806 ;
807 [label="7/1/2017 <= 0.26\nentropy = 0.81\nsamples = 5\nvalue = [6, 2, 0]\nclass = 0", fillcolor="#e58139aa"] ;
806 -> 807 ;
808 [label="entropy = 0.0\nsamples = 1\nvalue = [0, 2, 0]\nclass = 1", fillcolor="#39e581ff"] ;
807 -> 808 ;
809 [label="entropy = 0.0\nsamples = 4\nvalue = [6, 0, 0]\nclass = 0", fillcolor="#e58139ff"] ;
807 -> 809 ;
810 [label="entropy = 0.0\nsamples = 16\nvalue = [0, 22, 0]\nclass = 1", fillcolor="#39e581ff"] ;
806 -> 810 ;
811 [label="entropy = 0.0\nsamples = 2\nvalue = [2, 0, 0]\nclass = 0", fillcolor="#e58139ff"] ;
805 -> 811 ;
812 [label="11/1/2017 <= 4.6\nentropy = 0.54\nsamples = 27\nvalue = [3, 37, 1]\nclass = 1", fillcolor="#39e581e4"] ;
804 -> 812 ;
813 [label="9/1/2019 <= 0.42\nentropy = 0.34\nsamples = 26\nvalue = [1, 37, 1]\nclass = 1", fillcolor="#39e581f2"] ;
812 -> 813 ;
814 [label="9/1/2017 <= 0.29\nentropy = 0.18\nsamples = 25\nvalue = [1, 37, 0]\nclass = 1", fillcolor="#39e581f8"] ;
813 -> 814 ;
815 [label="4/1/2019 <= 0.29\nentropy = 0.39\nsamples = 10\nvalue = [1, 12, 0]\nclass = 1", fillcolor="#39e581ea"] ;
814 -> 815 ;
816 [label="entropy = 0.0\nsamples = 7\nvalue = [0, 10, 0]\nclass = 1", fillcolor="#39e581ff"] ;
815 -> 816 ;
817 [label="33 <= 1.35\nentropy = 0.92\nsamples = 3\nvalue = [1, 2, 0]\nclass = 1", fillcolor="#39e5817f"] ;
815 -> 817 ;
818 [label="10/1/2017 <= 1.56\nentropy = 1.0\nsamples = 2\nvalue = [1, 1, 0]\nclass = 0", fillcolor="#e5813900"] ;
817 -> 818 ;
819 [label="entropy = 0.0\nsamples = 1\nvalue = [0, 1, 0]\nclass = 1", fillcolor="#39e581ff"] ;
818 -> 819 ;
820 [label="entropy = 0.0\nsamples = 1\nvalue = [1, 0, 0]\nclass = 0", fillcolor="#e58139ff"] ;
818 -> 820 ;
821 [label="entropy = 0.0\nsamples = 1\nvalue = [0, 1, 0]\nclass = 1", fillcolor="#39e581ff"] ;
817 -> 821 ;
822 [label="entropy = 0.0\nsamples = 15\nvalue = [0, 25, 0]\nclass = 1", fillcolor="#39e581ff"] ;
814 -> 822 ;
823 [label="entropy = 0.0\nsamples = 1\nvalue = [0, 0, 1]\nclass = 2", fillcolor="#8139e5ff"] ;
813 -> 823 ;
824 [label="entropy = 0.0\nsamples = 1\nvalue = [2, 0, 0]\nclass = 0", fillcolor="#e58139ff"] ;
812 -> 824 ;
825 [label="52 <= -0.41\nentropy = 0.86\nsamples = 4\nvalue = [5, 2, 0]\nclass = 0", fillcolor="#e5813999"] ;
721 -> 825 ;
826 [label="entropy = 0.0\nsamples = 1\nvalue = [2, 0, 0]\nclass = 0", fillcolor="#e58139ff"] ;
825 -> 826 ;
827 [label="7/1/2017 <= 0.25\nentropy = 0.97\nsamples = 3\nvalue = [3, 2, 0]\nclass = 0", fillcolor="#e5813955"] ;
825 -> 827 ;
828 [label="entropy = 0.0\nsamples = 2\nvalue = [3, 0, 0]\nclass = 0", fillcolor="#e58139ff"] ;
827 -> 828 ;
829 [label="entropy = 0.0\nsamples = 1\nvalue = [0, 2, 0]\nclass = 1", fillcolor="#39e581ff"] ;
827 -> 829 ;
830 [label="10/1/2017 <= 1.3\nentropy = 1.15\nsamples = 309\nvalue = [14, 223, 267]\nclass = 2", fillcolor="#8139e528"] ;
370 -> 830 ;
831 [label="45 <= 6.19\nentropy = 0.68\nsamples = 38\nvalue = [4, 4, 55]\nclass = 2", fillcolor="#8139e5dc"] ;
830 -> 831 ;
832 [label="5/1/2019 <= 0.31\nentropy = 0.49\nsamples = 36\nvalue = [3, 2, 55]\nclass = 2", fillcolor="#8139e5e9"] ;
831 -> 832 ;
833 [label="3/1/2017 <= 0.31\nentropy = 0.81\nsamples = 5\nvalue = [0, 2, 6]\nclass = 2", fillcolor="#8139e5aa"] ;
832 -> 833 ;
834 [label="entropy = 0.0\nsamples = 4\nvalue = [0, 0, 6]\nclass = 2", fillcolor="#8139e5ff"] ;
833 -> 834 ;
835 [label="entropy = 0.0\nsamples = 1\nvalue = [0, 2, 0]\nclass = 1", fillcolor="#39e581ff"] ;
833 -> 835 ;
836 [label="11/1/2017 <= 2.53\nentropy = 0.32\nsamples = 31\nvalue = [3, 0, 49]\nclass = 2", fillcolor="#8139e5ef"] ;
832 -> 836 ;
837 [label="7/1/2017 <= 0.37\nentropy = 0.65\nsamples = 13\nvalue = [3, 0, 15]\nclass = 2", fillcolor="#8139e5cc"] ;
836 -> 837 ;
838 [label="entropy = 0.0\nsamples = 9\nvalue = [0, 0, 13]\nclass = 2", fillcolor="#8139e5ff"] ;
837 -> 838 ;
839 [label="10/1/2017 <= 0.33\nentropy = 0.97\nsamples = 4\nvalue = [3, 0, 2]\nclass = 0", fillcolor="#e5813955"] ;
837 -> 839 ;
